Language model created by QuickLM on Fri Aug  8 01:13:47 EDT 2014
Copyright (c) 1996-2010 Carnegie Mellon University and Alexander I. Rudnicky

The model is in standard ARPA format, designed by Doug Paul while he was at MITRE.

The code that was used to produce this language model is available in Open Source.
Please visit http://www.speech.cs.cmu.edu/tools/ for more information

The (fixed) discount mass is 0.5. The backoffs are computed using the ratio method.
This model based on a corpus of 561 sentences and 51 words

\data\
ngram 1=51
ngram 2=220
ngram 3=421

\1-grams:
-1.0963 </s> -0.3010
-1.0963 <s> -0.2648
-1.6869 ABOVE -0.2718
-3.2432 ACTION -0.2648
-3.0671 AWAY -0.2648
-3.0671 BACKWARDS -0.2648
-1.7883 BOX -0.2281
-3.0671 CLOSE -0.2674
-3.8452 CREATE-NEW-ACTION -0.2648
-1.4873 CRIMSON -0.2718
-1.7883 CUBE -0.2281
-3.0671 DOWN -0.2648
-3.8452 EXECUTE -0.2648
-3.0671 FORWARD -0.2648
-2.1640 GRAB -0.2718
-3.0671 HIGHER -0.2648
-3.0671 LEFT -0.2648
-1.9057 LEFT-ARM -0.2398
-1.9057 LEFT-GRIPPER -0.2398
-1.9057 LEFT-HAND -0.2398
-2.9421 LOOK -0.2718
-2.9421 LOOK-AT -0.2718
-3.0671 LOWER -0.2648
-1.6199 MOVE -0.2674
-3.3681 NEXT -0.3003
-1.6869 NEXT-TO -0.2718
-1.7883 OBJECT -0.2281
-3.0671 OPEN -0.2674
-2.1640 PICK -0.2718
-2.1640 PICK-UP -0.2718
-1.8630 PLACE -0.2828
-3.3681 PREVIOUS -0.3003
-3.2432 PROGRAM -0.2648
-1.8630 PUT -0.2828
-3.0671 RAISE -0.2648
-1.4873 RED -0.2718
-3.0671 RELEASE -0.2674
-3.0671 RIGHT -0.2648
-1.9057 RIGHT-ARM -0.2398
-1.9057 RIGHT-GRIPPER -0.2398
-1.9057 RIGHT-HAND -0.2398
-3.2432 SKILL -0.2648
-3.8452 STOP -0.2648
-2.7660 SWITCH-TO -0.3003
-3.3681 THE-NEXT -0.3003
-3.3681 THE-PREVIOUS -0.3003
-1.7883 THING -0.2281
-3.0671 TO-THE-LEFT -0.2648
-3.0671 TO-THE-RIGHT -0.2648
-2.9421 TURN-YOUR-HEAD -0.2718
-3.0671 UP -0.2648

\2-grams:
-2.2718 <s> CLOSE 0.0000
-3.0500 <s> CREATE-NEW-ACTION 0.0000
-3.0500 <s> EXECUTE 0.0000
-1.3688 <s> GRAB 0.0000
-2.1469 <s> LOOK 0.0000
-2.1469 <s> LOOK-AT 0.0000
-0.8247 <s> MOVE 0.0000
-2.2718 <s> OPEN 0.0000
-1.3688 <s> PICK 0.0000
-1.3688 <s> PICK-UP 0.0000
-1.0677 <s> PLACE 0.0000
-1.0677 <s> PUT 0.0000
-2.2718 <s> RELEASE 0.0000
-3.0500 <s> STOP 0.0000
-1.9708 <s> SWITCH-TO 0.0000
-2.1469 <s> TURN-YOUR-HEAD 0.0000
-0.6021 ABOVE CRIMSON 0.0000
-0.6021 ABOVE RED 0.0000
-0.3010 ACTION </s> -0.3010
-0.3010 AWAY </s> -0.3010
-0.3010 BACKWARDS </s> -0.3010
-0.8808 BOX </s> -0.3010
-1.2118 BOX LEFT-ARM -0.1212
-1.2118 BOX LEFT-GRIPPER -0.1212
-1.2118 BOX LEFT-HAND -0.1212
-1.2118 BOX RIGHT-ARM -0.1212
-1.2118 BOX RIGHT-GRIPPER -0.1212
-1.2118 BOX RIGHT-HAND -0.1212
-1.0792 CLOSE LEFT-ARM -0.1212
-1.0792 CLOSE LEFT-GRIPPER -0.1212
-1.0792 CLOSE LEFT-HAND -0.1212
-1.0792 CLOSE RIGHT-ARM -0.1212
-1.0792 CLOSE RIGHT-GRIPPER -0.1212
-1.0792 CLOSE RIGHT-HAND -0.1212
-0.3010 CREATE-NEW-ACTION </s> -0.3010
-0.9031 CRIMSON BOX -0.0000
-0.9031 CRIMSON CUBE -0.0000
-0.9031 CRIMSON OBJECT -0.0000
-0.9031 CRIMSON THING -0.0000
-0.8808 CUBE </s> -0.3010
-1.2118 CUBE LEFT-ARM -0.1212
-1.2118 CUBE LEFT-GRIPPER -0.1212
-1.2118 CUBE LEFT-HAND -0.1212
-1.2118 CUBE RIGHT-ARM -0.1212
-1.2118 CUBE RIGHT-GRIPPER -0.1212
-1.2118 CUBE RIGHT-HAND -0.1212
-0.3010 DOWN </s> -0.3010
-0.3010 EXECUTE </s> -0.3010
-0.3010 FORWARD </s> -0.3010
-0.6021 GRAB CRIMSON 0.0000
-0.6021 GRAB RED 0.0000
-0.3010 HIGHER </s> -0.3010
-0.3010 LEFT </s> -0.3010
-0.4697 LEFT-ARM </s> -0.3010
-1.3375 LEFT-ARM ABOVE 0.0000
-2.2405 LEFT-ARM AWAY 0.0000
-2.2405 LEFT-ARM BACKWARDS 0.0000
-2.2405 LEFT-ARM DOWN 0.0000
-2.2405 LEFT-ARM FORWARD 0.0000
-2.2405 LEFT-ARM HIGHER 0.0000
-2.2405 LEFT-ARM LEFT 0.0000
-2.2405 LEFT-ARM LOWER 0.0000
-1.3375 LEFT-ARM NEXT-TO 0.0000
-2.2405 LEFT-ARM RAISE 0.0000
-2.2405 LEFT-ARM RIGHT 0.0000
-2.2405 LEFT-ARM TO-THE-LEFT 0.0000
-2.2405 LEFT-ARM TO-THE-RIGHT 0.0000
-2.2405 LEFT-ARM UP 0.0000
-0.4697 LEFT-GRIPPER </s> -0.3010
-1.3375 LEFT-GRIPPER ABOVE 0.0000
-2.2405 LEFT-GRIPPER AWAY 0.0000
-2.2405 LEFT-GRIPPER BACKWARDS 0.0000
-2.2405 LEFT-GRIPPER DOWN 0.0000
-2.2405 LEFT-GRIPPER FORWARD 0.0000
-2.2405 LEFT-GRIPPER HIGHER 0.0000
-2.2405 LEFT-GRIPPER LEFT 0.0000
-2.2405 LEFT-GRIPPER LOWER 0.0000
-1.3375 LEFT-GRIPPER NEXT-TO 0.0000
-2.2405 LEFT-GRIPPER RAISE 0.0000
-2.2405 LEFT-GRIPPER RIGHT 0.0000
-2.2405 LEFT-GRIPPER TO-THE-LEFT 0.0000
-2.2405 LEFT-GRIPPER TO-THE-RIGHT 0.0000
-2.2405 LEFT-GRIPPER UP 0.0000
-0.4697 LEFT-HAND </s> -0.3010
-1.3375 LEFT-HAND ABOVE 0.0000
-2.2405 LEFT-HAND AWAY 0.0000
-2.2405 LEFT-HAND BACKWARDS 0.0000
-2.2405 LEFT-HAND DOWN 0.0000
-2.2405 LEFT-HAND FORWARD 0.0000
-2.2405 LEFT-HAND HIGHER 0.0000
-2.2405 LEFT-HAND LEFT 0.0000
-2.2405 LEFT-HAND LOWER 0.0000
-1.3375 LEFT-HAND NEXT-TO 0.0000
-2.2405 LEFT-HAND RAISE 0.0000
-2.2405 LEFT-HAND RIGHT 0.0000
-2.2405 LEFT-HAND TO-THE-LEFT 0.0000
-2.2405 LEFT-HAND TO-THE-RIGHT 0.0000
-2.2405 LEFT-HAND UP 0.0000
-0.6021 LOOK CRIMSON 0.0000
-0.6021 LOOK RED 0.0000
-0.6021 LOOK-AT CRIMSON 0.0000
-0.6021 LOOK-AT RED 0.0000
-0.3010 LOWER </s> -0.3010
-1.0792 MOVE LEFT-ARM -0.2248
-1.0792 MOVE LEFT-GRIPPER -0.2248
-1.0792 MOVE LEFT-HAND -0.2248
-1.0792 MOVE RIGHT-ARM -0.2248
-1.0792 MOVE RIGHT-GRIPPER -0.2248
-1.0792 MOVE RIGHT-HAND -0.2248
-0.7782 NEXT ACTION 0.0000
-0.7782 NEXT PROGRAM 0.0000
-0.7782 NEXT SKILL 0.0000
-0.6021 NEXT-TO CRIMSON 0.0000
-0.6021 NEXT-TO RED 0.0000
-0.8808 OBJECT </s> -0.3010
-1.2118 OBJECT LEFT-ARM -0.1212
-1.2118 OBJECT LEFT-GRIPPER -0.1212
-1.2118 OBJECT LEFT-HAND -0.1212
-1.2118 OBJECT RIGHT-ARM -0.1212
-1.2118 OBJECT RIGHT-GRIPPER -0.1212
-1.2118 OBJECT RIGHT-HAND -0.1212
-1.0792 OPEN LEFT-ARM -0.1212
-1.0792 OPEN LEFT-GRIPPER -0.1212
-1.0792 OPEN LEFT-HAND -0.1212
-1.0792 OPEN RIGHT-ARM -0.1212
-1.0792 OPEN RIGHT-GRIPPER -0.1212
-1.0792 OPEN RIGHT-HAND -0.1212
-0.6021 PICK CRIMSON 0.0000
-0.6021 PICK RED 0.0000
-0.6021 PICK-UP CRIMSON 0.0000
-0.6021 PICK-UP RED 0.0000
-0.6021 PLACE ABOVE 0.0000
-0.6021 PLACE NEXT-TO 0.0000
-0.7782 PREVIOUS ACTION 0.0000
-0.7782 PREVIOUS PROGRAM 0.0000
-0.7782 PREVIOUS SKILL 0.0000
-0.3010 PROGRAM </s> -0.3010
-0.6021 PUT ABOVE 0.0000
-0.6021 PUT NEXT-TO 0.0000
-0.3010 RAISE </s> -0.3010
-0.9031 RED BOX -0.0000
-0.9031 RED CUBE -0.0000
-0.9031 RED OBJECT -0.0000
-0.9031 RED THING -0.0000
-1.0792 RELEASE LEFT-ARM -0.1212
-1.0792 RELEASE LEFT-GRIPPER -0.1212
-1.0792 RELEASE LEFT-HAND -0.1212
-1.0792 RELEASE RIGHT-ARM -0.1212
-1.0792 RELEASE RIGHT-GRIPPER -0.1212
-1.0792 RELEASE RIGHT-HAND -0.1212
-0.3010 RIGHT </s> -0.3010
-0.4697 RIGHT-ARM </s> -0.3010
-1.3375 RIGHT-ARM ABOVE 0.0000
-2.2405 RIGHT-ARM AWAY 0.0000
-2.2405 RIGHT-ARM BACKWARDS 0.0000
-2.2405 RIGHT-ARM DOWN 0.0000
-2.2405 RIGHT-ARM FORWARD 0.0000
-2.2405 RIGHT-ARM HIGHER 0.0000
-2.2405 RIGHT-ARM LEFT 0.0000
-2.2405 RIGHT-ARM LOWER 0.0000
-1.3375 RIGHT-ARM NEXT-TO 0.0000
-2.2405 RIGHT-ARM RAISE 0.0000
-2.2405 RIGHT-ARM RIGHT 0.0000
-2.2405 RIGHT-ARM TO-THE-LEFT 0.0000
-2.2405 RIGHT-ARM TO-THE-RIGHT 0.0000
-2.2405 RIGHT-ARM UP 0.0000
-0.4697 RIGHT-GRIPPER </s> -0.3010
-1.3375 RIGHT-GRIPPER ABOVE 0.0000
-2.2405 RIGHT-GRIPPER AWAY 0.0000
-2.2405 RIGHT-GRIPPER BACKWARDS 0.0000
-2.2405 RIGHT-GRIPPER DOWN 0.0000
-2.2405 RIGHT-GRIPPER FORWARD 0.0000
-2.2405 RIGHT-GRIPPER HIGHER 0.0000
-2.2405 RIGHT-GRIPPER LEFT 0.0000
-2.2405 RIGHT-GRIPPER LOWER 0.0000
-1.3375 RIGHT-GRIPPER NEXT-TO 0.0000
-2.2405 RIGHT-GRIPPER RAISE 0.0000
-2.2405 RIGHT-GRIPPER RIGHT 0.0000
-2.2405 RIGHT-GRIPPER TO-THE-LEFT 0.0000
-2.2405 RIGHT-GRIPPER TO-THE-RIGHT 0.0000
-2.2405 RIGHT-GRIPPER UP 0.0000
-0.4697 RIGHT-HAND </s> -0.3010
-1.3375 RIGHT-HAND ABOVE 0.0000
-2.2405 RIGHT-HAND AWAY 0.0000
-2.2405 RIGHT-HAND BACKWARDS 0.0000
-2.2405 RIGHT-HAND DOWN 0.0000
-2.2405 RIGHT-HAND FORWARD 0.0000
-2.2405 RIGHT-HAND HIGHER 0.0000
-2.2405 RIGHT-HAND LEFT 0.0000
-2.2405 RIGHT-HAND LOWER 0.0000
-1.3375 RIGHT-HAND NEXT-TO 0.0000
-2.2405 RIGHT-HAND RAISE 0.0000
-2.2405 RIGHT-HAND RIGHT 0.0000
-2.2405 RIGHT-HAND TO-THE-LEFT 0.0000
-2.2405 RIGHT-HAND TO-THE-RIGHT 0.0000
-2.2405 RIGHT-HAND UP 0.0000
-0.3010 SKILL </s> -0.3010
-0.3010 STOP </s> -0.3010
-0.9031 SWITCH-TO NEXT 0.0000
-0.9031 SWITCH-TO PREVIOUS 0.0000
-0.9031 SWITCH-TO THE-NEXT 0.0000
-0.9031 SWITCH-TO THE-PREVIOUS 0.0000
-0.7782 THE-NEXT ACTION 0.0000
-0.7782 THE-NEXT PROGRAM 0.0000
-0.7782 THE-NEXT SKILL 0.0000
-0.7782 THE-PREVIOUS ACTION 0.0000
-0.7782 THE-PREVIOUS PROGRAM 0.0000
-0.7782 THE-PREVIOUS SKILL 0.0000
-0.8808 THING </s> -0.3010
-1.2118 THING LEFT-ARM -0.1212
-1.2118 THING LEFT-GRIPPER -0.1212
-1.2118 THING LEFT-HAND -0.1212
-1.2118 THING RIGHT-ARM -0.1212
-1.2118 THING RIGHT-GRIPPER -0.1212
-1.2118 THING RIGHT-HAND -0.1212
-0.3010 TO-THE-LEFT </s> -0.3010
-0.3010 TO-THE-RIGHT </s> -0.3010
-0.6021 TURN-YOUR-HEAD CRIMSON 0.0000
-0.6021 TURN-YOUR-HEAD RED 0.0000
-0.3010 UP </s> -0.3010

\3-grams:
-1.0792 <s> CLOSE LEFT-ARM
-1.0792 <s> CLOSE LEFT-GRIPPER
-1.0792 <s> CLOSE LEFT-HAND
-1.0792 <s> CLOSE RIGHT-ARM
-1.0792 <s> CLOSE RIGHT-GRIPPER
-1.0792 <s> CLOSE RIGHT-HAND
-0.3010 <s> CREATE-NEW-ACTION </s>
-0.3010 <s> EXECUTE </s>
-0.6021 <s> GRAB CRIMSON
-0.6021 <s> GRAB RED
-0.6021 <s> LOOK CRIMSON
-0.6021 <s> LOOK RED
-0.6021 <s> LOOK-AT CRIMSON
-0.6021 <s> LOOK-AT RED
-1.0792 <s> MOVE LEFT-ARM
-1.0792 <s> MOVE LEFT-GRIPPER
-1.0792 <s> MOVE LEFT-HAND
-1.0792 <s> MOVE RIGHT-ARM
-1.0792 <s> MOVE RIGHT-GRIPPER
-1.0792 <s> MOVE RIGHT-HAND
-1.0792 <s> OPEN LEFT-ARM
-1.0792 <s> OPEN LEFT-GRIPPER
-1.0792 <s> OPEN LEFT-HAND
-1.0792 <s> OPEN RIGHT-ARM
-1.0792 <s> OPEN RIGHT-GRIPPER
-1.0792 <s> OPEN RIGHT-HAND
-0.6021 <s> PICK CRIMSON
-0.6021 <s> PICK RED
-0.6021 <s> PICK-UP CRIMSON
-0.6021 <s> PICK-UP RED
-0.6021 <s> PLACE ABOVE
-0.6021 <s> PLACE NEXT-TO
-0.6021 <s> PUT ABOVE
-0.6021 <s> PUT NEXT-TO
-1.0792 <s> RELEASE LEFT-ARM
-1.0792 <s> RELEASE LEFT-GRIPPER
-1.0792 <s> RELEASE LEFT-HAND
-1.0792 <s> RELEASE RIGHT-ARM
-1.0792 <s> RELEASE RIGHT-GRIPPER
-1.0792 <s> RELEASE RIGHT-HAND
-0.3010 <s> STOP </s>
-0.9031 <s> SWITCH-TO NEXT
-0.9031 <s> SWITCH-TO PREVIOUS
-0.9031 <s> SWITCH-TO THE-NEXT
-0.9031 <s> SWITCH-TO THE-PREVIOUS
-0.6021 <s> TURN-YOUR-HEAD CRIMSON
-0.6021 <s> TURN-YOUR-HEAD RED
-0.9031 ABOVE CRIMSON BOX
-0.9031 ABOVE CRIMSON CUBE
-0.9031 ABOVE CRIMSON OBJECT
-0.9031 ABOVE CRIMSON THING
-0.9031 ABOVE RED BOX
-0.9031 ABOVE RED CUBE
-0.9031 ABOVE RED OBJECT
-0.9031 ABOVE RED THING
-0.3010 BOX LEFT-ARM </s>
-0.3010 BOX LEFT-GRIPPER </s>
-0.3010 BOX LEFT-HAND </s>
-0.3010 BOX RIGHT-ARM </s>
-0.3010 BOX RIGHT-GRIPPER </s>
-0.3010 BOX RIGHT-HAND </s>
-0.3010 CLOSE LEFT-ARM </s>
-0.3010 CLOSE LEFT-GRIPPER </s>
-0.3010 CLOSE LEFT-HAND </s>
-0.3010 CLOSE RIGHT-ARM </s>
-0.3010 CLOSE RIGHT-GRIPPER </s>
-0.3010 CLOSE RIGHT-HAND </s>
-0.8808 CRIMSON BOX </s>
-1.2118 CRIMSON BOX LEFT-ARM
-1.2118 CRIMSON BOX LEFT-GRIPPER
-1.2118 CRIMSON BOX LEFT-HAND
-1.2118 CRIMSON BOX RIGHT-ARM
-1.2118 CRIMSON BOX RIGHT-GRIPPER
-1.2118 CRIMSON BOX RIGHT-HAND
-0.8808 CRIMSON CUBE </s>
-1.2118 CRIMSON CUBE LEFT-ARM
-1.2118 CRIMSON CUBE LEFT-GRIPPER
-1.2118 CRIMSON CUBE LEFT-HAND
-1.2118 CRIMSON CUBE RIGHT-ARM
-1.2118 CRIMSON CUBE RIGHT-GRIPPER
-1.2118 CRIMSON CUBE RIGHT-HAND
-0.8808 CRIMSON OBJECT </s>
-1.2118 CRIMSON OBJECT LEFT-ARM
-1.2118 CRIMSON OBJECT LEFT-GRIPPER
-1.2118 CRIMSON OBJECT LEFT-HAND
-1.2118 CRIMSON OBJECT RIGHT-ARM
-1.2118 CRIMSON OBJECT RIGHT-GRIPPER
-1.2118 CRIMSON OBJECT RIGHT-HAND
-0.8808 CRIMSON THING </s>
-1.2118 CRIMSON THING LEFT-ARM
-1.2118 CRIMSON THING LEFT-GRIPPER
-1.2118 CRIMSON THING LEFT-HAND
-1.2118 CRIMSON THING RIGHT-ARM
-1.2118 CRIMSON THING RIGHT-GRIPPER
-1.2118 CRIMSON THING RIGHT-HAND
-0.3010 CUBE LEFT-ARM </s>
-0.3010 CUBE LEFT-GRIPPER </s>
-0.3010 CUBE LEFT-HAND </s>
-0.3010 CUBE RIGHT-ARM </s>
-0.3010 CUBE RIGHT-GRIPPER </s>
-0.3010 CUBE RIGHT-HAND </s>
-0.9031 GRAB CRIMSON BOX
-0.9031 GRAB CRIMSON CUBE
-0.9031 GRAB CRIMSON OBJECT
-0.9031 GRAB CRIMSON THING
-0.9031 GRAB RED BOX
-0.9031 GRAB RED CUBE
-0.9031 GRAB RED OBJECT
-0.9031 GRAB RED THING
-0.6021 LEFT-ARM ABOVE CRIMSON
-0.6021 LEFT-ARM ABOVE RED
-0.3010 LEFT-ARM AWAY </s>
-0.3010 LEFT-ARM BACKWARDS </s>
-0.3010 LEFT-ARM DOWN </s>
-0.3010 LEFT-ARM FORWARD </s>
-0.3010 LEFT-ARM HIGHER </s>
-0.3010 LEFT-ARM LEFT </s>
-0.3010 LEFT-ARM LOWER </s>
-0.6021 LEFT-ARM NEXT-TO CRIMSON
-0.6021 LEFT-ARM NEXT-TO RED
-0.3010 LEFT-ARM RAISE </s>
-0.3010 LEFT-ARM RIGHT </s>
-0.3010 LEFT-ARM TO-THE-LEFT </s>
-0.3010 LEFT-ARM TO-THE-RIGHT </s>
-0.3010 LEFT-ARM UP </s>
-0.6021 LEFT-GRIPPER ABOVE CRIMSON
-0.6021 LEFT-GRIPPER ABOVE RED
-0.3010 LEFT-GRIPPER AWAY </s>
-0.3010 LEFT-GRIPPER BACKWARDS </s>
-0.3010 LEFT-GRIPPER DOWN </s>
-0.3010 LEFT-GRIPPER FORWARD </s>
-0.3010 LEFT-GRIPPER HIGHER </s>
-0.3010 LEFT-GRIPPER LEFT </s>
-0.3010 LEFT-GRIPPER LOWER </s>
-0.6021 LEFT-GRIPPER NEXT-TO CRIMSON
-0.6021 LEFT-GRIPPER NEXT-TO RED
-0.3010 LEFT-GRIPPER RAISE </s>
-0.3010 LEFT-GRIPPER RIGHT </s>
-0.3010 LEFT-GRIPPER TO-THE-LEFT </s>
-0.3010 LEFT-GRIPPER TO-THE-RIGHT </s>
-0.3010 LEFT-GRIPPER UP </s>
-0.6021 LEFT-HAND ABOVE CRIMSON
-0.6021 LEFT-HAND ABOVE RED
-0.3010 LEFT-HAND AWAY </s>
-0.3010 LEFT-HAND BACKWARDS </s>
-0.3010 LEFT-HAND DOWN </s>
-0.3010 LEFT-HAND FORWARD </s>
-0.3010 LEFT-HAND HIGHER </s>
-0.3010 LEFT-HAND LEFT </s>
-0.3010 LEFT-HAND LOWER </s>
-0.6021 LEFT-HAND NEXT-TO CRIMSON
-0.6021 LEFT-HAND NEXT-TO RED
-0.3010 LEFT-HAND RAISE </s>
-0.3010 LEFT-HAND RIGHT </s>
-0.3010 LEFT-HAND TO-THE-LEFT </s>
-0.3010 LEFT-HAND TO-THE-RIGHT </s>
-0.3010 LEFT-HAND UP </s>
-0.9031 LOOK CRIMSON BOX
-0.9031 LOOK CRIMSON CUBE
-0.9031 LOOK CRIMSON OBJECT
-0.9031 LOOK CRIMSON THING
-0.9031 LOOK RED BOX
-0.9031 LOOK RED CUBE
-0.9031 LOOK RED OBJECT
-0.9031 LOOK RED THING
-0.9031 LOOK-AT CRIMSON BOX
-0.9031 LOOK-AT CRIMSON CUBE
-0.9031 LOOK-AT CRIMSON OBJECT
-0.9031 LOOK-AT CRIMSON THING
-0.9031 LOOK-AT RED BOX
-0.9031 LOOK-AT RED CUBE
-0.9031 LOOK-AT RED OBJECT
-0.9031 LOOK-AT RED THING
-0.8451 MOVE LEFT-ARM ABOVE
-1.7482 MOVE LEFT-ARM AWAY
-1.7482 MOVE LEFT-ARM BACKWARDS
-1.7482 MOVE LEFT-ARM DOWN
-1.7482 MOVE LEFT-ARM FORWARD
-1.7482 MOVE LEFT-ARM HIGHER
-1.7482 MOVE LEFT-ARM LEFT
-1.7482 MOVE LEFT-ARM LOWER
-0.8451 MOVE LEFT-ARM NEXT-TO
-1.7482 MOVE LEFT-ARM RAISE
-1.7482 MOVE LEFT-ARM RIGHT
-1.7482 MOVE LEFT-ARM TO-THE-LEFT
-1.7482 MOVE LEFT-ARM TO-THE-RIGHT
-1.7482 MOVE LEFT-ARM UP
-0.8451 MOVE LEFT-GRIPPER ABOVE
-1.7482 MOVE LEFT-GRIPPER AWAY
-1.7482 MOVE LEFT-GRIPPER BACKWARDS
-1.7482 MOVE LEFT-GRIPPER DOWN
-1.7482 MOVE LEFT-GRIPPER FORWARD
-1.7482 MOVE LEFT-GRIPPER HIGHER
-1.7482 MOVE LEFT-GRIPPER LEFT
-1.7482 MOVE LEFT-GRIPPER LOWER
-0.8451 MOVE LEFT-GRIPPER NEXT-TO
-1.7482 MOVE LEFT-GRIPPER RAISE
-1.7482 MOVE LEFT-GRIPPER RIGHT
-1.7482 MOVE LEFT-GRIPPER TO-THE-LEFT
-1.7482 MOVE LEFT-GRIPPER TO-THE-RIGHT
-1.7482 MOVE LEFT-GRIPPER UP
-0.8451 MOVE LEFT-HAND ABOVE
-1.7482 MOVE LEFT-HAND AWAY
-1.7482 MOVE LEFT-HAND BACKWARDS
-1.7482 MOVE LEFT-HAND DOWN
-1.7482 MOVE LEFT-HAND FORWARD
-1.7482 MOVE LEFT-HAND HIGHER
-1.7482 MOVE LEFT-HAND LEFT
-1.7482 MOVE LEFT-HAND LOWER
-0.8451 MOVE LEFT-HAND NEXT-TO
-1.7482 MOVE LEFT-HAND RAISE
-1.7482 MOVE LEFT-HAND RIGHT
-1.7482 MOVE LEFT-HAND TO-THE-LEFT
-1.7482 MOVE LEFT-HAND TO-THE-RIGHT
-1.7482 MOVE LEFT-HAND UP
-0.8451 MOVE RIGHT-ARM ABOVE
-1.7482 MOVE RIGHT-ARM AWAY
-1.7482 MOVE RIGHT-ARM BACKWARDS
-1.7482 MOVE RIGHT-ARM DOWN
-1.7482 MOVE RIGHT-ARM FORWARD
-1.7482 MOVE RIGHT-ARM HIGHER
-1.7482 MOVE RIGHT-ARM LEFT
-1.7482 MOVE RIGHT-ARM LOWER
-0.8451 MOVE RIGHT-ARM NEXT-TO
-1.7482 MOVE RIGHT-ARM RAISE
-1.7482 MOVE RIGHT-ARM RIGHT
-1.7482 MOVE RIGHT-ARM TO-THE-LEFT
-1.7482 MOVE RIGHT-ARM TO-THE-RIGHT
-1.7482 MOVE RIGHT-ARM UP
-0.8451 MOVE RIGHT-GRIPPER ABOVE
-1.7482 MOVE RIGHT-GRIPPER AWAY
-1.7482 MOVE RIGHT-GRIPPER BACKWARDS
-1.7482 MOVE RIGHT-GRIPPER DOWN
-1.7482 MOVE RIGHT-GRIPPER FORWARD
-1.7482 MOVE RIGHT-GRIPPER HIGHER
-1.7482 MOVE RIGHT-GRIPPER LEFT
-1.7482 MOVE RIGHT-GRIPPER LOWER
-0.8451 MOVE RIGHT-GRIPPER NEXT-TO
-1.7482 MOVE RIGHT-GRIPPER RAISE
-1.7482 MOVE RIGHT-GRIPPER RIGHT
-1.7482 MOVE RIGHT-GRIPPER TO-THE-LEFT
-1.7482 MOVE RIGHT-GRIPPER TO-THE-RIGHT
-1.7482 MOVE RIGHT-GRIPPER UP
-0.8451 MOVE RIGHT-HAND ABOVE
-1.7482 MOVE RIGHT-HAND AWAY
-1.7482 MOVE RIGHT-HAND BACKWARDS
-1.7482 MOVE RIGHT-HAND DOWN
-1.7482 MOVE RIGHT-HAND FORWARD
-1.7482 MOVE RIGHT-HAND HIGHER
-1.7482 MOVE RIGHT-HAND LEFT
-1.7482 MOVE RIGHT-HAND LOWER
-0.8451 MOVE RIGHT-HAND NEXT-TO
-1.7482 MOVE RIGHT-HAND RAISE
-1.7482 MOVE RIGHT-HAND RIGHT
-1.7482 MOVE RIGHT-HAND TO-THE-LEFT
-1.7482 MOVE RIGHT-HAND TO-THE-RIGHT
-1.7482 MOVE RIGHT-HAND UP
-0.3010 NEXT ACTION </s>
-0.3010 NEXT PROGRAM </s>
-0.3010 NEXT SKILL </s>
-0.9031 NEXT-TO CRIMSON BOX
-0.9031 NEXT-TO CRIMSON CUBE
-0.9031 NEXT-TO CRIMSON OBJECT
-0.9031 NEXT-TO CRIMSON THING
-0.9031 NEXT-TO RED BOX
-0.9031 NEXT-TO RED CUBE
-0.9031 NEXT-TO RED OBJECT
-0.9031 NEXT-TO RED THING
-0.3010 OBJECT LEFT-ARM </s>
-0.3010 OBJECT LEFT-GRIPPER </s>
-0.3010 OBJECT LEFT-HAND </s>
-0.3010 OBJECT RIGHT-ARM </s>
-0.3010 OBJECT RIGHT-GRIPPER </s>
-0.3010 OBJECT RIGHT-HAND </s>
-0.3010 OPEN LEFT-ARM </s>
-0.3010 OPEN LEFT-GRIPPER </s>
-0.3010 OPEN LEFT-HAND </s>
-0.3010 OPEN RIGHT-ARM </s>
-0.3010 OPEN RIGHT-GRIPPER </s>
-0.3010 OPEN RIGHT-HAND </s>
-0.9031 PICK CRIMSON BOX
-0.9031 PICK CRIMSON CUBE
-0.9031 PICK CRIMSON OBJECT
-0.9031 PICK CRIMSON THING
-0.9031 PICK RED BOX
-0.9031 PICK RED CUBE
-0.9031 PICK RED OBJECT
-0.9031 PICK RED THING
-0.9031 PICK-UP CRIMSON BOX
-0.9031 PICK-UP CRIMSON CUBE
-0.9031 PICK-UP CRIMSON OBJECT
-0.9031 PICK-UP CRIMSON THING
-0.9031 PICK-UP RED BOX
-0.9031 PICK-UP RED CUBE
-0.9031 PICK-UP RED OBJECT
-0.9031 PICK-UP RED THING
-0.6021 PLACE ABOVE CRIMSON
-0.6021 PLACE ABOVE RED
-0.6021 PLACE NEXT-TO CRIMSON
-0.6021 PLACE NEXT-TO RED
-0.3010 PREVIOUS ACTION </s>
-0.3010 PREVIOUS PROGRAM </s>
-0.3010 PREVIOUS SKILL </s>
-0.6021 PUT ABOVE CRIMSON
-0.6021 PUT ABOVE RED
-0.6021 PUT NEXT-TO CRIMSON
-0.6021 PUT NEXT-TO RED
-0.8808 RED BOX </s>
-1.2118 RED BOX LEFT-ARM
-1.2118 RED BOX LEFT-GRIPPER
-1.2118 RED BOX LEFT-HAND
-1.2118 RED BOX RIGHT-ARM
-1.2118 RED BOX RIGHT-GRIPPER
-1.2118 RED BOX RIGHT-HAND
-0.8808 RED CUBE </s>
-1.2118 RED CUBE LEFT-ARM
-1.2118 RED CUBE LEFT-GRIPPER
-1.2118 RED CUBE LEFT-HAND
-1.2118 RED CUBE RIGHT-ARM
-1.2118 RED CUBE RIGHT-GRIPPER
-1.2118 RED CUBE RIGHT-HAND
-0.8808 RED OBJECT </s>
-1.2118 RED OBJECT LEFT-ARM
-1.2118 RED OBJECT LEFT-GRIPPER
-1.2118 RED OBJECT LEFT-HAND
-1.2118 RED OBJECT RIGHT-ARM
-1.2118 RED OBJECT RIGHT-GRIPPER
-1.2118 RED OBJECT RIGHT-HAND
-0.8808 RED THING </s>
-1.2118 RED THING LEFT-ARM
-1.2118 RED THING LEFT-GRIPPER
-1.2118 RED THING LEFT-HAND
-1.2118 RED THING RIGHT-ARM
-1.2118 RED THING RIGHT-GRIPPER
-1.2118 RED THING RIGHT-HAND
-0.3010 RELEASE LEFT-ARM </s>
-0.3010 RELEASE LEFT-GRIPPER </s>
-0.3010 RELEASE LEFT-HAND </s>
-0.3010 RELEASE RIGHT-ARM </s>
-0.3010 RELEASE RIGHT-GRIPPER </s>
-0.3010 RELEASE RIGHT-HAND </s>
-0.6021 RIGHT-ARM ABOVE CRIMSON
-0.6021 RIGHT-ARM ABOVE RED
-0.3010 RIGHT-ARM AWAY </s>
-0.3010 RIGHT-ARM BACKWARDS </s>
-0.3010 RIGHT-ARM DOWN </s>
-0.3010 RIGHT-ARM FORWARD </s>
-0.3010 RIGHT-ARM HIGHER </s>
-0.3010 RIGHT-ARM LEFT </s>
-0.3010 RIGHT-ARM LOWER </s>
-0.6021 RIGHT-ARM NEXT-TO CRIMSON
-0.6021 RIGHT-ARM NEXT-TO RED
-0.3010 RIGHT-ARM RAISE </s>
-0.3010 RIGHT-ARM RIGHT </s>
-0.3010 RIGHT-ARM TO-THE-LEFT </s>
-0.3010 RIGHT-ARM TO-THE-RIGHT </s>
-0.3010 RIGHT-ARM UP </s>
-0.6021 RIGHT-GRIPPER ABOVE CRIMSON
-0.6021 RIGHT-GRIPPER ABOVE RED
-0.3010 RIGHT-GRIPPER AWAY </s>
-0.3010 RIGHT-GRIPPER BACKWARDS </s>
-0.3010 RIGHT-GRIPPER DOWN </s>
-0.3010 RIGHT-GRIPPER FORWARD </s>
-0.3010 RIGHT-GRIPPER HIGHER </s>
-0.3010 RIGHT-GRIPPER LEFT </s>
-0.3010 RIGHT-GRIPPER LOWER </s>
-0.6021 RIGHT-GRIPPER NEXT-TO CRIMSON
-0.6021 RIGHT-GRIPPER NEXT-TO RED
-0.3010 RIGHT-GRIPPER RAISE </s>
-0.3010 RIGHT-GRIPPER RIGHT </s>
-0.3010 RIGHT-GRIPPER TO-THE-LEFT </s>
-0.3010 RIGHT-GRIPPER TO-THE-RIGHT </s>
-0.3010 RIGHT-GRIPPER UP </s>
-0.6021 RIGHT-HAND ABOVE CRIMSON
-0.6021 RIGHT-HAND ABOVE RED
-0.3010 RIGHT-HAND AWAY </s>
-0.3010 RIGHT-HAND BACKWARDS </s>
-0.3010 RIGHT-HAND DOWN </s>
-0.3010 RIGHT-HAND FORWARD </s>
-0.3010 RIGHT-HAND HIGHER </s>
-0.3010 RIGHT-HAND LEFT </s>
-0.3010 RIGHT-HAND LOWER </s>
-0.6021 RIGHT-HAND NEXT-TO CRIMSON
-0.6021 RIGHT-HAND NEXT-TO RED
-0.3010 RIGHT-HAND RAISE </s>
-0.3010 RIGHT-HAND RIGHT </s>
-0.3010 RIGHT-HAND TO-THE-LEFT </s>
-0.3010 RIGHT-HAND TO-THE-RIGHT </s>
-0.3010 RIGHT-HAND UP </s>
-0.7782 SWITCH-TO NEXT ACTION
-0.7782 SWITCH-TO NEXT PROGRAM
-0.7782 SWITCH-TO NEXT SKILL
-0.7782 SWITCH-TO PREVIOUS ACTION
-0.7782 SWITCH-TO PREVIOUS PROGRAM
-0.7782 SWITCH-TO PREVIOUS SKILL
-0.7782 SWITCH-TO THE-NEXT ACTION
-0.7782 SWITCH-TO THE-NEXT PROGRAM
-0.7782 SWITCH-TO THE-NEXT SKILL
-0.7782 SWITCH-TO THE-PREVIOUS ACTION
-0.7782 SWITCH-TO THE-PREVIOUS PROGRAM
-0.7782 SWITCH-TO THE-PREVIOUS SKILL
-0.3010 THE-NEXT ACTION </s>
-0.3010 THE-NEXT PROGRAM </s>
-0.3010 THE-NEXT SKILL </s>
-0.3010 THE-PREVIOUS ACTION </s>
-0.3010 THE-PREVIOUS PROGRAM </s>
-0.3010 THE-PREVIOUS SKILL </s>
-0.3010 THING LEFT-ARM </s>
-0.3010 THING LEFT-GRIPPER </s>
-0.3010 THING LEFT-HAND </s>
-0.3010 THING RIGHT-ARM </s>
-0.3010 THING RIGHT-GRIPPER </s>
-0.3010 THING RIGHT-HAND </s>
-0.9031 TURN-YOUR-HEAD CRIMSON BOX
-0.9031 TURN-YOUR-HEAD CRIMSON CUBE
-0.9031 TURN-YOUR-HEAD CRIMSON OBJECT
-0.9031 TURN-YOUR-HEAD CRIMSON THING
-0.9031 TURN-YOUR-HEAD RED BOX
-0.9031 TURN-YOUR-HEAD RED CUBE
-0.9031 TURN-YOUR-HEAD RED OBJECT
-0.9031 TURN-YOUR-HEAD RED THING

\end\
