Language model created by QuickLM on Mon Aug 18 02:47:56 EDT 2014
Copyright (c) 1996-2010 Carnegie Mellon University and Alexander I. Rudnicky

The model is in standard ARPA format, designed by Doug Paul while he was at MITRE.

The code that was used to produce this language model is available in Open Source.
Please visit http://www.speech.cs.cmu.edu/tools/ for more information

The (fixed) discount mass is 0.5. The backoffs are computed using the ratio method.
This model based on a corpus of 10767 sentences and 90 words

\data\
ngram 1=90
ngram 2=610
ngram 3=1999

\1-grams:
-1.1922 </s> -0.3010
-1.1922 <s> -0.0993
-5.2243 ABOVE -0.2722
-4.4462 ACTION -0.2722
-4.3792 AWAY -0.2722
-5.2243 AWAY-FROM -0.2722
-4.3792 BACKWARDS -0.2722
-5.2243 BEHIND -0.2722
-2.0479 BIG -0.1491
-2.0479 BIGGEST -0.1491
-1.9019 BLUE -0.2421
-1.9019 BOX -0.2722
-4.1104 CLOCKWISE -0.2722
-4.3792 CLOSE -0.2717
-4.3792 CLOSER -0.2722
-1.8050 CLOSEST -0.1891
-4.1104 COUNTERCLOCKWISE -0.2722
-4.6223 CREATE-NEW -0.2721
-1.9019 CRIMSON -0.2421
-1.9019 CUBE -0.2722
-1.9019 CUP -0.2722
-4.3792 DOWN -0.2722
-4.9233 EXECUTE -0.2722
-1.8050 FARTHEST -0.2030
-4.3792 FORWARD -0.2722
-5.2243 GRAB -0.2722
-1.9019 GREEN -0.2421
-4.3792 HIGHER -0.2722
-5.2243 IN-FRONT-OF -0.2722
-2.0479 LARGE -0.1491
-2.0479 LARGEST -0.1491
-1.9007 LEFT -0.2164
-3.7772 LEFT-ARM -0.2601
-3.7772 LEFT-GRIPPER -0.2601
-3.7772 LEFT-HAND -0.2601
-1.9019 LEFT-MOST -0.2164
-5.2243 LOOK -0.2722
-5.2243 LOOK-AT -0.2722
-4.3792 LOWER -0.2722
-3.2949 MOVE -0.2717
-5.2243 NEAR -0.2722
-1.8050 NEAREST -0.1891
-4.6223 NEXT -0.2721
-5.2243 NEXT-TO -0.2722
-1.9019 OBJECT -0.2722
-5.2243 ON -0.2722
-4.1104 ON-THE-TABLE -0.2717
-5.2243 ON-TOP-OF -0.2722
-4.3792 OPEN -0.2717
-5.2243 PICK -0.2722
-5.2243 PICK-UP -0.2722
-3.9456 PLACE -0.2721
-5.2243 POINT-AT -0.2722
-5.2243 POINT-TO -0.2722
-4.6223 PREVIOUS -0.2721
-4.4462 PROGRAM -0.2722
-3.9456 PUT -0.2721
-4.3792 RAISE -0.2722
-1.9019 RED -0.2421
-4.3792 RELEASE -0.2717
-1.9007 RIGHT -0.2081
-3.7772 RIGHT-ARM -0.2601
-3.7772 RIGHT-GRIPPER -0.2601
-3.7772 RIGHT-HAND -0.2601
-1.9019 RIGHT-MOST -0.2081
-4.1104 RIGHT-THERE -0.2717
-4.1104 ROTATE -0.2717
-1.6801 SHORTEST -0.1510
-4.4462 SKILL -0.2722
-2.0479 SMALL -0.1618
-2.0479 SMALLEST -0.1618
-4.9233 STOP -0.2722
-4.1104 SWITCH-TO -0.2722
-1.6801 TALLEST -0.1284
-1.2031 THE -0.1005
-4.6223 THE-NEXT -0.2721
-4.6223 THE-PREVIOUS -0.2721
-4.1104 THERE -0.2717
-1.9019 THING -0.2722
-4.3792 TO-THE-LEFT -0.2722
-5.2243 TO-THE-LEFT-OF -0.2722
-4.3792 TO-THE-RIGHT -0.2722
-5.2243 TO-THE-RIGHT-OF -0.2722
-4.3792 TO-THE-SIDE -0.2722
-5.2243 TOWARDS -0.2722
-5.2243 TURN-YOUR-HEAD -0.2722
-4.1104 TWIST -0.2717
-4.3792 UP -0.2722
-5.2243 WITH -0.2722
-5.2243 YOUR -0.2722

\2-grams:
-4.3331 <s> ABOVE 0.0000
-4.3331 <s> ACTION 0.0000
-4.3331 <s> AWAY 0.0000
-4.3331 <s> AWAY-FROM 0.0000
-4.3331 <s> BACKWARDS 0.0000
-4.3331 <s> BEHIND 0.0000
-4.3331 <s> BIG -0.3009
-4.3331 <s> BIGGEST -0.3009
-4.3331 <s> BLUE -0.3009
-4.3331 <s> BOX 0.0000
-4.3331 <s> CLOCKWISE 0.0000
-3.4880 <s> CLOSE -0.0000
-4.3331 <s> CLOSER 0.0000
-4.3331 <s> CLOSEST -0.3009
-4.3331 <s> COUNTERCLOCKWISE 0.0000
-3.7311 <s> CREATE-NEW 0.0000
-4.3331 <s> CRIMSON -0.3009
-4.3331 <s> CUBE 0.0000
-4.3331 <s> CUP 0.0000
-4.3331 <s> DOWN 0.0000
-4.0321 <s> EXECUTE 0.0000
-4.3331 <s> FARTHEST -0.3009
-4.3331 <s> FORWARD 0.0000
-4.3331 <s> GRAB 0.0000
-4.3331 <s> GREEN -0.3009
-4.3331 <s> HIGHER 0.0000
-4.3331 <s> IN-FRONT-OF 0.0000
-4.3331 <s> LARGE -0.3009
-4.3331 <s> LARGEST -0.3009
-4.3331 <s> LEFT -0.3003
-4.3331 <s> LEFT-ARM -0.2156
-4.3331 <s> LEFT-GRIPPER -0.2156
-4.3331 <s> LEFT-HAND -0.2156
-4.3331 <s> LEFT-MOST -0.3009
-4.3331 <s> LOOK 0.0000
-4.3331 <s> LOOK-AT 0.0000
-4.3331 <s> LOWER 0.0000
-2.4037 <s> MOVE 0.0000
-4.3331 <s> NEAR 0.0000
-4.3331 <s> NEAREST -0.3009
-4.3331 <s> NEXT -0.2430
-4.3331 <s> NEXT-TO 0.0000
-4.3331 <s> OBJECT 0.0000
-4.3331 <s> ON 0.0000
-4.3331 <s> ON-THE-TABLE -0.2840
-4.3331 <s> ON-TOP-OF 0.0000
-3.4880 <s> OPEN -0.0000
-4.3331 <s> PICK 0.0000
-4.3331 <s> PICK-UP 0.0000
-3.0544 <s> PLACE 0.0000
-4.3331 <s> POINT-AT 0.0000
-4.3331 <s> POINT-TO 0.0000
-4.3331 <s> PREVIOUS -0.2430
-4.3331 <s> PROGRAM 0.0000
-3.0544 <s> PUT 0.0000
-4.3331 <s> RAISE 0.0000
-4.3331 <s> RED -0.3009
-3.4880 <s> RELEASE -0.0000
-4.3331 <s> RIGHT -0.3003
-4.3331 <s> RIGHT-ARM -0.2156
-4.3331 <s> RIGHT-GRIPPER -0.2156
-4.3331 <s> RIGHT-HAND -0.2156
-4.3331 <s> RIGHT-MOST -0.3009
-4.3331 <s> RIGHT-THERE -0.2840
-3.2192 <s> ROTATE 0.0000
-4.3331 <s> SHORTEST -0.3010
-4.3331 <s> SKILL 0.0000
-4.3331 <s> SMALL -0.3009
-4.3331 <s> SMALLEST -0.3009
-4.0321 <s> STOP 0.0000
-3.2192 <s> SWITCH-TO 0.0000
-4.3331 <s> TALLEST -0.3010
-0.3119 <s> THE 0.0000
-4.3331 <s> THE-NEXT -0.2430
-4.3331 <s> THE-PREVIOUS -0.2430
-4.3331 <s> THERE -0.2840
-4.3331 <s> THING 0.0000
-4.3331 <s> TO-THE-LEFT 0.0000
-4.3331 <s> TO-THE-LEFT-OF 0.0000
-4.3331 <s> TO-THE-RIGHT 0.0000
-4.3331 <s> TO-THE-RIGHT-OF 0.0000
-4.3331 <s> TO-THE-SIDE 0.0000
-4.3331 <s> TOWARDS 0.0000
-4.3331 <s> TURN-YOUR-HEAD 0.0000
-3.2192 <s> TWIST 0.0000
-4.3331 <s> UP 0.0000
-4.3331 <s> WITH 0.0000
-4.3331 <s> YOUR 0.0000
-0.3010 ABOVE </s> -0.3010
-0.3010 ACTION </s> -0.3010
-0.3010 AWAY </s> -0.3010
-0.3010 AWAY-FROM </s> -0.3010
-0.3010 BACKWARDS </s> -0.3010
-0.3010 BEHIND </s> -0.3010
-3.4774 BIG </s> -0.3010
-2.4774 BIG BLUE -0.0002
-3.1764 BIG BOX 0.0000
-1.0795 BIG CLOSEST -0.0002
-2.4774 BIG CRIMSON -0.0002
-3.1764 BIG CUBE 0.0000
-3.1764 BIG CUP 0.0000
-1.3013 BIG FARTHEST -0.0002
-2.4774 BIG GREEN -0.0002
-1.7784 BIG LEFT -0.0014
-1.7784 BIG LEFT-MOST -0.0002
-1.0795 BIG NEAREST -0.0002
-3.1764 BIG OBJECT 0.0000
-2.4774 BIG RED -0.0002
-1.4774 BIG RIGHT -0.0014
-1.4774 BIG RIGHT-MOST -0.0002
-0.7784 BIG SHORTEST -0.1092
-3.1764 BIG THING 0.0000
-3.4774 BIGGEST </s> -0.3010
-2.4774 BIGGEST BLUE -0.0002
-3.1764 BIGGEST BOX 0.0000
-1.0795 BIGGEST CLOSEST -0.0002
-2.4774 BIGGEST CRIMSON -0.0002
-3.1764 BIGGEST CUBE 0.0000
-3.1764 BIGGEST CUP 0.0000
-1.3013 BIGGEST FARTHEST -0.0002
-2.4774 BIGGEST GREEN -0.0002
-1.7784 BIGGEST LEFT -0.0014
-1.7784 BIGGEST LEFT-MOST -0.0002
-1.0795 BIGGEST NEAREST -0.0002
-3.1764 BIGGEST OBJECT 0.0000
-2.4774 BIGGEST RED -0.0002
-1.4774 BIGGEST RIGHT -0.0014
-1.4774 BIGGEST RIGHT-MOST -0.0002
-0.7784 BIGGEST SHORTEST -0.1092
-3.1764 BIGGEST THING 0.0000
-3.6235 BLUE </s> -0.3010
-1.0002 BLUE BOX 0.0000
-1.0002 BLUE CUBE 0.0000
-1.0002 BLUE CUP 0.0000
-1.0002 BLUE OBJECT 0.0000
-1.0002 BLUE THING 0.0000
-0.3010 BOX </s> -0.3010
-0.3010 CLOCKWISE </s> -0.3010
-1.1461 CLOSE </s> -0.3010
-1.1461 CLOSE LEFT-ARM -0.2156
-1.1461 CLOSE LEFT-GRIPPER -0.2156
-1.1461 CLOSE LEFT-HAND -0.2156
-1.1461 CLOSE RIGHT-ARM -0.2156
-1.1461 CLOSE RIGHT-GRIPPER -0.2156
-1.1461 CLOSE RIGHT-HAND -0.2156
-0.3010 CLOSER </s> -0.3010
-3.7203 CLOSEST </s> -0.3010
-1.6991 CLOSEST BLUE -0.0002
-2.3981 CLOSEST BOX 0.0000
-1.6991 CLOSEST CRIMSON -0.0002
-2.3981 CLOSEST CUBE 0.0000
-2.3981 CLOSEST CUP 0.0000
-1.6991 CLOSEST GREEN -0.0002
-1.0002 CLOSEST LEFT -0.0014
-1.0002 CLOSEST LEFT-MOST -0.0002
-2.3981 CLOSEST OBJECT 0.0000
-1.6991 CLOSEST RED -0.0002
-1.0002 CLOSEST RIGHT -0.0978
-1.0002 CLOSEST RIGHT-MOST -0.0970
-2.3981 CLOSEST THING 0.0000
-0.3010 COUNTERCLOCKWISE </s> -0.3010
-0.9031 CREATE-NEW </s> -0.3010
-0.9031 CREATE-NEW ACTION 0.0000
-0.9031 CREATE-NEW PROGRAM 0.0000
-0.9031 CREATE-NEW SKILL 0.0000
-3.6235 CRIMSON </s> -0.3010
-1.0002 CRIMSON BOX 0.0000
-1.0002 CRIMSON CUBE 0.0000
-1.0002 CRIMSON CUP 0.0000
-1.0002 CRIMSON OBJECT 0.0000
-1.0002 CRIMSON THING 0.0000
-0.3010 CUBE </s> -0.3010
-0.3010 CUP </s> -0.3010
-0.3010 DOWN </s> -0.3010
-0.3010 EXECUTE </s> -0.3010
-3.7203 FARTHEST </s> -0.3010
-1.2220 FARTHEST BLUE -0.0002
-1.9210 FARTHEST BOX 0.0000
-1.2220 FARTHEST CRIMSON -0.0002
-1.9210 FARTHEST CUBE 0.0000
-1.9210 FARTHEST CUP 0.0000
-1.2220 FARTHEST GREEN -0.0002
-1.0002 FARTHEST LEFT -0.0014
-1.0002 FARTHEST LEFT-MOST -0.0002
-1.9210 FARTHEST OBJECT 0.0000
-1.2220 FARTHEST RED -0.0002
-1.9210 FARTHEST THING 0.0000
-0.3010 FORWARD </s> -0.3010
-0.3010 GRAB </s> -0.3010
-3.6235 GREEN </s> -0.3010
-1.0002 GREEN BOX 0.0000
-1.0002 GREEN CUBE 0.0000
-1.0002 GREEN CUP 0.0000
-1.0002 GREEN OBJECT 0.0000
-1.0002 GREEN THING 0.0000
-0.3010 HIGHER </s> -0.3010
-0.3010 IN-FRONT-OF </s> -0.3010
-3.4774 LARGE </s> -0.3010
-2.4774 LARGE BLUE -0.0002
-3.1764 LARGE BOX 0.0000
-1.0795 LARGE CLOSEST -0.0002
-2.4774 LARGE CRIMSON -0.0002
-3.1764 LARGE CUBE 0.0000
-3.1764 LARGE CUP 0.0000
-1.3013 LARGE FARTHEST -0.0002
-2.4774 LARGE GREEN -0.0002
-1.7784 LARGE LEFT -0.0014
-1.7784 LARGE LEFT-MOST -0.0002
-1.0795 LARGE NEAREST -0.0002
-3.1764 LARGE OBJECT 0.0000
-2.4774 LARGE RED -0.0002
-1.4774 LARGE RIGHT -0.0014
-1.4774 LARGE RIGHT-MOST -0.0002
-0.7784 LARGE SHORTEST -0.1092
-3.1764 LARGE THING 0.0000
-3.4774 LARGEST </s> -0.3010
-2.4774 LARGEST BLUE -0.0002
-3.1764 LARGEST BOX 0.0000
-1.0795 LARGEST CLOSEST -0.0002
-2.4774 LARGEST CRIMSON -0.0002
-3.1764 LARGEST CUBE 0.0000
-3.1764 LARGEST CUP 0.0000
-1.3013 LARGEST FARTHEST -0.0002
-2.4774 LARGEST GREEN -0.0002
-1.7784 LARGEST LEFT -0.0014
-1.7784 LARGEST LEFT-MOST -0.0002
-1.0795 LARGEST NEAREST -0.0002
-3.1764 LARGEST OBJECT 0.0000
-2.4774 LARGEST RED -0.0002
-1.4774 LARGEST RIGHT -0.0014
-1.4774 LARGEST RIGHT-MOST -0.0002
-0.7784 LARGEST SHORTEST -0.1092
-3.1764 LARGEST THING 0.0000
-2.7796 LEFT </s> -0.3010
-1.0014 LEFT BLUE -0.0002
-1.7004 LEFT BOX 0.0000
-1.0014 LEFT CRIMSON -0.0002
-1.7004 LEFT CUBE 0.0000
-1.7004 LEFT CUP 0.0000
-1.0014 LEFT GREEN -0.0002
-1.7004 LEFT OBJECT 0.0000
-1.0014 LEFT RED -0.0002
-1.7004 LEFT THING 0.0000
-0.7482 LEFT-ARM </s> -0.3010
-1.7482 LEFT-ARM AWAY 0.0000
-1.7482 LEFT-ARM BACKWARDS 0.0000
-1.4472 LEFT-ARM CLOCKWISE 0.0000
-1.7482 LEFT-ARM CLOSER 0.0000
-1.4472 LEFT-ARM COUNTERCLOCKWISE 0.0000
-1.7482 LEFT-ARM DOWN 0.0000
-1.7482 LEFT-ARM FORWARD 0.0000
-1.7482 LEFT-ARM HIGHER 0.0000
-1.7482 LEFT-ARM LEFT -0.3003
-1.7482 LEFT-ARM LOWER 0.0000
-1.7482 LEFT-ARM RAISE 0.0000
-1.7482 LEFT-ARM RIGHT -0.3003
-1.7482 LEFT-ARM TO-THE-LEFT 0.0000
-1.7482 LEFT-ARM TO-THE-RIGHT 0.0000
-1.7482 LEFT-ARM TO-THE-SIDE 0.0000
-1.7482 LEFT-ARM UP 0.0000
-0.7482 LEFT-GRIPPER </s> -0.3010
-1.7482 LEFT-GRIPPER AWAY 0.0000
-1.7482 LEFT-GRIPPER BACKWARDS 0.0000
-1.4472 LEFT-GRIPPER CLOCKWISE 0.0000
-1.7482 LEFT-GRIPPER CLOSER 0.0000
-1.4472 LEFT-GRIPPER COUNTERCLOCKWISE 0.0000
-1.7482 LEFT-GRIPPER DOWN 0.0000
-1.7482 LEFT-GRIPPER FORWARD 0.0000
-1.7482 LEFT-GRIPPER HIGHER 0.0000
-1.7482 LEFT-GRIPPER LEFT -0.3003
-1.7482 LEFT-GRIPPER LOWER 0.0000
-1.7482 LEFT-GRIPPER RAISE 0.0000
-1.7482 LEFT-GRIPPER RIGHT -0.3003
-1.7482 LEFT-GRIPPER TO-THE-LEFT 0.0000
-1.7482 LEFT-GRIPPER TO-THE-RIGHT 0.0000
-1.7482 LEFT-GRIPPER TO-THE-SIDE 0.0000
-1.7482 LEFT-GRIPPER UP 0.0000
-0.7482 LEFT-HAND </s> -0.3010
-1.7482 LEFT-HAND AWAY 0.0000
-1.7482 LEFT-HAND BACKWARDS 0.0000
-1.4472 LEFT-HAND CLOCKWISE 0.0000
-1.7482 LEFT-HAND CLOSER 0.0000
-1.4472 LEFT-HAND COUNTERCLOCKWISE 0.0000
-1.7482 LEFT-HAND DOWN 0.0000
-1.7482 LEFT-HAND FORWARD 0.0000
-1.7482 LEFT-HAND HIGHER 0.0000
-1.7482 LEFT-HAND LEFT -0.3003
-1.7482 LEFT-HAND LOWER 0.0000
-1.7482 LEFT-HAND RAISE 0.0000
-1.7482 LEFT-HAND RIGHT -0.3003
-1.7482 LEFT-HAND TO-THE-LEFT 0.0000
-1.7482 LEFT-HAND TO-THE-RIGHT 0.0000
-1.7482 LEFT-HAND TO-THE-SIDE 0.0000
-1.7482 LEFT-HAND UP 0.0000
-3.6235 LEFT-MOST </s> -0.3010
-1.0002 LEFT-MOST BLUE -0.0002
-1.6992 LEFT-MOST BOX 0.0000
-1.0002 LEFT-MOST CRIMSON -0.0002
-1.6992 LEFT-MOST CUBE 0.0000
-1.6992 LEFT-MOST CUP 0.0000
-1.0002 LEFT-MOST GREEN -0.0002
-1.6992 LEFT-MOST OBJECT 0.0000
-1.0002 LEFT-MOST RED -0.0002
-1.6992 LEFT-MOST THING 0.0000
-0.3010 LOOK </s> -0.3010
-0.3010 LOOK-AT </s> -0.3010
-0.3010 LOWER </s> -0.3010
-2.2304 MOVE </s> -0.3010
-1.0843 MOVE LEFT-ARM -0.1761
-1.0843 MOVE LEFT-GRIPPER -0.1761
-1.0843 MOVE LEFT-HAND -0.1761
-1.0843 MOVE RIGHT-ARM -0.1761
-1.0843 MOVE RIGHT-GRIPPER -0.1761
-1.0843 MOVE RIGHT-HAND -0.1761
-0.3010 NEAR </s> -0.3010
-3.7203 NEAREST </s> -0.3010
-1.6991 NEAREST BLUE -0.0002
-2.3981 NEAREST BOX 0.0000
-1.6991 NEAREST CRIMSON -0.0002
-2.3981 NEAREST CUBE 0.0000
-2.3981 NEAREST CUP 0.0000
-1.6991 NEAREST GREEN -0.0002
-1.0002 NEAREST LEFT -0.0014
-1.0002 NEAREST LEFT-MOST -0.0002
-2.3981 NEAREST OBJECT 0.0000
-1.6991 NEAREST RED -0.0002
-1.0002 NEAREST RIGHT -0.0978
-1.0002 NEAREST RIGHT-MOST -0.0970
-2.3981 NEAREST THING 0.0000
-0.9031 NEXT </s> -0.3010
-0.9031 NEXT ACTION 0.0000
-0.9031 NEXT PROGRAM 0.0000
-0.9031 NEXT SKILL 0.0000
-0.3010 NEXT-TO </s> -0.3010
-0.3010 OBJECT </s> -0.3010
-0.3010 ON </s> -0.3010
-1.4150 ON-THE-TABLE </s> -0.3010
-1.1139 ON-THE-TABLE LEFT-ARM -0.2156
-1.1139 ON-THE-TABLE LEFT-GRIPPER -0.2156
-1.1139 ON-THE-TABLE LEFT-HAND -0.2156
-1.1139 ON-THE-TABLE RIGHT-ARM -0.2156
-1.1139 ON-THE-TABLE RIGHT-GRIPPER -0.2156
-1.1139 ON-THE-TABLE RIGHT-HAND -0.2156
-0.3010 ON-TOP-OF </s> -0.3010
-1.1461 OPEN </s> -0.3010
-1.1461 OPEN LEFT-ARM -0.2156
-1.1461 OPEN LEFT-GRIPPER -0.2156
-1.1461 OPEN LEFT-HAND -0.2156
-1.1461 OPEN RIGHT-ARM -0.2156
-1.1461 OPEN RIGHT-GRIPPER -0.2156
-1.1461 OPEN RIGHT-HAND -0.2156
-0.3010 PICK </s> -0.3010
-0.3010 PICK-UP </s> -0.3010
-1.5798 PLACE </s> -0.3010
-0.8016 PLACE ON-THE-TABLE -0.0322
-0.8016 PLACE RIGHT-THERE -0.0322
-0.8016 PLACE THERE -0.0322
-0.3010 POINT-AT </s> -0.3010
-0.3010 POINT-TO </s> -0.3010
-0.9031 PREVIOUS </s> -0.3010
-0.9031 PREVIOUS ACTION 0.0000
-0.9031 PREVIOUS PROGRAM 0.0000
-0.9031 PREVIOUS SKILL 0.0000
-0.3010 PROGRAM </s> -0.3010
-1.5798 PUT </s> -0.3010
-0.8016 PUT ON-THE-TABLE -0.0322
-0.8016 PUT RIGHT-THERE -0.0322
-0.8016 PUT THERE -0.0322
-0.3010 RAISE </s> -0.3010
-3.6235 RED </s> -0.3010
-1.0002 RED BOX 0.0000
-1.0002 RED CUBE 0.0000
-1.0002 RED CUP 0.0000
-1.0002 RED OBJECT 0.0000
-1.0002 RED THING 0.0000
-1.1461 RELEASE </s> -0.3010
-1.1461 RELEASE LEFT-ARM -0.2156
-1.1461 RELEASE LEFT-GRIPPER -0.2156
-1.1461 RELEASE LEFT-HAND -0.2156
-1.1461 RELEASE RIGHT-ARM -0.2156
-1.1461 RELEASE RIGHT-GRIPPER -0.2156
-1.1461 RELEASE RIGHT-HAND -0.2156
-2.7796 RIGHT </s> -0.3010
-1.1264 RIGHT BLUE -0.0002
-1.8254 RIGHT BOX 0.0000
-1.1264 RIGHT CRIMSON -0.0002
-1.8254 RIGHT CUBE 0.0000
-1.8254 RIGHT CUP 0.0000
-0.9045 RIGHT FARTHEST -0.1462
-1.1264 RIGHT GREEN -0.0002
-1.8254 RIGHT OBJECT 0.0000
-1.1264 RIGHT RED -0.0002
-1.8254 RIGHT THING 0.0000
-0.7482 RIGHT-ARM </s> -0.3010
-1.7482 RIGHT-ARM AWAY 0.0000
-1.7482 RIGHT-ARM BACKWARDS 0.0000
-1.4472 RIGHT-ARM CLOCKWISE 0.0000
-1.7482 RIGHT-ARM CLOSER 0.0000
-1.4472 RIGHT-ARM COUNTERCLOCKWISE 0.0000
-1.7482 RIGHT-ARM DOWN 0.0000
-1.7482 RIGHT-ARM FORWARD 0.0000
-1.7482 RIGHT-ARM HIGHER 0.0000
-1.7482 RIGHT-ARM LEFT -0.3003
-1.7482 RIGHT-ARM LOWER 0.0000
-1.7482 RIGHT-ARM RAISE 0.0000
-1.7482 RIGHT-ARM RIGHT -0.3003
-1.7482 RIGHT-ARM TO-THE-LEFT 0.0000
-1.7482 RIGHT-ARM TO-THE-RIGHT 0.0000
-1.7482 RIGHT-ARM TO-THE-SIDE 0.0000
-1.7482 RIGHT-ARM UP 0.0000
-0.7482 RIGHT-GRIPPER </s> -0.3010
-1.7482 RIGHT-GRIPPER AWAY 0.0000
-1.7482 RIGHT-GRIPPER BACKWARDS 0.0000
-1.4472 RIGHT-GRIPPER CLOCKWISE 0.0000
-1.7482 RIGHT-GRIPPER CLOSER 0.0000
-1.4472 RIGHT-GRIPPER COUNTERCLOCKWISE 0.0000
-1.7482 RIGHT-GRIPPER DOWN 0.0000
-1.7482 RIGHT-GRIPPER FORWARD 0.0000
-1.7482 RIGHT-GRIPPER HIGHER 0.0000
-1.7482 RIGHT-GRIPPER LEFT -0.3003
-1.7482 RIGHT-GRIPPER LOWER 0.0000
-1.7482 RIGHT-GRIPPER RAISE 0.0000
-1.7482 RIGHT-GRIPPER RIGHT -0.3003
-1.7482 RIGHT-GRIPPER TO-THE-LEFT 0.0000
-1.7482 RIGHT-GRIPPER TO-THE-RIGHT 0.0000
-1.7482 RIGHT-GRIPPER TO-THE-SIDE 0.0000
-1.7482 RIGHT-GRIPPER UP 0.0000
-0.7482 RIGHT-HAND </s> -0.3010
-1.7482 RIGHT-HAND AWAY 0.0000
-1.7482 RIGHT-HAND BACKWARDS 0.0000
-1.4472 RIGHT-HAND CLOCKWISE 0.0000
-1.7482 RIGHT-HAND CLOSER 0.0000
-1.4472 RIGHT-HAND COUNTERCLOCKWISE 0.0000
-1.7482 RIGHT-HAND DOWN 0.0000
-1.7482 RIGHT-HAND FORWARD 0.0000
-1.7482 RIGHT-HAND HIGHER 0.0000
-1.7482 RIGHT-HAND LEFT -0.3003
-1.7482 RIGHT-HAND LOWER 0.0000
-1.7482 RIGHT-HAND RAISE 0.0000
-1.7482 RIGHT-HAND RIGHT -0.3003
-1.7482 RIGHT-HAND TO-THE-LEFT 0.0000
-1.7482 RIGHT-HAND TO-THE-RIGHT 0.0000
-1.7482 RIGHT-HAND TO-THE-SIDE 0.0000
-1.7482 RIGHT-HAND UP 0.0000
-3.6235 RIGHT-MOST </s> -0.3010
-1.1251 RIGHT-MOST BLUE -0.0002
-1.8241 RIGHT-MOST BOX 0.0000
-1.1251 RIGHT-MOST CRIMSON -0.0002
-1.8241 RIGHT-MOST CUBE 0.0000
-1.8241 RIGHT-MOST CUP 0.0000
-0.9033 RIGHT-MOST FARTHEST -0.1462
-1.1251 RIGHT-MOST GREEN -0.0002
-1.8241 RIGHT-MOST OBJECT 0.0000
-1.1251 RIGHT-MOST RED -0.0002
-1.8241 RIGHT-MOST THING 0.0000
-1.4150 RIGHT-THERE </s> -0.3010
-1.1139 RIGHT-THERE LEFT-ARM -0.2156
-1.1139 RIGHT-THERE LEFT-GRIPPER -0.2156
-1.1139 RIGHT-THERE LEFT-HAND -0.2156
-1.1139 RIGHT-THERE RIGHT-ARM -0.2156
-1.1139 RIGHT-THERE RIGHT-GRIPPER -0.2156
-1.1139 RIGHT-THERE RIGHT-HAND -0.2156
-1.4150 ROTATE </s> -0.3010
-1.1139 ROTATE LEFT-ARM -0.2688
-1.1139 ROTATE LEFT-GRIPPER -0.2688
-1.1139 ROTATE LEFT-HAND -0.2688
-1.1139 ROTATE RIGHT-ARM -0.2688
-1.1139 ROTATE RIGHT-GRIPPER -0.2688
-1.1139 ROTATE RIGHT-HAND -0.2688
-3.8452 SHORTEST </s> -0.3010
-2.4473 SHORTEST BLUE -0.0002
-3.1463 SHORTEST BOX 0.0000
-1.0493 SHORTEST CLOSEST -0.0002
-2.4473 SHORTEST CRIMSON -0.0002
-3.1463 SHORTEST CUBE 0.0000
-3.1463 SHORTEST CUP 0.0000
-1.2712 SHORTEST FARTHEST -0.0002
-2.4473 SHORTEST GREEN -0.0002
-1.7483 SHORTEST LEFT -0.0014
-1.7483 SHORTEST LEFT-MOST -0.0002
-1.0493 SHORTEST NEAREST -0.0002
-3.1463 SHORTEST OBJECT 0.0000
-2.4473 SHORTEST RED -0.0002
-1.4473 SHORTEST RIGHT -0.0014
-1.4473 SHORTEST RIGHT-MOST -0.0002
-1.1463 SHORTEST SMALL -0.0003
-1.1463 SHORTEST SMALLEST -0.0003
-3.1463 SHORTEST THING 0.0000
-0.3010 SKILL </s> -0.3010
-3.4774 SMALL </s> -0.3010
-2.3013 SMALL BLUE -0.0002
-3.0003 SMALL BOX 0.0000
-0.9034 SMALL CLOSEST -0.0002
-2.3013 SMALL CRIMSON -0.0002
-3.0003 SMALL CUBE 0.0000
-3.0003 SMALL CUP 0.0000
-1.1252 SMALL FARTHEST -0.0002
-2.3013 SMALL GREEN -0.0002
-1.6023 SMALL LEFT -0.0014
-1.6023 SMALL LEFT-MOST -0.0002
-0.9034 SMALL NEAREST -0.0002
-3.0003 SMALL OBJECT 0.0000
-2.3013 SMALL RED -0.0002
-1.3013 SMALL RIGHT -0.0014
-1.3013 SMALL RIGHT-MOST -0.0002
-3.0003 SMALL THING 0.0000
-3.4774 SMALLEST </s> -0.3010
-2.3013 SMALLEST BLUE -0.0002
-3.0003 SMALLEST BOX 0.0000
-0.9034 SMALLEST CLOSEST -0.0002
-2.3013 SMALLEST CRIMSON -0.0002
-3.0003 SMALLEST CUBE 0.0000
-3.0003 SMALLEST CUP 0.0000
-1.1252 SMALLEST FARTHEST -0.0002
-2.3013 SMALLEST GREEN -0.0002
-1.6023 SMALLEST LEFT -0.0014
-1.6023 SMALLEST LEFT-MOST -0.0002
-0.9034 SMALLEST NEAREST -0.0002
-3.0003 SMALLEST OBJECT 0.0000
-2.3013 SMALLEST RED -0.0002
-1.3013 SMALLEST RIGHT -0.0014
-1.3013 SMALLEST RIGHT-MOST -0.0002
-3.0003 SMALLEST THING 0.0000
-0.3010 STOP </s> -0.3010
-1.4150 SWITCH-TO </s> -0.3010
-0.9379 SWITCH-TO NEXT -0.0969
-0.9379 SWITCH-TO PREVIOUS -0.0969
-0.9379 SWITCH-TO THE-NEXT -0.0969
-0.9379 SWITCH-TO THE-PREVIOUS -0.0969
-3.8452 TALLEST </s> -0.3010
-1.1463 TALLEST BIG -0.1251
-1.1463 TALLEST BIGGEST -0.1251
-3.1463 TALLEST BLUE -0.0002
-3.8452 TALLEST BOX 0.0000
-1.7483 TALLEST CLOSEST -0.0002
-3.1463 TALLEST CRIMSON -0.0002
-3.8452 TALLEST CUBE 0.0000
-3.8452 TALLEST CUP 0.0000
-1.9702 TALLEST FARTHEST -0.0002
-3.1463 TALLEST GREEN -0.0002
-1.1463 TALLEST LARGE -0.1251
-1.1463 TALLEST LARGEST -0.1251
-2.4473 TALLEST LEFT -0.0014
-2.4473 TALLEST LEFT-MOST -0.0002
-1.7483 TALLEST NEAREST -0.0002
-3.8452 TALLEST OBJECT 0.0000
-3.1463 TALLEST RED -0.0002
-2.1463 TALLEST RIGHT -0.0014
-2.1463 TALLEST RIGHT-MOST -0.0002
-1.1463 TALLEST SMALL -0.0003
-1.1463 TALLEST SMALLEST -0.0003
-3.8452 TALLEST THING 0.0000
-4.3223 THE </s> -0.3010
-1.3223 THE BIG -0.0003
-1.3223 THE BIGGEST -0.0003
-3.6233 THE BLUE -0.0002
-4.3223 THE BOX 0.0000
-2.2254 THE CLOSEST -0.0002
-3.6233 THE CRIMSON -0.0002
-4.3223 THE CUBE 0.0000
-4.3223 THE CUP 0.0000
-2.4472 THE FARTHEST -0.0002
-3.6233 THE GREEN -0.0002
-1.3223 THE LARGE -0.0003
-1.3223 THE LARGEST -0.0003
-2.9243 THE LEFT -0.0014
-2.9243 THE LEFT-MOST -0.0002
-2.2254 THE NEAREST -0.0002
-4.3223 THE OBJECT 0.0000
-3.6233 THE RED -0.0002
-2.6233 THE RIGHT -0.0014
-2.6233 THE RIGHT-MOST -0.0002
-1.1462 THE SHORTEST -0.0001
-1.6233 THE SMALL -0.0003
-1.6233 THE SMALLEST -0.0003
-0.7782 THE TALLEST -0.0001
-4.3223 THE THING 0.0000
-0.9031 THE-NEXT </s> -0.3010
-0.9031 THE-NEXT ACTION 0.0000
-0.9031 THE-NEXT PROGRAM 0.0000
-0.9031 THE-NEXT SKILL 0.0000
-0.9031 THE-PREVIOUS </s> -0.3010
-0.9031 THE-PREVIOUS ACTION 0.0000
-0.9031 THE-PREVIOUS PROGRAM 0.0000
-0.9031 THE-PREVIOUS SKILL 0.0000
-1.4150 THERE </s> -0.3010
-1.1139 THERE LEFT-ARM -0.2156
-1.1139 THERE LEFT-GRIPPER -0.2156
-1.1139 THERE LEFT-HAND -0.2156
-1.1139 THERE RIGHT-ARM -0.2156
-1.1139 THERE RIGHT-GRIPPER -0.2156
-1.1139 THERE RIGHT-HAND -0.2156
-0.3010 THING </s> -0.3010
-0.3010 TO-THE-LEFT </s> -0.3010
-0.3010 TO-THE-LEFT-OF </s> -0.3010
-0.3010 TO-THE-RIGHT </s> -0.3010
-0.3010 TO-THE-RIGHT-OF </s> -0.3010
-0.3010 TO-THE-SIDE </s> -0.3010
-0.3010 TOWARDS </s> -0.3010
-0.3010 TURN-YOUR-HEAD </s> -0.3010
-1.4150 TWIST </s> -0.3010
-1.1139 TWIST LEFT-ARM -0.2688
-1.1139 TWIST LEFT-GRIPPER -0.2688
-1.1139 TWIST LEFT-HAND -0.2688
-1.1139 TWIST RIGHT-ARM -0.2688
-1.1139 TWIST RIGHT-GRIPPER -0.2688
-1.1139 TWIST RIGHT-HAND -0.2688
-0.3010 UP </s> -0.3010
-0.3010 WITH </s> -0.3010
-0.3010 YOUR </s> -0.3010

\3-grams:
-0.3010 <s> ABOVE </s>
-0.3010 <s> ACTION </s>
-0.3010 <s> AWAY </s>
-0.3010 <s> AWAY-FROM </s>
-0.3010 <s> BACKWARDS </s>
-0.3010 <s> BEHIND </s>
-0.3010 <s> BIG </s>
-0.3010 <s> BIGGEST </s>
-0.3010 <s> BLUE </s>
-0.3010 <s> BOX </s>
-0.3010 <s> CLOCKWISE </s>
-1.1461 <s> CLOSE </s>
-1.1461 <s> CLOSE LEFT-ARM
-1.1461 <s> CLOSE LEFT-GRIPPER
-1.1461 <s> CLOSE LEFT-HAND
-1.1461 <s> CLOSE RIGHT-ARM
-1.1461 <s> CLOSE RIGHT-GRIPPER
-1.1461 <s> CLOSE RIGHT-HAND
-0.3010 <s> CLOSER </s>
-0.3010 <s> CLOSEST </s>
-0.3010 <s> COUNTERCLOCKWISE </s>
-0.9031 <s> CREATE-NEW </s>
-0.9031 <s> CREATE-NEW ACTION
-0.9031 <s> CREATE-NEW PROGRAM
-0.9031 <s> CREATE-NEW SKILL
-0.3010 <s> CRIMSON </s>
-0.3010 <s> CUBE </s>
-0.3010 <s> CUP </s>
-0.3010 <s> DOWN </s>
-0.3010 <s> EXECUTE </s>
-0.3010 <s> FARTHEST </s>
-0.3010 <s> FORWARD </s>
-0.3010 <s> GRAB </s>
-0.3010 <s> GREEN </s>
-0.3010 <s> HIGHER </s>
-0.3010 <s> IN-FRONT-OF </s>
-0.3010 <s> LARGE </s>
-0.3010 <s> LARGEST </s>
-0.3010 <s> LEFT </s>
-0.3010 <s> LEFT-ARM </s>
-0.3010 <s> LEFT-GRIPPER </s>
-0.3010 <s> LEFT-HAND </s>
-0.3010 <s> LEFT-MOST </s>
-0.3010 <s> LOOK </s>
-0.3010 <s> LOOK-AT </s>
-0.3010 <s> LOWER </s>
-2.2304 <s> MOVE </s>
-1.0843 <s> MOVE LEFT-ARM
-1.0843 <s> MOVE LEFT-GRIPPER
-1.0843 <s> MOVE LEFT-HAND
-1.0843 <s> MOVE RIGHT-ARM
-1.0843 <s> MOVE RIGHT-GRIPPER
-1.0843 <s> MOVE RIGHT-HAND
-0.3010 <s> NEAR </s>
-0.3010 <s> NEAREST </s>
-0.3010 <s> NEXT </s>
-0.3010 <s> NEXT-TO </s>
-0.3010 <s> OBJECT </s>
-0.3010 <s> ON </s>
-0.3010 <s> ON-THE-TABLE </s>
-0.3010 <s> ON-TOP-OF </s>
-1.1461 <s> OPEN </s>
-1.1461 <s> OPEN LEFT-ARM
-1.1461 <s> OPEN LEFT-GRIPPER
-1.1461 <s> OPEN LEFT-HAND
-1.1461 <s> OPEN RIGHT-ARM
-1.1461 <s> OPEN RIGHT-GRIPPER
-1.1461 <s> OPEN RIGHT-HAND
-0.3010 <s> PICK </s>
-0.3010 <s> PICK-UP </s>
-1.5798 <s> PLACE </s>
-0.8016 <s> PLACE ON-THE-TABLE
-0.8016 <s> PLACE RIGHT-THERE
-0.8016 <s> PLACE THERE
-0.3010 <s> POINT-AT </s>
-0.3010 <s> POINT-TO </s>
-0.3010 <s> PREVIOUS </s>
-0.3010 <s> PROGRAM </s>
-1.5798 <s> PUT </s>
-0.8016 <s> PUT ON-THE-TABLE
-0.8016 <s> PUT RIGHT-THERE
-0.8016 <s> PUT THERE
-0.3010 <s> RAISE </s>
-0.3010 <s> RED </s>
-1.1461 <s> RELEASE </s>
-1.1461 <s> RELEASE LEFT-ARM
-1.1461 <s> RELEASE LEFT-GRIPPER
-1.1461 <s> RELEASE LEFT-HAND
-1.1461 <s> RELEASE RIGHT-ARM
-1.1461 <s> RELEASE RIGHT-GRIPPER
-1.1461 <s> RELEASE RIGHT-HAND
-0.3010 <s> RIGHT </s>
-0.3010 <s> RIGHT-ARM </s>
-0.3010 <s> RIGHT-GRIPPER </s>
-0.3010 <s> RIGHT-HAND </s>
-0.3010 <s> RIGHT-MOST </s>
-0.3010 <s> RIGHT-THERE </s>
-1.4150 <s> ROTATE </s>
-1.1139 <s> ROTATE LEFT-ARM
-1.1139 <s> ROTATE LEFT-GRIPPER
-1.1139 <s> ROTATE LEFT-HAND
-1.1139 <s> ROTATE RIGHT-ARM
-1.1139 <s> ROTATE RIGHT-GRIPPER
-1.1139 <s> ROTATE RIGHT-HAND
-0.3010 <s> SHORTEST </s>
-0.3010 <s> SKILL </s>
-0.3010 <s> SMALL </s>
-0.3010 <s> SMALLEST </s>
-0.3010 <s> STOP </s>
-1.4150 <s> SWITCH-TO </s>
-0.9379 <s> SWITCH-TO NEXT
-0.9379 <s> SWITCH-TO PREVIOUS
-0.9379 <s> SWITCH-TO THE-NEXT
-0.9379 <s> SWITCH-TO THE-PREVIOUS
-0.3010 <s> TALLEST </s>
-4.3223 <s> THE </s>
-1.3223 <s> THE BIG
-1.3223 <s> THE BIGGEST
-3.6233 <s> THE BLUE
-4.3223 <s> THE BOX
-2.2254 <s> THE CLOSEST
-3.6233 <s> THE CRIMSON
-4.3223 <s> THE CUBE
-4.3223 <s> THE CUP
-2.4472 <s> THE FARTHEST
-3.6233 <s> THE GREEN
-1.3223 <s> THE LARGE
-1.3223 <s> THE LARGEST
-2.9243 <s> THE LEFT
-2.9243 <s> THE LEFT-MOST
-2.2254 <s> THE NEAREST
-4.3223 <s> THE OBJECT
-3.6233 <s> THE RED
-2.6233 <s> THE RIGHT
-2.6233 <s> THE RIGHT-MOST
-1.1462 <s> THE SHORTEST
-1.6233 <s> THE SMALL
-1.6233 <s> THE SMALLEST
-0.7782 <s> THE TALLEST
-4.3223 <s> THE THING
-0.3010 <s> THE-NEXT </s>
-0.3010 <s> THE-PREVIOUS </s>
-0.3010 <s> THERE </s>
-0.3010 <s> THING </s>
-0.3010 <s> TO-THE-LEFT </s>
-0.3010 <s> TO-THE-LEFT-OF </s>
-0.3010 <s> TO-THE-RIGHT </s>
-0.3010 <s> TO-THE-RIGHT-OF </s>
-0.3010 <s> TO-THE-SIDE </s>
-0.3010 <s> TOWARDS </s>
-0.3010 <s> TURN-YOUR-HEAD </s>
-1.4150 <s> TWIST </s>
-1.1139 <s> TWIST LEFT-ARM
-1.1139 <s> TWIST LEFT-GRIPPER
-1.1139 <s> TWIST LEFT-HAND
-1.1139 <s> TWIST RIGHT-ARM
-1.1139 <s> TWIST RIGHT-GRIPPER
-1.1139 <s> TWIST RIGHT-HAND
-0.3010 <s> UP </s>
-0.3010 <s> WITH </s>
-0.3010 <s> YOUR </s>
-1.0000 BIG BLUE BOX
-1.0000 BIG BLUE CUBE
-1.0000 BIG BLUE CUP
-1.0000 BIG BLUE OBJECT
-1.0000 BIG BLUE THING
-0.3010 BIG BOX </s>
-1.6990 BIG CLOSEST BLUE
-2.3979 BIG CLOSEST BOX
-1.6990 BIG CLOSEST CRIMSON
-2.3979 BIG CLOSEST CUBE
-2.3979 BIG CLOSEST CUP
-1.6990 BIG CLOSEST GREEN
-1.0000 BIG CLOSEST LEFT
-1.0000 BIG CLOSEST LEFT-MOST
-2.3979 BIG CLOSEST OBJECT
-1.6990 BIG CLOSEST RED
-1.0000 BIG CLOSEST RIGHT
-1.0000 BIG CLOSEST RIGHT-MOST
-2.3979 BIG CLOSEST THING
-1.0000 BIG CRIMSON BOX
-1.0000 BIG CRIMSON CUBE
-1.0000 BIG CRIMSON CUP
-1.0000 BIG CRIMSON OBJECT
-1.0000 BIG CRIMSON THING
-0.3010 BIG CUBE </s>
-0.3010 BIG CUP </s>
-1.4771 BIG FARTHEST BLUE
-2.1761 BIG FARTHEST BOX
-1.4771 BIG FARTHEST CRIMSON
-2.1761 BIG FARTHEST CUBE
-2.1761 BIG FARTHEST CUP
-1.4771 BIG FARTHEST GREEN
-0.7782 BIG FARTHEST LEFT
-0.7782 BIG FARTHEST LEFT-MOST
-2.1761 BIG FARTHEST OBJECT
-1.4771 BIG FARTHEST RED
-2.1761 BIG FARTHEST THING
-1.0000 BIG GREEN BOX
-1.0000 BIG GREEN CUBE
-1.0000 BIG GREEN CUP
-1.0000 BIG GREEN OBJECT
-1.0000 BIG GREEN THING
-1.0000 BIG LEFT BLUE
-1.6990 BIG LEFT BOX
-1.0000 BIG LEFT CRIMSON
-1.6990 BIG LEFT CUBE
-1.6990 BIG LEFT CUP
-1.0000 BIG LEFT GREEN
-1.6990 BIG LEFT OBJECT
-1.0000 BIG LEFT RED
-1.6990 BIG LEFT THING
-1.0000 BIG LEFT-MOST BLUE
-1.6990 BIG LEFT-MOST BOX
-1.0000 BIG LEFT-MOST CRIMSON
-1.6990 BIG LEFT-MOST CUBE
-1.6990 BIG LEFT-MOST CUP
-1.0000 BIG LEFT-MOST GREEN
-1.6990 BIG LEFT-MOST OBJECT
-1.0000 BIG LEFT-MOST RED
-1.6990 BIG LEFT-MOST THING
-1.6990 BIG NEAREST BLUE
-2.3979 BIG NEAREST BOX
-1.6990 BIG NEAREST CRIMSON
-2.3979 BIG NEAREST CUBE
-2.3979 BIG NEAREST CUP
-1.6990 BIG NEAREST GREEN
-1.0000 BIG NEAREST LEFT
-1.0000 BIG NEAREST LEFT-MOST
-2.3979 BIG NEAREST OBJECT
-1.6990 BIG NEAREST RED
-1.0000 BIG NEAREST RIGHT
-1.0000 BIG NEAREST RIGHT-MOST
-2.3979 BIG NEAREST THING
-0.3010 BIG OBJECT </s>
-1.0000 BIG RED BOX
-1.0000 BIG RED CUBE
-1.0000 BIG RED CUP
-1.0000 BIG RED OBJECT
-1.0000 BIG RED THING
-1.3010 BIG RIGHT BLUE
-2.0000 BIG RIGHT BOX
-1.3010 BIG RIGHT CRIMSON
-2.0000 BIG RIGHT CUBE
-2.0000 BIG RIGHT CUP
-0.6021 BIG RIGHT FARTHEST
-1.3010 BIG RIGHT GREEN
-2.0000 BIG RIGHT OBJECT
-1.3010 BIG RIGHT RED
-2.0000 BIG RIGHT THING
-1.3010 BIG RIGHT-MOST BLUE
-2.0000 BIG RIGHT-MOST BOX
-1.3010 BIG RIGHT-MOST CRIMSON
-2.0000 BIG RIGHT-MOST CUBE
-2.0000 BIG RIGHT-MOST CUP
-0.6021 BIG RIGHT-MOST FARTHEST
-1.3010 BIG RIGHT-MOST GREEN
-2.0000 BIG RIGHT-MOST OBJECT
-1.3010 BIG RIGHT-MOST RED
-2.0000 BIG RIGHT-MOST THING
-2.3010 BIG SHORTEST BLUE
-3.0000 BIG SHORTEST BOX
-0.9031 BIG SHORTEST CLOSEST
-2.3010 BIG SHORTEST CRIMSON
-3.0000 BIG SHORTEST CUBE
-3.0000 BIG SHORTEST CUP
-1.1249 BIG SHORTEST FARTHEST
-2.3010 BIG SHORTEST GREEN
-1.6021 BIG SHORTEST LEFT
-1.6021 BIG SHORTEST LEFT-MOST
-0.9031 BIG SHORTEST NEAREST
-3.0000 BIG SHORTEST OBJECT
-2.3010 BIG SHORTEST RED
-1.3010 BIG SHORTEST RIGHT
-1.3010 BIG SHORTEST RIGHT-MOST
-3.0000 BIG SHORTEST THING
-0.3010 BIG THING </s>
-1.0000 BIGGEST BLUE BOX
-1.0000 BIGGEST BLUE CUBE
-1.0000 BIGGEST BLUE CUP
-1.0000 BIGGEST BLUE OBJECT
-1.0000 BIGGEST BLUE THING
-0.3010 BIGGEST BOX </s>
-1.6990 BIGGEST CLOSEST BLUE
-2.3979 BIGGEST CLOSEST BOX
-1.6990 BIGGEST CLOSEST CRIMSON
-2.3979 BIGGEST CLOSEST CUBE
-2.3979 BIGGEST CLOSEST CUP
-1.6990 BIGGEST CLOSEST GREEN
-1.0000 BIGGEST CLOSEST LEFT
-1.0000 BIGGEST CLOSEST LEFT-MOST
-2.3979 BIGGEST CLOSEST OBJECT
-1.6990 BIGGEST CLOSEST RED
-1.0000 BIGGEST CLOSEST RIGHT
-1.0000 BIGGEST CLOSEST RIGHT-MOST
-2.3979 BIGGEST CLOSEST THING
-1.0000 BIGGEST CRIMSON BOX
-1.0000 BIGGEST CRIMSON CUBE
-1.0000 BIGGEST CRIMSON CUP
-1.0000 BIGGEST CRIMSON OBJECT
-1.0000 BIGGEST CRIMSON THING
-0.3010 BIGGEST CUBE </s>
-0.3010 BIGGEST CUP </s>
-1.4771 BIGGEST FARTHEST BLUE
-2.1761 BIGGEST FARTHEST BOX
-1.4771 BIGGEST FARTHEST CRIMSON
-2.1761 BIGGEST FARTHEST CUBE
-2.1761 BIGGEST FARTHEST CUP
-1.4771 BIGGEST FARTHEST GREEN
-0.7782 BIGGEST FARTHEST LEFT
-0.7782 BIGGEST FARTHEST LEFT-MOST
-2.1761 BIGGEST FARTHEST OBJECT
-1.4771 BIGGEST FARTHEST RED
-2.1761 BIGGEST FARTHEST THING
-1.0000 BIGGEST GREEN BOX
-1.0000 BIGGEST GREEN CUBE
-1.0000 BIGGEST GREEN CUP
-1.0000 BIGGEST GREEN OBJECT
-1.0000 BIGGEST GREEN THING
-1.0000 BIGGEST LEFT BLUE
-1.6990 BIGGEST LEFT BOX
-1.0000 BIGGEST LEFT CRIMSON
-1.6990 BIGGEST LEFT CUBE
-1.6990 BIGGEST LEFT CUP
-1.0000 BIGGEST LEFT GREEN
-1.6990 BIGGEST LEFT OBJECT
-1.0000 BIGGEST LEFT RED
-1.6990 BIGGEST LEFT THING
-1.0000 BIGGEST LEFT-MOST BLUE
-1.6990 BIGGEST LEFT-MOST BOX
-1.0000 BIGGEST LEFT-MOST CRIMSON
-1.6990 BIGGEST LEFT-MOST CUBE
-1.6990 BIGGEST LEFT-MOST CUP
-1.0000 BIGGEST LEFT-MOST GREEN
-1.6990 BIGGEST LEFT-MOST OBJECT
-1.0000 BIGGEST LEFT-MOST RED
-1.6990 BIGGEST LEFT-MOST THING
-1.6990 BIGGEST NEAREST BLUE
-2.3979 BIGGEST NEAREST BOX
-1.6990 BIGGEST NEAREST CRIMSON
-2.3979 BIGGEST NEAREST CUBE
-2.3979 BIGGEST NEAREST CUP
-1.6990 BIGGEST NEAREST GREEN
-1.0000 BIGGEST NEAREST LEFT
-1.0000 BIGGEST NEAREST LEFT-MOST
-2.3979 BIGGEST NEAREST OBJECT
-1.6990 BIGGEST NEAREST RED
-1.0000 BIGGEST NEAREST RIGHT
-1.0000 BIGGEST NEAREST RIGHT-MOST
-2.3979 BIGGEST NEAREST THING
-0.3010 BIGGEST OBJECT </s>
-1.0000 BIGGEST RED BOX
-1.0000 BIGGEST RED CUBE
-1.0000 BIGGEST RED CUP
-1.0000 BIGGEST RED OBJECT
-1.0000 BIGGEST RED THING
-1.3010 BIGGEST RIGHT BLUE
-2.0000 BIGGEST RIGHT BOX
-1.3010 BIGGEST RIGHT CRIMSON
-2.0000 BIGGEST RIGHT CUBE
-2.0000 BIGGEST RIGHT CUP
-0.6021 BIGGEST RIGHT FARTHEST
-1.3010 BIGGEST RIGHT GREEN
-2.0000 BIGGEST RIGHT OBJECT
-1.3010 BIGGEST RIGHT RED
-2.0000 BIGGEST RIGHT THING
-1.3010 BIGGEST RIGHT-MOST BLUE
-2.0000 BIGGEST RIGHT-MOST BOX
-1.3010 BIGGEST RIGHT-MOST CRIMSON
-2.0000 BIGGEST RIGHT-MOST CUBE
-2.0000 BIGGEST RIGHT-MOST CUP
-0.6021 BIGGEST RIGHT-MOST FARTHEST
-1.3010 BIGGEST RIGHT-MOST GREEN
-2.0000 BIGGEST RIGHT-MOST OBJECT
-1.3010 BIGGEST RIGHT-MOST RED
-2.0000 BIGGEST RIGHT-MOST THING
-2.3010 BIGGEST SHORTEST BLUE
-3.0000 BIGGEST SHORTEST BOX
-0.9031 BIGGEST SHORTEST CLOSEST
-2.3010 BIGGEST SHORTEST CRIMSON
-3.0000 BIGGEST SHORTEST CUBE
-3.0000 BIGGEST SHORTEST CUP
-1.1249 BIGGEST SHORTEST FARTHEST
-2.3010 BIGGEST SHORTEST GREEN
-1.6021 BIGGEST SHORTEST LEFT
-1.6021 BIGGEST SHORTEST LEFT-MOST
-0.9031 BIGGEST SHORTEST NEAREST
-3.0000 BIGGEST SHORTEST OBJECT
-2.3010 BIGGEST SHORTEST RED
-1.3010 BIGGEST SHORTEST RIGHT
-1.3010 BIGGEST SHORTEST RIGHT-MOST
-3.0000 BIGGEST SHORTEST THING
-0.3010 BIGGEST THING </s>
-0.3010 BLUE BOX </s>
-0.3010 BLUE CUBE </s>
-0.3010 BLUE CUP </s>
-0.3010 BLUE OBJECT </s>
-0.3010 BLUE THING </s>
-0.3010 CLOSE LEFT-ARM </s>
-0.3010 CLOSE LEFT-GRIPPER </s>
-0.3010 CLOSE LEFT-HAND </s>
-0.3010 CLOSE RIGHT-ARM </s>
-0.3010 CLOSE RIGHT-GRIPPER </s>
-0.3010 CLOSE RIGHT-HAND </s>
-1.0000 CLOSEST BLUE BOX
-1.0000 CLOSEST BLUE CUBE
-1.0000 CLOSEST BLUE CUP
-1.0000 CLOSEST BLUE OBJECT
-1.0000 CLOSEST BLUE THING
-0.3010 CLOSEST BOX </s>
-1.0000 CLOSEST CRIMSON BOX
-1.0000 CLOSEST CRIMSON CUBE
-1.0000 CLOSEST CRIMSON CUP
-1.0000 CLOSEST CRIMSON OBJECT
-1.0000 CLOSEST CRIMSON THING
-0.3010 CLOSEST CUBE </s>
-0.3010 CLOSEST CUP </s>
-1.0000 CLOSEST GREEN BOX
-1.0000 CLOSEST GREEN CUBE
-1.0000 CLOSEST GREEN CUP
-1.0000 CLOSEST GREEN OBJECT
-1.0000 CLOSEST GREEN THING
-1.0000 CLOSEST LEFT BLUE
-1.6990 CLOSEST LEFT BOX
-1.0000 CLOSEST LEFT CRIMSON
-1.6990 CLOSEST LEFT CUBE
-1.6990 CLOSEST LEFT CUP
-1.0000 CLOSEST LEFT GREEN
-1.6990 CLOSEST LEFT OBJECT
-1.0000 CLOSEST LEFT RED
-1.6990 CLOSEST LEFT THING
-1.0000 CLOSEST LEFT-MOST BLUE
-1.6990 CLOSEST LEFT-MOST BOX
-1.0000 CLOSEST LEFT-MOST CRIMSON
-1.6990 CLOSEST LEFT-MOST CUBE
-1.6990 CLOSEST LEFT-MOST CUP
-1.0000 CLOSEST LEFT-MOST GREEN
-1.6990 CLOSEST LEFT-MOST OBJECT
-1.0000 CLOSEST LEFT-MOST RED
-1.6990 CLOSEST LEFT-MOST THING
-0.3010 CLOSEST OBJECT </s>
-1.0000 CLOSEST RED BOX
-1.0000 CLOSEST RED CUBE
-1.0000 CLOSEST RED CUP
-1.0000 CLOSEST RED OBJECT
-1.0000 CLOSEST RED THING
-1.0000 CLOSEST RIGHT BLUE
-1.6990 CLOSEST RIGHT BOX
-1.0000 CLOSEST RIGHT CRIMSON
-1.6990 CLOSEST RIGHT CUBE
-1.6990 CLOSEST RIGHT CUP
-1.0000 CLOSEST RIGHT GREEN
-1.6990 CLOSEST RIGHT OBJECT
-1.0000 CLOSEST RIGHT RED
-1.6990 CLOSEST RIGHT THING
-1.0000 CLOSEST RIGHT-MOST BLUE
-1.6990 CLOSEST RIGHT-MOST BOX
-1.0000 CLOSEST RIGHT-MOST CRIMSON
-1.6990 CLOSEST RIGHT-MOST CUBE
-1.6990 CLOSEST RIGHT-MOST CUP
-1.0000 CLOSEST RIGHT-MOST GREEN
-1.6990 CLOSEST RIGHT-MOST OBJECT
-1.0000 CLOSEST RIGHT-MOST RED
-1.6990 CLOSEST RIGHT-MOST THING
-0.3010 CLOSEST THING </s>
-0.3010 CREATE-NEW ACTION </s>
-0.3010 CREATE-NEW PROGRAM </s>
-0.3010 CREATE-NEW SKILL </s>
-0.3010 CRIMSON BOX </s>
-0.3010 CRIMSON CUBE </s>
-0.3010 CRIMSON CUP </s>
-0.3010 CRIMSON OBJECT </s>
-0.3010 CRIMSON THING </s>
-1.0000 FARTHEST BLUE BOX
-1.0000 FARTHEST BLUE CUBE
-1.0000 FARTHEST BLUE CUP
-1.0000 FARTHEST BLUE OBJECT
-1.0000 FARTHEST BLUE THING
-0.3010 FARTHEST BOX </s>
-1.0000 FARTHEST CRIMSON BOX
-1.0000 FARTHEST CRIMSON CUBE
-1.0000 FARTHEST CRIMSON CUP
-1.0000 FARTHEST CRIMSON OBJECT
-1.0000 FARTHEST CRIMSON THING
-0.3010 FARTHEST CUBE </s>
-0.3010 FARTHEST CUP </s>
-1.0000 FARTHEST GREEN BOX
-1.0000 FARTHEST GREEN CUBE
-1.0000 FARTHEST GREEN CUP
-1.0000 FARTHEST GREEN OBJECT
-1.0000 FARTHEST GREEN THING
-1.0000 FARTHEST LEFT BLUE
-1.6990 FARTHEST LEFT BOX
-1.0000 FARTHEST LEFT CRIMSON
-1.6990 FARTHEST LEFT CUBE
-1.6990 FARTHEST LEFT CUP
-1.0000 FARTHEST LEFT GREEN
-1.6990 FARTHEST LEFT OBJECT
-1.0000 FARTHEST LEFT RED
-1.6990 FARTHEST LEFT THING
-1.0000 FARTHEST LEFT-MOST BLUE
-1.6990 FARTHEST LEFT-MOST BOX
-1.0000 FARTHEST LEFT-MOST CRIMSON
-1.6990 FARTHEST LEFT-MOST CUBE
-1.6990 FARTHEST LEFT-MOST CUP
-1.0000 FARTHEST LEFT-MOST GREEN
-1.6990 FARTHEST LEFT-MOST OBJECT
-1.0000 FARTHEST LEFT-MOST RED
-1.6990 FARTHEST LEFT-MOST THING
-0.3010 FARTHEST OBJECT </s>
-1.0000 FARTHEST RED BOX
-1.0000 FARTHEST RED CUBE
-1.0000 FARTHEST RED CUP
-1.0000 FARTHEST RED OBJECT
-1.0000 FARTHEST RED THING
-0.3010 FARTHEST THING </s>
-0.3010 GREEN BOX </s>
-0.3010 GREEN CUBE </s>
-0.3010 GREEN CUP </s>
-0.3010 GREEN OBJECT </s>
-0.3010 GREEN THING </s>
-1.0000 LARGE BLUE BOX
-1.0000 LARGE BLUE CUBE
-1.0000 LARGE BLUE CUP
-1.0000 LARGE BLUE OBJECT
-1.0000 LARGE BLUE THING
-0.3010 LARGE BOX </s>
-1.6990 LARGE CLOSEST BLUE
-2.3979 LARGE CLOSEST BOX
-1.6990 LARGE CLOSEST CRIMSON
-2.3979 LARGE CLOSEST CUBE
-2.3979 LARGE CLOSEST CUP
-1.6990 LARGE CLOSEST GREEN
-1.0000 LARGE CLOSEST LEFT
-1.0000 LARGE CLOSEST LEFT-MOST
-2.3979 LARGE CLOSEST OBJECT
-1.6990 LARGE CLOSEST RED
-1.0000 LARGE CLOSEST RIGHT
-1.0000 LARGE CLOSEST RIGHT-MOST
-2.3979 LARGE CLOSEST THING
-1.0000 LARGE CRIMSON BOX
-1.0000 LARGE CRIMSON CUBE
-1.0000 LARGE CRIMSON CUP
-1.0000 LARGE CRIMSON OBJECT
-1.0000 LARGE CRIMSON THING
-0.3010 LARGE CUBE </s>
-0.3010 LARGE CUP </s>
-1.4771 LARGE FARTHEST BLUE
-2.1761 LARGE FARTHEST BOX
-1.4771 LARGE FARTHEST CRIMSON
-2.1761 LARGE FARTHEST CUBE
-2.1761 LARGE FARTHEST CUP
-1.4771 LARGE FARTHEST GREEN
-0.7782 LARGE FARTHEST LEFT
-0.7782 LARGE FARTHEST LEFT-MOST
-2.1761 LARGE FARTHEST OBJECT
-1.4771 LARGE FARTHEST RED
-2.1761 LARGE FARTHEST THING
-1.0000 LARGE GREEN BOX
-1.0000 LARGE GREEN CUBE
-1.0000 LARGE GREEN CUP
-1.0000 LARGE GREEN OBJECT
-1.0000 LARGE GREEN THING
-1.0000 LARGE LEFT BLUE
-1.6990 LARGE LEFT BOX
-1.0000 LARGE LEFT CRIMSON
-1.6990 LARGE LEFT CUBE
-1.6990 LARGE LEFT CUP
-1.0000 LARGE LEFT GREEN
-1.6990 LARGE LEFT OBJECT
-1.0000 LARGE LEFT RED
-1.6990 LARGE LEFT THING
-1.0000 LARGE LEFT-MOST BLUE
-1.6990 LARGE LEFT-MOST BOX
-1.0000 LARGE LEFT-MOST CRIMSON
-1.6990 LARGE LEFT-MOST CUBE
-1.6990 LARGE LEFT-MOST CUP
-1.0000 LARGE LEFT-MOST GREEN
-1.6990 LARGE LEFT-MOST OBJECT
-1.0000 LARGE LEFT-MOST RED
-1.6990 LARGE LEFT-MOST THING
-1.6990 LARGE NEAREST BLUE
-2.3979 LARGE NEAREST BOX
-1.6990 LARGE NEAREST CRIMSON
-2.3979 LARGE NEAREST CUBE
-2.3979 LARGE NEAREST CUP
-1.6990 LARGE NEAREST GREEN
-1.0000 LARGE NEAREST LEFT
-1.0000 LARGE NEAREST LEFT-MOST
-2.3979 LARGE NEAREST OBJECT
-1.6990 LARGE NEAREST RED
-1.0000 LARGE NEAREST RIGHT
-1.0000 LARGE NEAREST RIGHT-MOST
-2.3979 LARGE NEAREST THING
-0.3010 LARGE OBJECT </s>
-1.0000 LARGE RED BOX
-1.0000 LARGE RED CUBE
-1.0000 LARGE RED CUP
-1.0000 LARGE RED OBJECT
-1.0000 LARGE RED THING
-1.3010 LARGE RIGHT BLUE
-2.0000 LARGE RIGHT BOX
-1.3010 LARGE RIGHT CRIMSON
-2.0000 LARGE RIGHT CUBE
-2.0000 LARGE RIGHT CUP
-0.6021 LARGE RIGHT FARTHEST
-1.3010 LARGE RIGHT GREEN
-2.0000 LARGE RIGHT OBJECT
-1.3010 LARGE RIGHT RED
-2.0000 LARGE RIGHT THING
-1.3010 LARGE RIGHT-MOST BLUE
-2.0000 LARGE RIGHT-MOST BOX
-1.3010 LARGE RIGHT-MOST CRIMSON
-2.0000 LARGE RIGHT-MOST CUBE
-2.0000 LARGE RIGHT-MOST CUP
-0.6021 LARGE RIGHT-MOST FARTHEST
-1.3010 LARGE RIGHT-MOST GREEN
-2.0000 LARGE RIGHT-MOST OBJECT
-1.3010 LARGE RIGHT-MOST RED
-2.0000 LARGE RIGHT-MOST THING
-2.3010 LARGE SHORTEST BLUE
-3.0000 LARGE SHORTEST BOX
-0.9031 LARGE SHORTEST CLOSEST
-2.3010 LARGE SHORTEST CRIMSON
-3.0000 LARGE SHORTEST CUBE
-3.0000 LARGE SHORTEST CUP
-1.1249 LARGE SHORTEST FARTHEST
-2.3010 LARGE SHORTEST GREEN
-1.6021 LARGE SHORTEST LEFT
-1.6021 LARGE SHORTEST LEFT-MOST
-0.9031 LARGE SHORTEST NEAREST
-3.0000 LARGE SHORTEST OBJECT
-2.3010 LARGE SHORTEST RED
-1.3010 LARGE SHORTEST RIGHT
-1.3010 LARGE SHORTEST RIGHT-MOST
-3.0000 LARGE SHORTEST THING
-0.3010 LARGE THING </s>
-1.0000 LARGEST BLUE BOX
-1.0000 LARGEST BLUE CUBE
-1.0000 LARGEST BLUE CUP
-1.0000 LARGEST BLUE OBJECT
-1.0000 LARGEST BLUE THING
-0.3010 LARGEST BOX </s>
-1.6990 LARGEST CLOSEST BLUE
-2.3979 LARGEST CLOSEST BOX
-1.6990 LARGEST CLOSEST CRIMSON
-2.3979 LARGEST CLOSEST CUBE
-2.3979 LARGEST CLOSEST CUP
-1.6990 LARGEST CLOSEST GREEN
-1.0000 LARGEST CLOSEST LEFT
-1.0000 LARGEST CLOSEST LEFT-MOST
-2.3979 LARGEST CLOSEST OBJECT
-1.6990 LARGEST CLOSEST RED
-1.0000 LARGEST CLOSEST RIGHT
-1.0000 LARGEST CLOSEST RIGHT-MOST
-2.3979 LARGEST CLOSEST THING
-1.0000 LARGEST CRIMSON BOX
-1.0000 LARGEST CRIMSON CUBE
-1.0000 LARGEST CRIMSON CUP
-1.0000 LARGEST CRIMSON OBJECT
-1.0000 LARGEST CRIMSON THING
-0.3010 LARGEST CUBE </s>
-0.3010 LARGEST CUP </s>
-1.4771 LARGEST FARTHEST BLUE
-2.1761 LARGEST FARTHEST BOX
-1.4771 LARGEST FARTHEST CRIMSON
-2.1761 LARGEST FARTHEST CUBE
-2.1761 LARGEST FARTHEST CUP
-1.4771 LARGEST FARTHEST GREEN
-0.7782 LARGEST FARTHEST LEFT
-0.7782 LARGEST FARTHEST LEFT-MOST
-2.1761 LARGEST FARTHEST OBJECT
-1.4771 LARGEST FARTHEST RED
-2.1761 LARGEST FARTHEST THING
-1.0000 LARGEST GREEN BOX
-1.0000 LARGEST GREEN CUBE
-1.0000 LARGEST GREEN CUP
-1.0000 LARGEST GREEN OBJECT
-1.0000 LARGEST GREEN THING
-1.0000 LARGEST LEFT BLUE
-1.6990 LARGEST LEFT BOX
-1.0000 LARGEST LEFT CRIMSON
-1.6990 LARGEST LEFT CUBE
-1.6990 LARGEST LEFT CUP
-1.0000 LARGEST LEFT GREEN
-1.6990 LARGEST LEFT OBJECT
-1.0000 LARGEST LEFT RED
-1.6990 LARGEST LEFT THING
-1.0000 LARGEST LEFT-MOST BLUE
-1.6990 LARGEST LEFT-MOST BOX
-1.0000 LARGEST LEFT-MOST CRIMSON
-1.6990 LARGEST LEFT-MOST CUBE
-1.6990 LARGEST LEFT-MOST CUP
-1.0000 LARGEST LEFT-MOST GREEN
-1.6990 LARGEST LEFT-MOST OBJECT
-1.0000 LARGEST LEFT-MOST RED
-1.6990 LARGEST LEFT-MOST THING
-1.6990 LARGEST NEAREST BLUE
-2.3979 LARGEST NEAREST BOX
-1.6990 LARGEST NEAREST CRIMSON
-2.3979 LARGEST NEAREST CUBE
-2.3979 LARGEST NEAREST CUP
-1.6990 LARGEST NEAREST GREEN
-1.0000 LARGEST NEAREST LEFT
-1.0000 LARGEST NEAREST LEFT-MOST
-2.3979 LARGEST NEAREST OBJECT
-1.6990 LARGEST NEAREST RED
-1.0000 LARGEST NEAREST RIGHT
-1.0000 LARGEST NEAREST RIGHT-MOST
-2.3979 LARGEST NEAREST THING
-0.3010 LARGEST OBJECT </s>
-1.0000 LARGEST RED BOX
-1.0000 LARGEST RED CUBE
-1.0000 LARGEST RED CUP
-1.0000 LARGEST RED OBJECT
-1.0000 LARGEST RED THING
-1.3010 LARGEST RIGHT BLUE
-2.0000 LARGEST RIGHT BOX
-1.3010 LARGEST RIGHT CRIMSON
-2.0000 LARGEST RIGHT CUBE
-2.0000 LARGEST RIGHT CUP
-0.6021 LARGEST RIGHT FARTHEST
-1.3010 LARGEST RIGHT GREEN
-2.0000 LARGEST RIGHT OBJECT
-1.3010 LARGEST RIGHT RED
-2.0000 LARGEST RIGHT THING
-1.3010 LARGEST RIGHT-MOST BLUE
-2.0000 LARGEST RIGHT-MOST BOX
-1.3010 LARGEST RIGHT-MOST CRIMSON
-2.0000 LARGEST RIGHT-MOST CUBE
-2.0000 LARGEST RIGHT-MOST CUP
-0.6021 LARGEST RIGHT-MOST FARTHEST
-1.3010 LARGEST RIGHT-MOST GREEN
-2.0000 LARGEST RIGHT-MOST OBJECT
-1.3010 LARGEST RIGHT-MOST RED
-2.0000 LARGEST RIGHT-MOST THING
-2.3010 LARGEST SHORTEST BLUE
-3.0000 LARGEST SHORTEST BOX
-0.9031 LARGEST SHORTEST CLOSEST
-2.3010 LARGEST SHORTEST CRIMSON
-3.0000 LARGEST SHORTEST CUBE
-3.0000 LARGEST SHORTEST CUP
-1.1249 LARGEST SHORTEST FARTHEST
-2.3010 LARGEST SHORTEST GREEN
-1.6021 LARGEST SHORTEST LEFT
-1.6021 LARGEST SHORTEST LEFT-MOST
-0.9031 LARGEST SHORTEST NEAREST
-3.0000 LARGEST SHORTEST OBJECT
-2.3010 LARGEST SHORTEST RED
-1.3010 LARGEST SHORTEST RIGHT
-1.3010 LARGEST SHORTEST RIGHT-MOST
-3.0000 LARGEST SHORTEST THING
-0.3010 LARGEST THING </s>
-1.0000 LEFT BLUE BOX
-1.0000 LEFT BLUE CUBE
-1.0000 LEFT BLUE CUP
-1.0000 LEFT BLUE OBJECT
-1.0000 LEFT BLUE THING
-0.3010 LEFT BOX </s>
-1.0000 LEFT CRIMSON BOX
-1.0000 LEFT CRIMSON CUBE
-1.0000 LEFT CRIMSON CUP
-1.0000 LEFT CRIMSON OBJECT
-1.0000 LEFT CRIMSON THING
-0.3010 LEFT CUBE </s>
-0.3010 LEFT CUP </s>
-1.0000 LEFT GREEN BOX
-1.0000 LEFT GREEN CUBE
-1.0000 LEFT GREEN CUP
-1.0000 LEFT GREEN OBJECT
-1.0000 LEFT GREEN THING
-0.3010 LEFT OBJECT </s>
-1.0000 LEFT RED BOX
-1.0000 LEFT RED CUBE
-1.0000 LEFT RED CUP
-1.0000 LEFT RED OBJECT
-1.0000 LEFT RED THING
-0.3010 LEFT THING </s>
-0.3010 LEFT-ARM AWAY </s>
-0.3010 LEFT-ARM BACKWARDS </s>
-0.3010 LEFT-ARM CLOCKWISE </s>
-0.3010 LEFT-ARM CLOSER </s>
-0.3010 LEFT-ARM COUNTERCLOCKWISE </s>
-0.3010 LEFT-ARM DOWN </s>
-0.3010 LEFT-ARM FORWARD </s>
-0.3010 LEFT-ARM HIGHER </s>
-0.3010 LEFT-ARM LEFT </s>
-0.3010 LEFT-ARM LOWER </s>
-0.3010 LEFT-ARM RAISE </s>
-0.3010 LEFT-ARM RIGHT </s>
-0.3010 LEFT-ARM TO-THE-LEFT </s>
-0.3010 LEFT-ARM TO-THE-RIGHT </s>
-0.3010 LEFT-ARM TO-THE-SIDE </s>
-0.3010 LEFT-ARM UP </s>
-0.3010 LEFT-GRIPPER AWAY </s>
-0.3010 LEFT-GRIPPER BACKWARDS </s>
-0.3010 LEFT-GRIPPER CLOCKWISE </s>
-0.3010 LEFT-GRIPPER CLOSER </s>
-0.3010 LEFT-GRIPPER COUNTERCLOCKWISE </s>
-0.3010 LEFT-GRIPPER DOWN </s>
-0.3010 LEFT-GRIPPER FORWARD </s>
-0.3010 LEFT-GRIPPER HIGHER </s>
-0.3010 LEFT-GRIPPER LEFT </s>
-0.3010 LEFT-GRIPPER LOWER </s>
-0.3010 LEFT-GRIPPER RAISE </s>
-0.3010 LEFT-GRIPPER RIGHT </s>
-0.3010 LEFT-GRIPPER TO-THE-LEFT </s>
-0.3010 LEFT-GRIPPER TO-THE-RIGHT </s>
-0.3010 LEFT-GRIPPER TO-THE-SIDE </s>
-0.3010 LEFT-GRIPPER UP </s>
-0.3010 LEFT-HAND AWAY </s>
-0.3010 LEFT-HAND BACKWARDS </s>
-0.3010 LEFT-HAND CLOCKWISE </s>
-0.3010 LEFT-HAND CLOSER </s>
-0.3010 LEFT-HAND COUNTERCLOCKWISE </s>
-0.3010 LEFT-HAND DOWN </s>
-0.3010 LEFT-HAND FORWARD </s>
-0.3010 LEFT-HAND HIGHER </s>
-0.3010 LEFT-HAND LEFT </s>
-0.3010 LEFT-HAND LOWER </s>
-0.3010 LEFT-HAND RAISE </s>
-0.3010 LEFT-HAND RIGHT </s>
-0.3010 LEFT-HAND TO-THE-LEFT </s>
-0.3010 LEFT-HAND TO-THE-RIGHT </s>
-0.3010 LEFT-HAND TO-THE-SIDE </s>
-0.3010 LEFT-HAND UP </s>
-1.0000 LEFT-MOST BLUE BOX
-1.0000 LEFT-MOST BLUE CUBE
-1.0000 LEFT-MOST BLUE CUP
-1.0000 LEFT-MOST BLUE OBJECT
-1.0000 LEFT-MOST BLUE THING
-0.3010 LEFT-MOST BOX </s>
-1.0000 LEFT-MOST CRIMSON BOX
-1.0000 LEFT-MOST CRIMSON CUBE
-1.0000 LEFT-MOST CRIMSON CUP
-1.0000 LEFT-MOST CRIMSON OBJECT
-1.0000 LEFT-MOST CRIMSON THING
-0.3010 LEFT-MOST CUBE </s>
-0.3010 LEFT-MOST CUP </s>
-1.0000 LEFT-MOST GREEN BOX
-1.0000 LEFT-MOST GREEN CUBE
-1.0000 LEFT-MOST GREEN CUP
-1.0000 LEFT-MOST GREEN OBJECT
-1.0000 LEFT-MOST GREEN THING
-0.3010 LEFT-MOST OBJECT </s>
-1.0000 LEFT-MOST RED BOX
-1.0000 LEFT-MOST RED CUBE
-1.0000 LEFT-MOST RED CUP
-1.0000 LEFT-MOST RED OBJECT
-1.0000 LEFT-MOST RED THING
-0.3010 LEFT-MOST THING </s>
-1.4472 MOVE LEFT-ARM AWAY
-1.4472 MOVE LEFT-ARM BACKWARDS
-1.4472 MOVE LEFT-ARM CLOSER
-1.4472 MOVE LEFT-ARM DOWN
-1.4472 MOVE LEFT-ARM FORWARD
-1.4472 MOVE LEFT-ARM HIGHER
-1.4472 MOVE LEFT-ARM LEFT
-1.4472 MOVE LEFT-ARM LOWER
-1.4472 MOVE LEFT-ARM RAISE
-1.4472 MOVE LEFT-ARM RIGHT
-1.4472 MOVE LEFT-ARM TO-THE-LEFT
-1.4472 MOVE LEFT-ARM TO-THE-RIGHT
-1.4472 MOVE LEFT-ARM TO-THE-SIDE
-1.4472 MOVE LEFT-ARM UP
-1.4472 MOVE LEFT-GRIPPER AWAY
-1.4472 MOVE LEFT-GRIPPER BACKWARDS
-1.4472 MOVE LEFT-GRIPPER CLOSER
-1.4472 MOVE LEFT-GRIPPER DOWN
-1.4472 MOVE LEFT-GRIPPER FORWARD
-1.4472 MOVE LEFT-GRIPPER HIGHER
-1.4472 MOVE LEFT-GRIPPER LEFT
-1.4472 MOVE LEFT-GRIPPER LOWER
-1.4472 MOVE LEFT-GRIPPER RAISE
-1.4472 MOVE LEFT-GRIPPER RIGHT
-1.4472 MOVE LEFT-GRIPPER TO-THE-LEFT
-1.4472 MOVE LEFT-GRIPPER TO-THE-RIGHT
-1.4472 MOVE LEFT-GRIPPER TO-THE-SIDE
-1.4472 MOVE LEFT-GRIPPER UP
-1.4472 MOVE LEFT-HAND AWAY
-1.4472 MOVE LEFT-HAND BACKWARDS
-1.4472 MOVE LEFT-HAND CLOSER
-1.4472 MOVE LEFT-HAND DOWN
-1.4472 MOVE LEFT-HAND FORWARD
-1.4472 MOVE LEFT-HAND HIGHER
-1.4472 MOVE LEFT-HAND LEFT
-1.4472 MOVE LEFT-HAND LOWER
-1.4472 MOVE LEFT-HAND RAISE
-1.4472 MOVE LEFT-HAND RIGHT
-1.4472 MOVE LEFT-HAND TO-THE-LEFT
-1.4472 MOVE LEFT-HAND TO-THE-RIGHT
-1.4472 MOVE LEFT-HAND TO-THE-SIDE
-1.4472 MOVE LEFT-HAND UP
-1.4472 MOVE RIGHT-ARM AWAY
-1.4472 MOVE RIGHT-ARM BACKWARDS
-1.4472 MOVE RIGHT-ARM CLOSER
-1.4472 MOVE RIGHT-ARM DOWN
-1.4472 MOVE RIGHT-ARM FORWARD
-1.4472 MOVE RIGHT-ARM HIGHER
-1.4472 MOVE RIGHT-ARM LEFT
-1.4472 MOVE RIGHT-ARM LOWER
-1.4472 MOVE RIGHT-ARM RAISE
-1.4472 MOVE RIGHT-ARM RIGHT
-1.4472 MOVE RIGHT-ARM TO-THE-LEFT
-1.4472 MOVE RIGHT-ARM TO-THE-RIGHT
-1.4472 MOVE RIGHT-ARM TO-THE-SIDE
-1.4472 MOVE RIGHT-ARM UP
-1.4472 MOVE RIGHT-GRIPPER AWAY
-1.4472 MOVE RIGHT-GRIPPER BACKWARDS
-1.4472 MOVE RIGHT-GRIPPER CLOSER
-1.4472 MOVE RIGHT-GRIPPER DOWN
-1.4472 MOVE RIGHT-GRIPPER FORWARD
-1.4472 MOVE RIGHT-GRIPPER HIGHER
-1.4472 MOVE RIGHT-GRIPPER LEFT
-1.4472 MOVE RIGHT-GRIPPER LOWER
-1.4472 MOVE RIGHT-GRIPPER RAISE
-1.4472 MOVE RIGHT-GRIPPER RIGHT
-1.4472 MOVE RIGHT-GRIPPER TO-THE-LEFT
-1.4472 MOVE RIGHT-GRIPPER TO-THE-RIGHT
-1.4472 MOVE RIGHT-GRIPPER TO-THE-SIDE
-1.4472 MOVE RIGHT-GRIPPER UP
-1.4472 MOVE RIGHT-HAND AWAY
-1.4472 MOVE RIGHT-HAND BACKWARDS
-1.4472 MOVE RIGHT-HAND CLOSER
-1.4472 MOVE RIGHT-HAND DOWN
-1.4472 MOVE RIGHT-HAND FORWARD
-1.4472 MOVE RIGHT-HAND HIGHER
-1.4472 MOVE RIGHT-HAND LEFT
-1.4472 MOVE RIGHT-HAND LOWER
-1.4472 MOVE RIGHT-HAND RAISE
-1.4472 MOVE RIGHT-HAND RIGHT
-1.4472 MOVE RIGHT-HAND TO-THE-LEFT
-1.4472 MOVE RIGHT-HAND TO-THE-RIGHT
-1.4472 MOVE RIGHT-HAND TO-THE-SIDE
-1.4472 MOVE RIGHT-HAND UP
-1.0000 NEAREST BLUE BOX
-1.0000 NEAREST BLUE CUBE
-1.0000 NEAREST BLUE CUP
-1.0000 NEAREST BLUE OBJECT
-1.0000 NEAREST BLUE THING
-0.3010 NEAREST BOX </s>
-1.0000 NEAREST CRIMSON BOX
-1.0000 NEAREST CRIMSON CUBE
-1.0000 NEAREST CRIMSON CUP
-1.0000 NEAREST CRIMSON OBJECT
-1.0000 NEAREST CRIMSON THING
-0.3010 NEAREST CUBE </s>
-0.3010 NEAREST CUP </s>
-1.0000 NEAREST GREEN BOX
-1.0000 NEAREST GREEN CUBE
-1.0000 NEAREST GREEN CUP
-1.0000 NEAREST GREEN OBJECT
-1.0000 NEAREST GREEN THING
-1.0000 NEAREST LEFT BLUE
-1.6990 NEAREST LEFT BOX
-1.0000 NEAREST LEFT CRIMSON
-1.6990 NEAREST LEFT CUBE
-1.6990 NEAREST LEFT CUP
-1.0000 NEAREST LEFT GREEN
-1.6990 NEAREST LEFT OBJECT
-1.0000 NEAREST LEFT RED
-1.6990 NEAREST LEFT THING
-1.0000 NEAREST LEFT-MOST BLUE
-1.6990 NEAREST LEFT-MOST BOX
-1.0000 NEAREST LEFT-MOST CRIMSON
-1.6990 NEAREST LEFT-MOST CUBE
-1.6990 NEAREST LEFT-MOST CUP
-1.0000 NEAREST LEFT-MOST GREEN
-1.6990 NEAREST LEFT-MOST OBJECT
-1.0000 NEAREST LEFT-MOST RED
-1.6990 NEAREST LEFT-MOST THING
-0.3010 NEAREST OBJECT </s>
-1.0000 NEAREST RED BOX
-1.0000 NEAREST RED CUBE
-1.0000 NEAREST RED CUP
-1.0000 NEAREST RED OBJECT
-1.0000 NEAREST RED THING
-1.0000 NEAREST RIGHT BLUE
-1.6990 NEAREST RIGHT BOX
-1.0000 NEAREST RIGHT CRIMSON
-1.6990 NEAREST RIGHT CUBE
-1.6990 NEAREST RIGHT CUP
-1.0000 NEAREST RIGHT GREEN
-1.6990 NEAREST RIGHT OBJECT
-1.0000 NEAREST RIGHT RED
-1.6990 NEAREST RIGHT THING
-1.0000 NEAREST RIGHT-MOST BLUE
-1.6990 NEAREST RIGHT-MOST BOX
-1.0000 NEAREST RIGHT-MOST CRIMSON
-1.6990 NEAREST RIGHT-MOST CUBE
-1.6990 NEAREST RIGHT-MOST CUP
-1.0000 NEAREST RIGHT-MOST GREEN
-1.6990 NEAREST RIGHT-MOST OBJECT
-1.0000 NEAREST RIGHT-MOST RED
-1.6990 NEAREST RIGHT-MOST THING
-0.3010 NEAREST THING </s>
-0.3010 NEXT ACTION </s>
-0.3010 NEXT PROGRAM </s>
-0.3010 NEXT SKILL </s>
-0.3010 ON-THE-TABLE LEFT-ARM </s>
-0.3010 ON-THE-TABLE LEFT-GRIPPER </s>
-0.3010 ON-THE-TABLE LEFT-HAND </s>
-0.3010 ON-THE-TABLE RIGHT-ARM </s>
-0.3010 ON-THE-TABLE RIGHT-GRIPPER </s>
-0.3010 ON-THE-TABLE RIGHT-HAND </s>
-0.3010 OPEN LEFT-ARM </s>
-0.3010 OPEN LEFT-GRIPPER </s>
-0.3010 OPEN LEFT-HAND </s>
-0.3010 OPEN RIGHT-ARM </s>
-0.3010 OPEN RIGHT-GRIPPER </s>
-0.3010 OPEN RIGHT-HAND </s>
-1.0792 PLACE ON-THE-TABLE LEFT-ARM
-1.0792 PLACE ON-THE-TABLE LEFT-GRIPPER
-1.0792 PLACE ON-THE-TABLE LEFT-HAND
-1.0792 PLACE ON-THE-TABLE RIGHT-ARM
-1.0792 PLACE ON-THE-TABLE RIGHT-GRIPPER
-1.0792 PLACE ON-THE-TABLE RIGHT-HAND
-1.0792 PLACE RIGHT-THERE LEFT-ARM
-1.0792 PLACE RIGHT-THERE LEFT-GRIPPER
-1.0792 PLACE RIGHT-THERE LEFT-HAND
-1.0792 PLACE RIGHT-THERE RIGHT-ARM
-1.0792 PLACE RIGHT-THERE RIGHT-GRIPPER
-1.0792 PLACE RIGHT-THERE RIGHT-HAND
-1.0792 PLACE THERE LEFT-ARM
-1.0792 PLACE THERE LEFT-GRIPPER
-1.0792 PLACE THERE LEFT-HAND
-1.0792 PLACE THERE RIGHT-ARM
-1.0792 PLACE THERE RIGHT-GRIPPER
-1.0792 PLACE THERE RIGHT-HAND
-0.3010 PREVIOUS ACTION </s>
-0.3010 PREVIOUS PROGRAM </s>
-0.3010 PREVIOUS SKILL </s>
-1.0792 PUT ON-THE-TABLE LEFT-ARM
-1.0792 PUT ON-THE-TABLE LEFT-GRIPPER
-1.0792 PUT ON-THE-TABLE LEFT-HAND
-1.0792 PUT ON-THE-TABLE RIGHT-ARM
-1.0792 PUT ON-THE-TABLE RIGHT-GRIPPER
-1.0792 PUT ON-THE-TABLE RIGHT-HAND
-1.0792 PUT RIGHT-THERE LEFT-ARM
-1.0792 PUT RIGHT-THERE LEFT-GRIPPER
-1.0792 PUT RIGHT-THERE LEFT-HAND
-1.0792 PUT RIGHT-THERE RIGHT-ARM
-1.0792 PUT RIGHT-THERE RIGHT-GRIPPER
-1.0792 PUT RIGHT-THERE RIGHT-HAND
-1.0792 PUT THERE LEFT-ARM
-1.0792 PUT THERE LEFT-GRIPPER
-1.0792 PUT THERE LEFT-HAND
-1.0792 PUT THERE RIGHT-ARM
-1.0792 PUT THERE RIGHT-GRIPPER
-1.0792 PUT THERE RIGHT-HAND
-0.3010 RED BOX </s>
-0.3010 RED CUBE </s>
-0.3010 RED CUP </s>
-0.3010 RED OBJECT </s>
-0.3010 RED THING </s>
-0.3010 RELEASE LEFT-ARM </s>
-0.3010 RELEASE LEFT-GRIPPER </s>
-0.3010 RELEASE LEFT-HAND </s>
-0.3010 RELEASE RIGHT-ARM </s>
-0.3010 RELEASE RIGHT-GRIPPER </s>
-0.3010 RELEASE RIGHT-HAND </s>
-1.0000 RIGHT BLUE BOX
-1.0000 RIGHT BLUE CUBE
-1.0000 RIGHT BLUE CUP
-1.0000 RIGHT BLUE OBJECT
-1.0000 RIGHT BLUE THING
-0.3010 RIGHT BOX </s>
-1.0000 RIGHT CRIMSON BOX
-1.0000 RIGHT CRIMSON CUBE
-1.0000 RIGHT CRIMSON CUP
-1.0000 RIGHT CRIMSON OBJECT
-1.0000 RIGHT CRIMSON THING
-0.3010 RIGHT CUBE </s>
-0.3010 RIGHT CUP </s>
-1.0000 RIGHT FARTHEST BLUE
-1.6990 RIGHT FARTHEST BOX
-1.0000 RIGHT FARTHEST CRIMSON
-1.6990 RIGHT FARTHEST CUBE
-1.6990 RIGHT FARTHEST CUP
-1.0000 RIGHT FARTHEST GREEN
-1.6990 RIGHT FARTHEST OBJECT
-1.0000 RIGHT FARTHEST RED
-1.6990 RIGHT FARTHEST THING
-1.0000 RIGHT GREEN BOX
-1.0000 RIGHT GREEN CUBE
-1.0000 RIGHT GREEN CUP
-1.0000 RIGHT GREEN OBJECT
-1.0000 RIGHT GREEN THING
-0.3010 RIGHT OBJECT </s>
-1.0000 RIGHT RED BOX
-1.0000 RIGHT RED CUBE
-1.0000 RIGHT RED CUP
-1.0000 RIGHT RED OBJECT
-1.0000 RIGHT RED THING
-0.3010 RIGHT THING </s>
-0.3010 RIGHT-ARM AWAY </s>
-0.3010 RIGHT-ARM BACKWARDS </s>
-0.3010 RIGHT-ARM CLOCKWISE </s>
-0.3010 RIGHT-ARM CLOSER </s>
-0.3010 RIGHT-ARM COUNTERCLOCKWISE </s>
-0.3010 RIGHT-ARM DOWN </s>
-0.3010 RIGHT-ARM FORWARD </s>
-0.3010 RIGHT-ARM HIGHER </s>
-0.3010 RIGHT-ARM LEFT </s>
-0.3010 RIGHT-ARM LOWER </s>
-0.3010 RIGHT-ARM RAISE </s>
-0.3010 RIGHT-ARM RIGHT </s>
-0.3010 RIGHT-ARM TO-THE-LEFT </s>
-0.3010 RIGHT-ARM TO-THE-RIGHT </s>
-0.3010 RIGHT-ARM TO-THE-SIDE </s>
-0.3010 RIGHT-ARM UP </s>
-0.3010 RIGHT-GRIPPER AWAY </s>
-0.3010 RIGHT-GRIPPER BACKWARDS </s>
-0.3010 RIGHT-GRIPPER CLOCKWISE </s>
-0.3010 RIGHT-GRIPPER CLOSER </s>
-0.3010 RIGHT-GRIPPER COUNTERCLOCKWISE </s>
-0.3010 RIGHT-GRIPPER DOWN </s>
-0.3010 RIGHT-GRIPPER FORWARD </s>
-0.3010 RIGHT-GRIPPER HIGHER </s>
-0.3010 RIGHT-GRIPPER LEFT </s>
-0.3010 RIGHT-GRIPPER LOWER </s>
-0.3010 RIGHT-GRIPPER RAISE </s>
-0.3010 RIGHT-GRIPPER RIGHT </s>
-0.3010 RIGHT-GRIPPER TO-THE-LEFT </s>
-0.3010 RIGHT-GRIPPER TO-THE-RIGHT </s>
-0.3010 RIGHT-GRIPPER TO-THE-SIDE </s>
-0.3010 RIGHT-GRIPPER UP </s>
-0.3010 RIGHT-HAND AWAY </s>
-0.3010 RIGHT-HAND BACKWARDS </s>
-0.3010 RIGHT-HAND CLOCKWISE </s>
-0.3010 RIGHT-HAND CLOSER </s>
-0.3010 RIGHT-HAND COUNTERCLOCKWISE </s>
-0.3010 RIGHT-HAND DOWN </s>
-0.3010 RIGHT-HAND FORWARD </s>
-0.3010 RIGHT-HAND HIGHER </s>
-0.3010 RIGHT-HAND LEFT </s>
-0.3010 RIGHT-HAND LOWER </s>
-0.3010 RIGHT-HAND RAISE </s>
-0.3010 RIGHT-HAND RIGHT </s>
-0.3010 RIGHT-HAND TO-THE-LEFT </s>
-0.3010 RIGHT-HAND TO-THE-RIGHT </s>
-0.3010 RIGHT-HAND TO-THE-SIDE </s>
-0.3010 RIGHT-HAND UP </s>
-1.0000 RIGHT-MOST BLUE BOX
-1.0000 RIGHT-MOST BLUE CUBE
-1.0000 RIGHT-MOST BLUE CUP
-1.0000 RIGHT-MOST BLUE OBJECT
-1.0000 RIGHT-MOST BLUE THING
-0.3010 RIGHT-MOST BOX </s>
-1.0000 RIGHT-MOST CRIMSON BOX
-1.0000 RIGHT-MOST CRIMSON CUBE
-1.0000 RIGHT-MOST CRIMSON CUP
-1.0000 RIGHT-MOST CRIMSON OBJECT
-1.0000 RIGHT-MOST CRIMSON THING
-0.3010 RIGHT-MOST CUBE </s>
-0.3010 RIGHT-MOST CUP </s>
-1.0000 RIGHT-MOST FARTHEST BLUE
-1.6990 RIGHT-MOST FARTHEST BOX
-1.0000 RIGHT-MOST FARTHEST CRIMSON
-1.6990 RIGHT-MOST FARTHEST CUBE
-1.6990 RIGHT-MOST FARTHEST CUP
-1.0000 RIGHT-MOST FARTHEST GREEN
-1.6990 RIGHT-MOST FARTHEST OBJECT
-1.0000 RIGHT-MOST FARTHEST RED
-1.6990 RIGHT-MOST FARTHEST THING
-1.0000 RIGHT-MOST GREEN BOX
-1.0000 RIGHT-MOST GREEN CUBE
-1.0000 RIGHT-MOST GREEN CUP
-1.0000 RIGHT-MOST GREEN OBJECT
-1.0000 RIGHT-MOST GREEN THING
-0.3010 RIGHT-MOST OBJECT </s>
-1.0000 RIGHT-MOST RED BOX
-1.0000 RIGHT-MOST RED CUBE
-1.0000 RIGHT-MOST RED CUP
-1.0000 RIGHT-MOST RED OBJECT
-1.0000 RIGHT-MOST RED THING
-0.3010 RIGHT-MOST THING </s>
-0.3010 RIGHT-THERE LEFT-ARM </s>
-0.3010 RIGHT-THERE LEFT-GRIPPER </s>
-0.3010 RIGHT-THERE LEFT-HAND </s>
-0.3010 RIGHT-THERE RIGHT-ARM </s>
-0.3010 RIGHT-THERE RIGHT-GRIPPER </s>
-0.3010 RIGHT-THERE RIGHT-HAND </s>
-0.6021 ROTATE LEFT-ARM CLOCKWISE
-0.6021 ROTATE LEFT-ARM COUNTERCLOCKWISE
-0.6021 ROTATE LEFT-GRIPPER CLOCKWISE
-0.6021 ROTATE LEFT-GRIPPER COUNTERCLOCKWISE
-0.6021 ROTATE LEFT-HAND CLOCKWISE
-0.6021 ROTATE LEFT-HAND COUNTERCLOCKWISE
-0.6021 ROTATE RIGHT-ARM CLOCKWISE
-0.6021 ROTATE RIGHT-ARM COUNTERCLOCKWISE
-0.6021 ROTATE RIGHT-GRIPPER CLOCKWISE
-0.6021 ROTATE RIGHT-GRIPPER COUNTERCLOCKWISE
-0.6021 ROTATE RIGHT-HAND CLOCKWISE
-0.6021 ROTATE RIGHT-HAND COUNTERCLOCKWISE
-1.0000 SHORTEST BLUE BOX
-1.0000 SHORTEST BLUE CUBE
-1.0000 SHORTEST BLUE CUP
-1.0000 SHORTEST BLUE OBJECT
-1.0000 SHORTEST BLUE THING
-0.3010 SHORTEST BOX </s>
-1.6990 SHORTEST CLOSEST BLUE
-2.3979 SHORTEST CLOSEST BOX
-1.6990 SHORTEST CLOSEST CRIMSON
-2.3979 SHORTEST CLOSEST CUBE
-2.3979 SHORTEST CLOSEST CUP
-1.6990 SHORTEST CLOSEST GREEN
-1.0000 SHORTEST CLOSEST LEFT
-1.0000 SHORTEST CLOSEST LEFT-MOST
-2.3979 SHORTEST CLOSEST OBJECT
-1.6990 SHORTEST CLOSEST RED
-1.0000 SHORTEST CLOSEST RIGHT
-1.0000 SHORTEST CLOSEST RIGHT-MOST
-2.3979 SHORTEST CLOSEST THING
-1.0000 SHORTEST CRIMSON BOX
-1.0000 SHORTEST CRIMSON CUBE
-1.0000 SHORTEST CRIMSON CUP
-1.0000 SHORTEST CRIMSON OBJECT
-1.0000 SHORTEST CRIMSON THING
-0.3010 SHORTEST CUBE </s>
-0.3010 SHORTEST CUP </s>
-1.4771 SHORTEST FARTHEST BLUE
-2.1761 SHORTEST FARTHEST BOX
-1.4771 SHORTEST FARTHEST CRIMSON
-2.1761 SHORTEST FARTHEST CUBE
-2.1761 SHORTEST FARTHEST CUP
-1.4771 SHORTEST FARTHEST GREEN
-0.7782 SHORTEST FARTHEST LEFT
-0.7782 SHORTEST FARTHEST LEFT-MOST
-2.1761 SHORTEST FARTHEST OBJECT
-1.4771 SHORTEST FARTHEST RED
-2.1761 SHORTEST FARTHEST THING
-1.0000 SHORTEST GREEN BOX
-1.0000 SHORTEST GREEN CUBE
-1.0000 SHORTEST GREEN CUP
-1.0000 SHORTEST GREEN OBJECT
-1.0000 SHORTEST GREEN THING
-1.0000 SHORTEST LEFT BLUE
-1.6990 SHORTEST LEFT BOX
-1.0000 SHORTEST LEFT CRIMSON
-1.6990 SHORTEST LEFT CUBE
-1.6990 SHORTEST LEFT CUP
-1.0000 SHORTEST LEFT GREEN
-1.6990 SHORTEST LEFT OBJECT
-1.0000 SHORTEST LEFT RED
-1.6990 SHORTEST LEFT THING
-1.0000 SHORTEST LEFT-MOST BLUE
-1.6990 SHORTEST LEFT-MOST BOX
-1.0000 SHORTEST LEFT-MOST CRIMSON
-1.6990 SHORTEST LEFT-MOST CUBE
-1.6990 SHORTEST LEFT-MOST CUP
-1.0000 SHORTEST LEFT-MOST GREEN
-1.6990 SHORTEST LEFT-MOST OBJECT
-1.0000 SHORTEST LEFT-MOST RED
-1.6990 SHORTEST LEFT-MOST THING
-1.6990 SHORTEST NEAREST BLUE
-2.3979 SHORTEST NEAREST BOX
-1.6990 SHORTEST NEAREST CRIMSON
-2.3979 SHORTEST NEAREST CUBE
-2.3979 SHORTEST NEAREST CUP
-1.6990 SHORTEST NEAREST GREEN
-1.0000 SHORTEST NEAREST LEFT
-1.0000 SHORTEST NEAREST LEFT-MOST
-2.3979 SHORTEST NEAREST OBJECT
-1.6990 SHORTEST NEAREST RED
-1.0000 SHORTEST NEAREST RIGHT
-1.0000 SHORTEST NEAREST RIGHT-MOST
-2.3979 SHORTEST NEAREST THING
-0.3010 SHORTEST OBJECT </s>
-1.0000 SHORTEST RED BOX
-1.0000 SHORTEST RED CUBE
-1.0000 SHORTEST RED CUP
-1.0000 SHORTEST RED OBJECT
-1.0000 SHORTEST RED THING
-1.3010 SHORTEST RIGHT BLUE
-2.0000 SHORTEST RIGHT BOX
-1.3010 SHORTEST RIGHT CRIMSON
-2.0000 SHORTEST RIGHT CUBE
-2.0000 SHORTEST RIGHT CUP
-0.6021 SHORTEST RIGHT FARTHEST
-1.3010 SHORTEST RIGHT GREEN
-2.0000 SHORTEST RIGHT OBJECT
-1.3010 SHORTEST RIGHT RED
-2.0000 SHORTEST RIGHT THING
-1.3010 SHORTEST RIGHT-MOST BLUE
-2.0000 SHORTEST RIGHT-MOST BOX
-1.3010 SHORTEST RIGHT-MOST CRIMSON
-2.0000 SHORTEST RIGHT-MOST CUBE
-2.0000 SHORTEST RIGHT-MOST CUP
-0.6021 SHORTEST RIGHT-MOST FARTHEST
-1.3010 SHORTEST RIGHT-MOST GREEN
-2.0000 SHORTEST RIGHT-MOST OBJECT
-1.3010 SHORTEST RIGHT-MOST RED
-2.0000 SHORTEST RIGHT-MOST THING
-2.3010 SHORTEST SMALL BLUE
-3.0000 SHORTEST SMALL BOX
-0.9031 SHORTEST SMALL CLOSEST
-2.3010 SHORTEST SMALL CRIMSON
-3.0000 SHORTEST SMALL CUBE
-3.0000 SHORTEST SMALL CUP
-1.1249 SHORTEST SMALL FARTHEST
-2.3010 SHORTEST SMALL GREEN
-1.6021 SHORTEST SMALL LEFT
-1.6021 SHORTEST SMALL LEFT-MOST
-0.9031 SHORTEST SMALL NEAREST
-3.0000 SHORTEST SMALL OBJECT
-2.3010 SHORTEST SMALL RED
-1.3010 SHORTEST SMALL RIGHT
-1.3010 SHORTEST SMALL RIGHT-MOST
-3.0000 SHORTEST SMALL THING
-2.3010 SHORTEST SMALLEST BLUE
-3.0000 SHORTEST SMALLEST BOX
-0.9031 SHORTEST SMALLEST CLOSEST
-2.3010 SHORTEST SMALLEST CRIMSON
-3.0000 SHORTEST SMALLEST CUBE
-3.0000 SHORTEST SMALLEST CUP
-1.1249 SHORTEST SMALLEST FARTHEST
-2.3010 SHORTEST SMALLEST GREEN
-1.6021 SHORTEST SMALLEST LEFT
-1.6021 SHORTEST SMALLEST LEFT-MOST
-0.9031 SHORTEST SMALLEST NEAREST
-3.0000 SHORTEST SMALLEST OBJECT
-2.3010 SHORTEST SMALLEST RED
-1.3010 SHORTEST SMALLEST RIGHT
-1.3010 SHORTEST SMALLEST RIGHT-MOST
-3.0000 SHORTEST SMALLEST THING
-0.3010 SHORTEST THING </s>
-1.0000 SMALL BLUE BOX
-1.0000 SMALL BLUE CUBE
-1.0000 SMALL BLUE CUP
-1.0000 SMALL BLUE OBJECT
-1.0000 SMALL BLUE THING
-0.3010 SMALL BOX </s>
-1.6990 SMALL CLOSEST BLUE
-2.3979 SMALL CLOSEST BOX
-1.6990 SMALL CLOSEST CRIMSON
-2.3979 SMALL CLOSEST CUBE
-2.3979 SMALL CLOSEST CUP
-1.6990 SMALL CLOSEST GREEN
-1.0000 SMALL CLOSEST LEFT
-1.0000 SMALL CLOSEST LEFT-MOST
-2.3979 SMALL CLOSEST OBJECT
-1.6990 SMALL CLOSEST RED
-1.0000 SMALL CLOSEST RIGHT
-1.0000 SMALL CLOSEST RIGHT-MOST
-2.3979 SMALL CLOSEST THING
-1.0000 SMALL CRIMSON BOX
-1.0000 SMALL CRIMSON CUBE
-1.0000 SMALL CRIMSON CUP
-1.0000 SMALL CRIMSON OBJECT
-1.0000 SMALL CRIMSON THING
-0.3010 SMALL CUBE </s>
-0.3010 SMALL CUP </s>
-1.4771 SMALL FARTHEST BLUE
-2.1761 SMALL FARTHEST BOX
-1.4771 SMALL FARTHEST CRIMSON
-2.1761 SMALL FARTHEST CUBE
-2.1761 SMALL FARTHEST CUP
-1.4771 SMALL FARTHEST GREEN
-0.7782 SMALL FARTHEST LEFT
-0.7782 SMALL FARTHEST LEFT-MOST
-2.1761 SMALL FARTHEST OBJECT
-1.4771 SMALL FARTHEST RED
-2.1761 SMALL FARTHEST THING
-1.0000 SMALL GREEN BOX
-1.0000 SMALL GREEN CUBE
-1.0000 SMALL GREEN CUP
-1.0000 SMALL GREEN OBJECT
-1.0000 SMALL GREEN THING
-1.0000 SMALL LEFT BLUE
-1.6990 SMALL LEFT BOX
-1.0000 SMALL LEFT CRIMSON
-1.6990 SMALL LEFT CUBE
-1.6990 SMALL LEFT CUP
-1.0000 SMALL LEFT GREEN
-1.6990 SMALL LEFT OBJECT
-1.0000 SMALL LEFT RED
-1.6990 SMALL LEFT THING
-1.0000 SMALL LEFT-MOST BLUE
-1.6990 SMALL LEFT-MOST BOX
-1.0000 SMALL LEFT-MOST CRIMSON
-1.6990 SMALL LEFT-MOST CUBE
-1.6990 SMALL LEFT-MOST CUP
-1.0000 SMALL LEFT-MOST GREEN
-1.6990 SMALL LEFT-MOST OBJECT
-1.0000 SMALL LEFT-MOST RED
-1.6990 SMALL LEFT-MOST THING
-1.6990 SMALL NEAREST BLUE
-2.3979 SMALL NEAREST BOX
-1.6990 SMALL NEAREST CRIMSON
-2.3979 SMALL NEAREST CUBE
-2.3979 SMALL NEAREST CUP
-1.6990 SMALL NEAREST GREEN
-1.0000 SMALL NEAREST LEFT
-1.0000 SMALL NEAREST LEFT-MOST
-2.3979 SMALL NEAREST OBJECT
-1.6990 SMALL NEAREST RED
-1.0000 SMALL NEAREST RIGHT
-1.0000 SMALL NEAREST RIGHT-MOST
-2.3979 SMALL NEAREST THING
-0.3010 SMALL OBJECT </s>
-1.0000 SMALL RED BOX
-1.0000 SMALL RED CUBE
-1.0000 SMALL RED CUP
-1.0000 SMALL RED OBJECT
-1.0000 SMALL RED THING
-1.3010 SMALL RIGHT BLUE
-2.0000 SMALL RIGHT BOX
-1.3010 SMALL RIGHT CRIMSON
-2.0000 SMALL RIGHT CUBE
-2.0000 SMALL RIGHT CUP
-0.6021 SMALL RIGHT FARTHEST
-1.3010 SMALL RIGHT GREEN
-2.0000 SMALL RIGHT OBJECT
-1.3010 SMALL RIGHT RED
-2.0000 SMALL RIGHT THING
-1.3010 SMALL RIGHT-MOST BLUE
-2.0000 SMALL RIGHT-MOST BOX
-1.3010 SMALL RIGHT-MOST CRIMSON
-2.0000 SMALL RIGHT-MOST CUBE
-2.0000 SMALL RIGHT-MOST CUP
-0.6021 SMALL RIGHT-MOST FARTHEST
-1.3010 SMALL RIGHT-MOST GREEN
-2.0000 SMALL RIGHT-MOST OBJECT
-1.3010 SMALL RIGHT-MOST RED
-2.0000 SMALL RIGHT-MOST THING
-0.3010 SMALL THING </s>
-1.0000 SMALLEST BLUE BOX
-1.0000 SMALLEST BLUE CUBE
-1.0000 SMALLEST BLUE CUP
-1.0000 SMALLEST BLUE OBJECT
-1.0000 SMALLEST BLUE THING
-0.3010 SMALLEST BOX </s>
-1.6990 SMALLEST CLOSEST BLUE
-2.3979 SMALLEST CLOSEST BOX
-1.6990 SMALLEST CLOSEST CRIMSON
-2.3979 SMALLEST CLOSEST CUBE
-2.3979 SMALLEST CLOSEST CUP
-1.6990 SMALLEST CLOSEST GREEN
-1.0000 SMALLEST CLOSEST LEFT
-1.0000 SMALLEST CLOSEST LEFT-MOST
-2.3979 SMALLEST CLOSEST OBJECT
-1.6990 SMALLEST CLOSEST RED
-1.0000 SMALLEST CLOSEST RIGHT
-1.0000 SMALLEST CLOSEST RIGHT-MOST
-2.3979 SMALLEST CLOSEST THING
-1.0000 SMALLEST CRIMSON BOX
-1.0000 SMALLEST CRIMSON CUBE
-1.0000 SMALLEST CRIMSON CUP
-1.0000 SMALLEST CRIMSON OBJECT
-1.0000 SMALLEST CRIMSON THING
-0.3010 SMALLEST CUBE </s>
-0.3010 SMALLEST CUP </s>
-1.4771 SMALLEST FARTHEST BLUE
-2.1761 SMALLEST FARTHEST BOX
-1.4771 SMALLEST FARTHEST CRIMSON
-2.1761 SMALLEST FARTHEST CUBE
-2.1761 SMALLEST FARTHEST CUP
-1.4771 SMALLEST FARTHEST GREEN
-0.7782 SMALLEST FARTHEST LEFT
-0.7782 SMALLEST FARTHEST LEFT-MOST
-2.1761 SMALLEST FARTHEST OBJECT
-1.4771 SMALLEST FARTHEST RED
-2.1761 SMALLEST FARTHEST THING
-1.0000 SMALLEST GREEN BOX
-1.0000 SMALLEST GREEN CUBE
-1.0000 SMALLEST GREEN CUP
-1.0000 SMALLEST GREEN OBJECT
-1.0000 SMALLEST GREEN THING
-1.0000 SMALLEST LEFT BLUE
-1.6990 SMALLEST LEFT BOX
-1.0000 SMALLEST LEFT CRIMSON
-1.6990 SMALLEST LEFT CUBE
-1.6990 SMALLEST LEFT CUP
-1.0000 SMALLEST LEFT GREEN
-1.6990 SMALLEST LEFT OBJECT
-1.0000 SMALLEST LEFT RED
-1.6990 SMALLEST LEFT THING
-1.0000 SMALLEST LEFT-MOST BLUE
-1.6990 SMALLEST LEFT-MOST BOX
-1.0000 SMALLEST LEFT-MOST CRIMSON
-1.6990 SMALLEST LEFT-MOST CUBE
-1.6990 SMALLEST LEFT-MOST CUP
-1.0000 SMALLEST LEFT-MOST GREEN
-1.6990 SMALLEST LEFT-MOST OBJECT
-1.0000 SMALLEST LEFT-MOST RED
-1.6990 SMALLEST LEFT-MOST THING
-1.6990 SMALLEST NEAREST BLUE
-2.3979 SMALLEST NEAREST BOX
-1.6990 SMALLEST NEAREST CRIMSON
-2.3979 SMALLEST NEAREST CUBE
-2.3979 SMALLEST NEAREST CUP
-1.6990 SMALLEST NEAREST GREEN
-1.0000 SMALLEST NEAREST LEFT
-1.0000 SMALLEST NEAREST LEFT-MOST
-2.3979 SMALLEST NEAREST OBJECT
-1.6990 SMALLEST NEAREST RED
-1.0000 SMALLEST NEAREST RIGHT
-1.0000 SMALLEST NEAREST RIGHT-MOST
-2.3979 SMALLEST NEAREST THING
-0.3010 SMALLEST OBJECT </s>
-1.0000 SMALLEST RED BOX
-1.0000 SMALLEST RED CUBE
-1.0000 SMALLEST RED CUP
-1.0000 SMALLEST RED OBJECT
-1.0000 SMALLEST RED THING
-1.3010 SMALLEST RIGHT BLUE
-2.0000 SMALLEST RIGHT BOX
-1.3010 SMALLEST RIGHT CRIMSON
-2.0000 SMALLEST RIGHT CUBE
-2.0000 SMALLEST RIGHT CUP
-0.6021 SMALLEST RIGHT FARTHEST
-1.3010 SMALLEST RIGHT GREEN
-2.0000 SMALLEST RIGHT OBJECT
-1.3010 SMALLEST RIGHT RED
-2.0000 SMALLEST RIGHT THING
-1.3010 SMALLEST RIGHT-MOST BLUE
-2.0000 SMALLEST RIGHT-MOST BOX
-1.3010 SMALLEST RIGHT-MOST CRIMSON
-2.0000 SMALLEST RIGHT-MOST CUBE
-2.0000 SMALLEST RIGHT-MOST CUP
-0.6021 SMALLEST RIGHT-MOST FARTHEST
-1.3010 SMALLEST RIGHT-MOST GREEN
-2.0000 SMALLEST RIGHT-MOST OBJECT
-1.3010 SMALLEST RIGHT-MOST RED
-2.0000 SMALLEST RIGHT-MOST THING
-0.3010 SMALLEST THING </s>
-0.7782 SWITCH-TO NEXT ACTION
-0.7782 SWITCH-TO NEXT PROGRAM
-0.7782 SWITCH-TO NEXT SKILL
-0.7782 SWITCH-TO PREVIOUS ACTION
-0.7782 SWITCH-TO PREVIOUS PROGRAM
-0.7782 SWITCH-TO PREVIOUS SKILL
-0.7782 SWITCH-TO THE-NEXT ACTION
-0.7782 SWITCH-TO THE-NEXT PROGRAM
-0.7782 SWITCH-TO THE-NEXT SKILL
-0.7782 SWITCH-TO THE-PREVIOUS ACTION
-0.7782 SWITCH-TO THE-PREVIOUS PROGRAM
-0.7782 SWITCH-TO THE-PREVIOUS SKILL
-2.3010 TALLEST BIG BLUE
-3.0000 TALLEST BIG BOX
-0.9031 TALLEST BIG CLOSEST
-2.3010 TALLEST BIG CRIMSON
-3.0000 TALLEST BIG CUBE
-3.0000 TALLEST BIG CUP
-1.1249 TALLEST BIG FARTHEST
-2.3010 TALLEST BIG GREEN
-1.6021 TALLEST BIG LEFT
-1.6021 TALLEST BIG LEFT-MOST
-0.9031 TALLEST BIG NEAREST
-3.0000 TALLEST BIG OBJECT
-2.3010 TALLEST BIG RED
-1.3010 TALLEST BIG RIGHT
-1.3010 TALLEST BIG RIGHT-MOST
-3.0000 TALLEST BIG THING
-2.3010 TALLEST BIGGEST BLUE
-3.0000 TALLEST BIGGEST BOX
-0.9031 TALLEST BIGGEST CLOSEST
-2.3010 TALLEST BIGGEST CRIMSON
-3.0000 TALLEST BIGGEST CUBE
-3.0000 TALLEST BIGGEST CUP
-1.1249 TALLEST BIGGEST FARTHEST
-2.3010 TALLEST BIGGEST GREEN
-1.6021 TALLEST BIGGEST LEFT
-1.6021 TALLEST BIGGEST LEFT-MOST
-0.9031 TALLEST BIGGEST NEAREST
-3.0000 TALLEST BIGGEST OBJECT
-2.3010 TALLEST BIGGEST RED
-1.3010 TALLEST BIGGEST RIGHT
-1.3010 TALLEST BIGGEST RIGHT-MOST
-3.0000 TALLEST BIGGEST THING
-1.0000 TALLEST BLUE BOX
-1.0000 TALLEST BLUE CUBE
-1.0000 TALLEST BLUE CUP
-1.0000 TALLEST BLUE OBJECT
-1.0000 TALLEST BLUE THING
-0.3010 TALLEST BOX </s>
-1.6990 TALLEST CLOSEST BLUE
-2.3979 TALLEST CLOSEST BOX
-1.6990 TALLEST CLOSEST CRIMSON
-2.3979 TALLEST CLOSEST CUBE
-2.3979 TALLEST CLOSEST CUP
-1.6990 TALLEST CLOSEST GREEN
-1.0000 TALLEST CLOSEST LEFT
-1.0000 TALLEST CLOSEST LEFT-MOST
-2.3979 TALLEST CLOSEST OBJECT
-1.6990 TALLEST CLOSEST RED
-1.0000 TALLEST CLOSEST RIGHT
-1.0000 TALLEST CLOSEST RIGHT-MOST
-2.3979 TALLEST CLOSEST THING
-1.0000 TALLEST CRIMSON BOX
-1.0000 TALLEST CRIMSON CUBE
-1.0000 TALLEST CRIMSON CUP
-1.0000 TALLEST CRIMSON OBJECT
-1.0000 TALLEST CRIMSON THING
-0.3010 TALLEST CUBE </s>
-0.3010 TALLEST CUP </s>
-1.4771 TALLEST FARTHEST BLUE
-2.1761 TALLEST FARTHEST BOX
-1.4771 TALLEST FARTHEST CRIMSON
-2.1761 TALLEST FARTHEST CUBE
-2.1761 TALLEST FARTHEST CUP
-1.4771 TALLEST FARTHEST GREEN
-0.7782 TALLEST FARTHEST LEFT
-0.7782 TALLEST FARTHEST LEFT-MOST
-2.1761 TALLEST FARTHEST OBJECT
-1.4771 TALLEST FARTHEST RED
-2.1761 TALLEST FARTHEST THING
-1.0000 TALLEST GREEN BOX
-1.0000 TALLEST GREEN CUBE
-1.0000 TALLEST GREEN CUP
-1.0000 TALLEST GREEN OBJECT
-1.0000 TALLEST GREEN THING
-2.3010 TALLEST LARGE BLUE
-3.0000 TALLEST LARGE BOX
-0.9031 TALLEST LARGE CLOSEST
-2.3010 TALLEST LARGE CRIMSON
-3.0000 TALLEST LARGE CUBE
-3.0000 TALLEST LARGE CUP
-1.1249 TALLEST LARGE FARTHEST
-2.3010 TALLEST LARGE GREEN
-1.6021 TALLEST LARGE LEFT
-1.6021 TALLEST LARGE LEFT-MOST
-0.9031 TALLEST LARGE NEAREST
-3.0000 TALLEST LARGE OBJECT
-2.3010 TALLEST LARGE RED
-1.3010 TALLEST LARGE RIGHT
-1.3010 TALLEST LARGE RIGHT-MOST
-3.0000 TALLEST LARGE THING
-2.3010 TALLEST LARGEST BLUE
-3.0000 TALLEST LARGEST BOX
-0.9031 TALLEST LARGEST CLOSEST
-2.3010 TALLEST LARGEST CRIMSON
-3.0000 TALLEST LARGEST CUBE
-3.0000 TALLEST LARGEST CUP
-1.1249 TALLEST LARGEST FARTHEST
-2.3010 TALLEST LARGEST GREEN
-1.6021 TALLEST LARGEST LEFT
-1.6021 TALLEST LARGEST LEFT-MOST
-0.9031 TALLEST LARGEST NEAREST
-3.0000 TALLEST LARGEST OBJECT
-2.3010 TALLEST LARGEST RED
-1.3010 TALLEST LARGEST RIGHT
-1.3010 TALLEST LARGEST RIGHT-MOST
-3.0000 TALLEST LARGEST THING
-1.0000 TALLEST LEFT BLUE
-1.6990 TALLEST LEFT BOX
-1.0000 TALLEST LEFT CRIMSON
-1.6990 TALLEST LEFT CUBE
-1.6990 TALLEST LEFT CUP
-1.0000 TALLEST LEFT GREEN
-1.6990 TALLEST LEFT OBJECT
-1.0000 TALLEST LEFT RED
-1.6990 TALLEST LEFT THING
-1.0000 TALLEST LEFT-MOST BLUE
-1.6990 TALLEST LEFT-MOST BOX
-1.0000 TALLEST LEFT-MOST CRIMSON
-1.6990 TALLEST LEFT-MOST CUBE
-1.6990 TALLEST LEFT-MOST CUP
-1.0000 TALLEST LEFT-MOST GREEN
-1.6990 TALLEST LEFT-MOST OBJECT
-1.0000 TALLEST LEFT-MOST RED
-1.6990 TALLEST LEFT-MOST THING
-1.6990 TALLEST NEAREST BLUE
-2.3979 TALLEST NEAREST BOX
-1.6990 TALLEST NEAREST CRIMSON
-2.3979 TALLEST NEAREST CUBE
-2.3979 TALLEST NEAREST CUP
-1.6990 TALLEST NEAREST GREEN
-1.0000 TALLEST NEAREST LEFT
-1.0000 TALLEST NEAREST LEFT-MOST
-2.3979 TALLEST NEAREST OBJECT
-1.6990 TALLEST NEAREST RED
-1.0000 TALLEST NEAREST RIGHT
-1.0000 TALLEST NEAREST RIGHT-MOST
-2.3979 TALLEST NEAREST THING
-0.3010 TALLEST OBJECT </s>
-1.0000 TALLEST RED BOX
-1.0000 TALLEST RED CUBE
-1.0000 TALLEST RED CUP
-1.0000 TALLEST RED OBJECT
-1.0000 TALLEST RED THING
-1.3010 TALLEST RIGHT BLUE
-2.0000 TALLEST RIGHT BOX
-1.3010 TALLEST RIGHT CRIMSON
-2.0000 TALLEST RIGHT CUBE
-2.0000 TALLEST RIGHT CUP
-0.6021 TALLEST RIGHT FARTHEST
-1.3010 TALLEST RIGHT GREEN
-2.0000 TALLEST RIGHT OBJECT
-1.3010 TALLEST RIGHT RED
-2.0000 TALLEST RIGHT THING
-1.3010 TALLEST RIGHT-MOST BLUE
-2.0000 TALLEST RIGHT-MOST BOX
-1.3010 TALLEST RIGHT-MOST CRIMSON
-2.0000 TALLEST RIGHT-MOST CUBE
-2.0000 TALLEST RIGHT-MOST CUP
-0.6021 TALLEST RIGHT-MOST FARTHEST
-1.3010 TALLEST RIGHT-MOST GREEN
-2.0000 TALLEST RIGHT-MOST OBJECT
-1.3010 TALLEST RIGHT-MOST RED
-2.0000 TALLEST RIGHT-MOST THING
-2.3010 TALLEST SMALL BLUE
-3.0000 TALLEST SMALL BOX
-0.9031 TALLEST SMALL CLOSEST
-2.3010 TALLEST SMALL CRIMSON
-3.0000 TALLEST SMALL CUBE
-3.0000 TALLEST SMALL CUP
-1.1249 TALLEST SMALL FARTHEST
-2.3010 TALLEST SMALL GREEN
-1.6021 TALLEST SMALL LEFT
-1.6021 TALLEST SMALL LEFT-MOST
-0.9031 TALLEST SMALL NEAREST
-3.0000 TALLEST SMALL OBJECT
-2.3010 TALLEST SMALL RED
-1.3010 TALLEST SMALL RIGHT
-1.3010 TALLEST SMALL RIGHT-MOST
-3.0000 TALLEST SMALL THING
-2.3010 TALLEST SMALLEST BLUE
-3.0000 TALLEST SMALLEST BOX
-0.9031 TALLEST SMALLEST CLOSEST
-2.3010 TALLEST SMALLEST CRIMSON
-3.0000 TALLEST SMALLEST CUBE
-3.0000 TALLEST SMALLEST CUP
-1.1249 TALLEST SMALLEST FARTHEST
-2.3010 TALLEST SMALLEST GREEN
-1.6021 TALLEST SMALLEST LEFT
-1.6021 TALLEST SMALLEST LEFT-MOST
-0.9031 TALLEST SMALLEST NEAREST
-3.0000 TALLEST SMALLEST OBJECT
-2.3010 TALLEST SMALLEST RED
-1.3010 TALLEST SMALLEST RIGHT
-1.3010 TALLEST SMALLEST RIGHT-MOST
-3.0000 TALLEST SMALLEST THING
-0.3010 TALLEST THING </s>
-2.6021 THE BIG BLUE
-3.3010 THE BIG BOX
-1.2041 THE BIG CLOSEST
-2.6021 THE BIG CRIMSON
-3.3010 THE BIG CUBE
-3.3010 THE BIG CUP
-1.4260 THE BIG FARTHEST
-2.6021 THE BIG GREEN
-1.9031 THE BIG LEFT
-1.9031 THE BIG LEFT-MOST
-1.2041 THE BIG NEAREST
-3.3010 THE BIG OBJECT
-2.6021 THE BIG RED
-1.6021 THE BIG RIGHT
-1.6021 THE BIG RIGHT-MOST
-0.6021 THE BIG SHORTEST
-3.3010 THE BIG THING
-2.6021 THE BIGGEST BLUE
-3.3010 THE BIGGEST BOX
-1.2041 THE BIGGEST CLOSEST
-2.6021 THE BIGGEST CRIMSON
-3.3010 THE BIGGEST CUBE
-3.3010 THE BIGGEST CUP
-1.4260 THE BIGGEST FARTHEST
-2.6021 THE BIGGEST GREEN
-1.9031 THE BIGGEST LEFT
-1.9031 THE BIGGEST LEFT-MOST
-1.2041 THE BIGGEST NEAREST
-3.3010 THE BIGGEST OBJECT
-2.6021 THE BIGGEST RED
-1.6021 THE BIGGEST RIGHT
-1.6021 THE BIGGEST RIGHT-MOST
-0.6021 THE BIGGEST SHORTEST
-3.3010 THE BIGGEST THING
-1.0000 THE BLUE BOX
-1.0000 THE BLUE CUBE
-1.0000 THE BLUE CUP
-1.0000 THE BLUE OBJECT
-1.0000 THE BLUE THING
-0.3010 THE BOX </s>
-1.6990 THE CLOSEST BLUE
-2.3979 THE CLOSEST BOX
-1.6990 THE CLOSEST CRIMSON
-2.3979 THE CLOSEST CUBE
-2.3979 THE CLOSEST CUP
-1.6990 THE CLOSEST GREEN
-1.0000 THE CLOSEST LEFT
-1.0000 THE CLOSEST LEFT-MOST
-2.3979 THE CLOSEST OBJECT
-1.6990 THE CLOSEST RED
-1.0000 THE CLOSEST RIGHT
-1.0000 THE CLOSEST RIGHT-MOST
-2.3979 THE CLOSEST THING
-1.0000 THE CRIMSON BOX
-1.0000 THE CRIMSON CUBE
-1.0000 THE CRIMSON CUP
-1.0000 THE CRIMSON OBJECT
-1.0000 THE CRIMSON THING
-0.3010 THE CUBE </s>
-0.3010 THE CUP </s>
-1.4771 THE FARTHEST BLUE
-2.1761 THE FARTHEST BOX
-1.4771 THE FARTHEST CRIMSON
-2.1761 THE FARTHEST CUBE
-2.1761 THE FARTHEST CUP
-1.4771 THE FARTHEST GREEN
-0.7782 THE FARTHEST LEFT
-0.7782 THE FARTHEST LEFT-MOST
-2.1761 THE FARTHEST OBJECT
-1.4771 THE FARTHEST RED
-2.1761 THE FARTHEST THING
-1.0000 THE GREEN BOX
-1.0000 THE GREEN CUBE
-1.0000 THE GREEN CUP
-1.0000 THE GREEN OBJECT
-1.0000 THE GREEN THING
-2.6021 THE LARGE BLUE
-3.3010 THE LARGE BOX
-1.2041 THE LARGE CLOSEST
-2.6021 THE LARGE CRIMSON
-3.3010 THE LARGE CUBE
-3.3010 THE LARGE CUP
-1.4260 THE LARGE FARTHEST
-2.6021 THE LARGE GREEN
-1.9031 THE LARGE LEFT
-1.9031 THE LARGE LEFT-MOST
-1.2041 THE LARGE NEAREST
-3.3010 THE LARGE OBJECT
-2.6021 THE LARGE RED
-1.6021 THE LARGE RIGHT
-1.6021 THE LARGE RIGHT-MOST
-0.6021 THE LARGE SHORTEST
-3.3010 THE LARGE THING
-2.6021 THE LARGEST BLUE
-3.3010 THE LARGEST BOX
-1.2041 THE LARGEST CLOSEST
-2.6021 THE LARGEST CRIMSON
-3.3010 THE LARGEST CUBE
-3.3010 THE LARGEST CUP
-1.4260 THE LARGEST FARTHEST
-2.6021 THE LARGEST GREEN
-1.9031 THE LARGEST LEFT
-1.9031 THE LARGEST LEFT-MOST
-1.2041 THE LARGEST NEAREST
-3.3010 THE LARGEST OBJECT
-2.6021 THE LARGEST RED
-1.6021 THE LARGEST RIGHT
-1.6021 THE LARGEST RIGHT-MOST
-0.6021 THE LARGEST SHORTEST
-3.3010 THE LARGEST THING
-1.0000 THE LEFT BLUE
-1.6990 THE LEFT BOX
-1.0000 THE LEFT CRIMSON
-1.6990 THE LEFT CUBE
-1.6990 THE LEFT CUP
-1.0000 THE LEFT GREEN
-1.6990 THE LEFT OBJECT
-1.0000 THE LEFT RED
-1.6990 THE LEFT THING
-1.0000 THE LEFT-MOST BLUE
-1.6990 THE LEFT-MOST BOX
-1.0000 THE LEFT-MOST CRIMSON
-1.6990 THE LEFT-MOST CUBE
-1.6990 THE LEFT-MOST CUP
-1.0000 THE LEFT-MOST GREEN
-1.6990 THE LEFT-MOST OBJECT
-1.0000 THE LEFT-MOST RED
-1.6990 THE LEFT-MOST THING
-1.6990 THE NEAREST BLUE
-2.3979 THE NEAREST BOX
-1.6990 THE NEAREST CRIMSON
-2.3979 THE NEAREST CUBE
-2.3979 THE NEAREST CUP
-1.6990 THE NEAREST GREEN
-1.0000 THE NEAREST LEFT
-1.0000 THE NEAREST LEFT-MOST
-2.3979 THE NEAREST OBJECT
-1.6990 THE NEAREST RED
-1.0000 THE NEAREST RIGHT
-1.0000 THE NEAREST RIGHT-MOST
-2.3979 THE NEAREST THING
-0.3010 THE OBJECT </s>
-1.0000 THE RED BOX
-1.0000 THE RED CUBE
-1.0000 THE RED CUP
-1.0000 THE RED OBJECT
-1.0000 THE RED THING
-1.3010 THE RIGHT BLUE
-2.0000 THE RIGHT BOX
-1.3010 THE RIGHT CRIMSON
-2.0000 THE RIGHT CUBE
-2.0000 THE RIGHT CUP
-0.6021 THE RIGHT FARTHEST
-1.3010 THE RIGHT GREEN
-2.0000 THE RIGHT OBJECT
-1.3010 THE RIGHT RED
-2.0000 THE RIGHT THING
-1.3010 THE RIGHT-MOST BLUE
-2.0000 THE RIGHT-MOST BOX
-1.3010 THE RIGHT-MOST CRIMSON
-2.0000 THE RIGHT-MOST CUBE
-2.0000 THE RIGHT-MOST CUP
-0.6021 THE RIGHT-MOST FARTHEST
-1.3010 THE RIGHT-MOST GREEN
-2.0000 THE RIGHT-MOST OBJECT
-1.3010 THE RIGHT-MOST RED
-2.0000 THE RIGHT-MOST THING
-2.7782 THE SHORTEST BLUE
-3.4771 THE SHORTEST BOX
-1.3802 THE SHORTEST CLOSEST
-2.7782 THE SHORTEST CRIMSON
-3.4771 THE SHORTEST CUBE
-3.4771 THE SHORTEST CUP
-1.6021 THE SHORTEST FARTHEST
-2.7782 THE SHORTEST GREEN
-2.0792 THE SHORTEST LEFT
-2.0792 THE SHORTEST LEFT-MOST
-1.3802 THE SHORTEST NEAREST
-3.4771 THE SHORTEST OBJECT
-2.7782 THE SHORTEST RED
-1.7782 THE SHORTEST RIGHT
-1.7782 THE SHORTEST RIGHT-MOST
-0.7782 THE SHORTEST SMALL
-0.7782 THE SHORTEST SMALLEST
-3.4771 THE SHORTEST THING
-2.3010 THE SMALL BLUE
-3.0000 THE SMALL BOX
-0.9031 THE SMALL CLOSEST
-2.3010 THE SMALL CRIMSON
-3.0000 THE SMALL CUBE
-3.0000 THE SMALL CUP
-1.1249 THE SMALL FARTHEST
-2.3010 THE SMALL GREEN
-1.6021 THE SMALL LEFT
-1.6021 THE SMALL LEFT-MOST
-0.9031 THE SMALL NEAREST
-3.0000 THE SMALL OBJECT
-2.3010 THE SMALL RED
-1.3010 THE SMALL RIGHT
-1.3010 THE SMALL RIGHT-MOST
-3.0000 THE SMALL THING
-2.3010 THE SMALLEST BLUE
-3.0000 THE SMALLEST BOX
-0.9031 THE SMALLEST CLOSEST
-2.3010 THE SMALLEST CRIMSON
-3.0000 THE SMALLEST CUBE
-3.0000 THE SMALLEST CUP
-1.1249 THE SMALLEST FARTHEST
-2.3010 THE SMALLEST GREEN
-1.6021 THE SMALLEST LEFT
-1.6021 THE SMALLEST LEFT-MOST
-0.9031 THE SMALLEST NEAREST
-3.0000 THE SMALLEST OBJECT
-2.3010 THE SMALLEST RED
-1.3010 THE SMALLEST RIGHT
-1.3010 THE SMALLEST RIGHT-MOST
-3.0000 THE SMALLEST THING
-1.1461 THE TALLEST BIG
-1.1461 THE TALLEST BIGGEST
-3.1461 THE TALLEST BLUE
-3.8451 THE TALLEST BOX
-1.7482 THE TALLEST CLOSEST
-3.1461 THE TALLEST CRIMSON
-3.8451 THE TALLEST CUBE
-3.8451 THE TALLEST CUP
-1.9700 THE TALLEST FARTHEST
-3.1461 THE TALLEST GREEN
-1.1461 THE TALLEST LARGE
-1.1461 THE TALLEST LARGEST
-2.4472 THE TALLEST LEFT
-2.4472 THE TALLEST LEFT-MOST
-1.7482 THE TALLEST NEAREST
-3.8451 THE TALLEST OBJECT
-3.1461 THE TALLEST RED
-2.1461 THE TALLEST RIGHT
-2.1461 THE TALLEST RIGHT-MOST
-1.1461 THE TALLEST SMALL
-1.1461 THE TALLEST SMALLEST
-3.8451 THE TALLEST THING
-0.3010 THE THING </s>
-0.3010 THE-NEXT ACTION </s>
-0.3010 THE-NEXT PROGRAM </s>
-0.3010 THE-NEXT SKILL </s>
-0.3010 THE-PREVIOUS ACTION </s>
-0.3010 THE-PREVIOUS PROGRAM </s>
-0.3010 THE-PREVIOUS SKILL </s>
-0.3010 THERE LEFT-ARM </s>
-0.3010 THERE LEFT-GRIPPER </s>
-0.3010 THERE LEFT-HAND </s>
-0.3010 THERE RIGHT-ARM </s>
-0.3010 THERE RIGHT-GRIPPER </s>
-0.3010 THERE RIGHT-HAND </s>
-0.6021 TWIST LEFT-ARM CLOCKWISE
-0.6021 TWIST LEFT-ARM COUNTERCLOCKWISE
-0.6021 TWIST LEFT-GRIPPER CLOCKWISE
-0.6021 TWIST LEFT-GRIPPER COUNTERCLOCKWISE
-0.6021 TWIST LEFT-HAND CLOCKWISE
-0.6021 TWIST LEFT-HAND COUNTERCLOCKWISE
-0.6021 TWIST RIGHT-ARM CLOCKWISE
-0.6021 TWIST RIGHT-ARM COUNTERCLOCKWISE
-0.6021 TWIST RIGHT-GRIPPER CLOCKWISE
-0.6021 TWIST RIGHT-GRIPPER COUNTERCLOCKWISE
-0.6021 TWIST RIGHT-HAND CLOCKWISE
-0.6021 TWIST RIGHT-HAND COUNTERCLOCKWISE

\end\
