Language model created by QuickLM on Mon Aug  4 17:37:50 EDT 2014
Copyright (c) 1996-2010 Carnegie Mellon University and Alexander I. Rudnicky

The model is in standard ARPA format, designed by Doug Paul while he was at MITRE.

The code that was used to produce this language model is available in Open Source.
Please visit http://www.speech.cs.cmu.edu/tools/ for more information

The (fixed) discount mass is 0.5. The backoffs are computed using the ratio method.
This model based on a corpus of 301 sentences and 36 words

\data\
ngram 1=36
ngram 2=157
ngram 3=283

\1-grams:
-1.0885 </s> -0.3010
-1.0885 <s> -0.2641
-1.7097 ABOVE -0.2733
-1.5101 BOX -0.2255
-2.7889 CLOSE -0.2657
-1.5101 CRIMSON -0.2733
-1.5101 CUBE -0.2255
-2.7889 DOWN -0.2641
-2.1868 GRAB -0.2733
-2.7889 HIGHER -0.2641
-2.7889 LEFT -0.2641
-1.8858 LEFT-ARM -0.2379
-1.8858 LEFT-GRIPPER -0.2379
-1.8858 LEFT-HAND -0.2379
-2.9650 LOOK -0.2733
-2.9650 LOOK-AT -0.2733
-2.7889 LOWER -0.2641
-1.5584 MOVE -0.2657
-1.7097 NEXT-TO -0.2733
-2.7889 OPEN -0.2657
-2.1868 PICK -0.2733
-2.1868 PICK-UP -0.2733
-1.8858 PLACE -0.2837
-1.8858 PUT -0.2837
-2.7889 RAISE -0.2641
-1.5101 RED -0.2733
-2.7889 RELEASE -0.2657
-2.7889 RIGHT -0.2641
-1.8858 RIGHT-ARM -0.2379
-1.8858 RIGHT-GRIPPER -0.2379
-1.8858 RIGHT-HAND -0.2379
-3.5670 SAVE -0.2641
-2.7889 TO-THE-LEFT -0.2641
-2.7889 TO-THE-RIGHT -0.2641
-2.9650 TURN-YOUR-HEAD -0.2733
-2.7889 UP -0.2641

\2-grams:
-2.0014 <s> CLOSE 0.0000
-1.3994 <s> GRAB 0.0000
-2.1775 <s> LOOK 0.0000
-2.1775 <s> LOOK-AT 0.0000
-0.7710 <s> MOVE 0.0000
-2.0014 <s> OPEN 0.0000
-1.3994 <s> PICK 0.0000
-1.3994 <s> PICK-UP 0.0000
-1.0984 <s> PLACE 0.0000
-1.0984 <s> PUT 0.0000
-2.0014 <s> RELEASE 0.0000
-2.7796 <s> SAVE 0.0000
-2.1775 <s> TURN-YOUR-HEAD 0.0000
-0.6021 ABOVE CRIMSON 0.0000
-0.6021 ABOVE RED 0.0000
-0.8808 BOX </s> -0.3010
-1.2118 BOX LEFT-ARM -0.1317
-1.2118 BOX LEFT-GRIPPER -0.1317
-1.2118 BOX LEFT-HAND -0.1317
-1.2118 BOX RIGHT-ARM -0.1317
-1.2118 BOX RIGHT-GRIPPER -0.1317
-1.2118 BOX RIGHT-HAND -0.1317
-1.0792 CLOSE LEFT-ARM -0.1317
-1.0792 CLOSE LEFT-GRIPPER -0.1317
-1.0792 CLOSE LEFT-HAND -0.1317
-1.0792 CLOSE RIGHT-ARM -0.1317
-1.0792 CLOSE RIGHT-GRIPPER -0.1317
-1.0792 CLOSE RIGHT-HAND -0.1317
-0.6021 CRIMSON BOX -0.0000
-0.6021 CRIMSON CUBE -0.0000
-0.8808 CUBE </s> -0.3010
-1.2118 CUBE LEFT-ARM -0.1317
-1.2118 CUBE LEFT-GRIPPER -0.1317
-1.2118 CUBE LEFT-HAND -0.1317
-1.2118 CUBE RIGHT-ARM -0.1317
-1.2118 CUBE RIGHT-GRIPPER -0.1317
-1.2118 CUBE RIGHT-HAND -0.1317
-0.3010 DOWN </s> -0.3010
-0.6021 GRAB CRIMSON 0.0000
-0.6021 GRAB RED 0.0000
-0.3010 HIGHER </s> -0.3010
-0.3010 LEFT </s> -0.3010
-0.4909 LEFT-ARM </s> -0.3010
-1.3802 LEFT-ARM ABOVE 0.0000
-1.9823 LEFT-ARM DOWN 0.0000
-1.9823 LEFT-ARM HIGHER 0.0000
-1.9823 LEFT-ARM LEFT 0.0000
-1.9823 LEFT-ARM LOWER 0.0000
-1.3802 LEFT-ARM NEXT-TO 0.0000
-1.9823 LEFT-ARM RAISE 0.0000
-1.9823 LEFT-ARM RIGHT 0.0000
-1.9823 LEFT-ARM TO-THE-LEFT 0.0000
-1.9823 LEFT-ARM TO-THE-RIGHT 0.0000
-1.9823 LEFT-ARM UP 0.0000
-0.4909 LEFT-GRIPPER </s> -0.3010
-1.3802 LEFT-GRIPPER ABOVE 0.0000
-1.9823 LEFT-GRIPPER DOWN 0.0000
-1.9823 LEFT-GRIPPER HIGHER 0.0000
-1.9823 LEFT-GRIPPER LEFT 0.0000
-1.9823 LEFT-GRIPPER LOWER 0.0000
-1.3802 LEFT-GRIPPER NEXT-TO 0.0000
-1.9823 LEFT-GRIPPER RAISE 0.0000
-1.9823 LEFT-GRIPPER RIGHT 0.0000
-1.9823 LEFT-GRIPPER TO-THE-LEFT 0.0000
-1.9823 LEFT-GRIPPER TO-THE-RIGHT 0.0000
-1.9823 LEFT-GRIPPER UP 0.0000
-0.4909 LEFT-HAND </s> -0.3010
-1.3802 LEFT-HAND ABOVE 0.0000
-1.9823 LEFT-HAND DOWN 0.0000
-1.9823 LEFT-HAND HIGHER 0.0000
-1.9823 LEFT-HAND LEFT 0.0000
-1.9823 LEFT-HAND LOWER 0.0000
-1.3802 LEFT-HAND NEXT-TO 0.0000
-1.9823 LEFT-HAND RAISE 0.0000
-1.9823 LEFT-HAND RIGHT 0.0000
-1.9823 LEFT-HAND TO-THE-LEFT 0.0000
-1.9823 LEFT-HAND TO-THE-RIGHT 0.0000
-1.9823 LEFT-HAND UP 0.0000
-0.6021 LOOK CRIMSON 0.0000
-0.6021 LOOK RED 0.0000
-0.6021 LOOK-AT CRIMSON 0.0000
-0.6021 LOOK-AT RED 0.0000
-0.3010 LOWER </s> -0.3010
-1.0792 MOVE LEFT-ARM -0.2164
-1.0792 MOVE LEFT-GRIPPER -0.2164
-1.0792 MOVE LEFT-HAND -0.2164
-1.0792 MOVE RIGHT-ARM -0.2164
-1.0792 MOVE RIGHT-GRIPPER -0.2164
-1.0792 MOVE RIGHT-HAND -0.2164
-0.6021 NEXT-TO CRIMSON 0.0000
-0.6021 NEXT-TO RED 0.0000
-1.0792 OPEN LEFT-ARM -0.1317
-1.0792 OPEN LEFT-GRIPPER -0.1317
-1.0792 OPEN LEFT-HAND -0.1317
-1.0792 OPEN RIGHT-ARM -0.1317
-1.0792 OPEN RIGHT-GRIPPER -0.1317
-1.0792 OPEN RIGHT-HAND -0.1317
-0.6021 PICK CRIMSON 0.0000
-0.6021 PICK RED 0.0000
-0.6021 PICK-UP CRIMSON 0.0000
-0.6021 PICK-UP RED 0.0000
-0.6021 PLACE ABOVE 0.0000
-0.6021 PLACE NEXT-TO 0.0000
-0.6021 PUT ABOVE 0.0000
-0.6021 PUT NEXT-TO 0.0000
-0.3010 RAISE </s> -0.3010
-0.6021 RED BOX -0.0000
-0.6021 RED CUBE -0.0000
-1.0792 RELEASE LEFT-ARM -0.1317
-1.0792 RELEASE LEFT-GRIPPER -0.1317
-1.0792 RELEASE LEFT-HAND -0.1317
-1.0792 RELEASE RIGHT-ARM -0.1317
-1.0792 RELEASE RIGHT-GRIPPER -0.1317
-1.0792 RELEASE RIGHT-HAND -0.1317
-0.3010 RIGHT </s> -0.3010
-0.4909 RIGHT-ARM </s> -0.3010
-1.3802 RIGHT-ARM ABOVE 0.0000
-1.9823 RIGHT-ARM DOWN 0.0000
-1.9823 RIGHT-ARM HIGHER 0.0000
-1.9823 RIGHT-ARM LEFT 0.0000
-1.9823 RIGHT-ARM LOWER 0.0000
-1.3802 RIGHT-ARM NEXT-TO 0.0000
-1.9823 RIGHT-ARM RAISE 0.0000
-1.9823 RIGHT-ARM RIGHT 0.0000
-1.9823 RIGHT-ARM TO-THE-LEFT 0.0000
-1.9823 RIGHT-ARM TO-THE-RIGHT 0.0000
-1.9823 RIGHT-ARM UP 0.0000
-0.4909 RIGHT-GRIPPER </s> -0.3010
-1.3802 RIGHT-GRIPPER ABOVE 0.0000
-1.9823 RIGHT-GRIPPER DOWN 0.0000
-1.9823 RIGHT-GRIPPER HIGHER 0.0000
-1.9823 RIGHT-GRIPPER LEFT 0.0000
-1.9823 RIGHT-GRIPPER LOWER 0.0000
-1.3802 RIGHT-GRIPPER NEXT-TO 0.0000
-1.9823 RIGHT-GRIPPER RAISE 0.0000
-1.9823 RIGHT-GRIPPER RIGHT 0.0000
-1.9823 RIGHT-GRIPPER TO-THE-LEFT 0.0000
-1.9823 RIGHT-GRIPPER TO-THE-RIGHT 0.0000
-1.9823 RIGHT-GRIPPER UP 0.0000
-0.4909 RIGHT-HAND </s> -0.3010
-1.3802 RIGHT-HAND ABOVE 0.0000
-1.9823 RIGHT-HAND DOWN 0.0000
-1.9823 RIGHT-HAND HIGHER 0.0000
-1.9823 RIGHT-HAND LEFT 0.0000
-1.9823 RIGHT-HAND LOWER 0.0000
-1.3802 RIGHT-HAND NEXT-TO 0.0000
-1.9823 RIGHT-HAND RAISE 0.0000
-1.9823 RIGHT-HAND RIGHT 0.0000
-1.9823 RIGHT-HAND TO-THE-LEFT 0.0000
-1.9823 RIGHT-HAND TO-THE-RIGHT 0.0000
-1.9823 RIGHT-HAND UP 0.0000
-0.3010 SAVE </s> -0.3010
-0.3010 TO-THE-LEFT </s> -0.3010
-0.3010 TO-THE-RIGHT </s> -0.3010
-0.6021 TURN-YOUR-HEAD CRIMSON 0.0000
-0.6021 TURN-YOUR-HEAD RED 0.0000
-0.3010 UP </s> -0.3010

\3-grams:
-1.0792 <s> CLOSE LEFT-ARM
-1.0792 <s> CLOSE LEFT-GRIPPER
-1.0792 <s> CLOSE LEFT-HAND
-1.0792 <s> CLOSE RIGHT-ARM
-1.0792 <s> CLOSE RIGHT-GRIPPER
-1.0792 <s> CLOSE RIGHT-HAND
-0.6021 <s> GRAB CRIMSON
-0.6021 <s> GRAB RED
-0.6021 <s> LOOK CRIMSON
-0.6021 <s> LOOK RED
-0.6021 <s> LOOK-AT CRIMSON
-0.6021 <s> LOOK-AT RED
-1.0792 <s> MOVE LEFT-ARM
-1.0792 <s> MOVE LEFT-GRIPPER
-1.0792 <s> MOVE LEFT-HAND
-1.0792 <s> MOVE RIGHT-ARM
-1.0792 <s> MOVE RIGHT-GRIPPER
-1.0792 <s> MOVE RIGHT-HAND
-1.0792 <s> OPEN LEFT-ARM
-1.0792 <s> OPEN LEFT-GRIPPER
-1.0792 <s> OPEN LEFT-HAND
-1.0792 <s> OPEN RIGHT-ARM
-1.0792 <s> OPEN RIGHT-GRIPPER
-1.0792 <s> OPEN RIGHT-HAND
-0.6021 <s> PICK CRIMSON
-0.6021 <s> PICK RED
-0.6021 <s> PICK-UP CRIMSON
-0.6021 <s> PICK-UP RED
-0.6021 <s> PLACE ABOVE
-0.6021 <s> PLACE NEXT-TO
-0.6021 <s> PUT ABOVE
-0.6021 <s> PUT NEXT-TO
-1.0792 <s> RELEASE LEFT-ARM
-1.0792 <s> RELEASE LEFT-GRIPPER
-1.0792 <s> RELEASE LEFT-HAND
-1.0792 <s> RELEASE RIGHT-ARM
-1.0792 <s> RELEASE RIGHT-GRIPPER
-1.0792 <s> RELEASE RIGHT-HAND
-0.3010 <s> SAVE </s>
-0.6021 <s> TURN-YOUR-HEAD CRIMSON
-0.6021 <s> TURN-YOUR-HEAD RED
-0.6021 ABOVE CRIMSON BOX
-0.6021 ABOVE CRIMSON CUBE
-0.6021 ABOVE RED BOX
-0.6021 ABOVE RED CUBE
-0.3010 BOX LEFT-ARM </s>
-0.3010 BOX LEFT-GRIPPER </s>
-0.3010 BOX LEFT-HAND </s>
-0.3010 BOX RIGHT-ARM </s>
-0.3010 BOX RIGHT-GRIPPER </s>
-0.3010 BOX RIGHT-HAND </s>
-0.3010 CLOSE LEFT-ARM </s>
-0.3010 CLOSE LEFT-GRIPPER </s>
-0.3010 CLOSE LEFT-HAND </s>
-0.3010 CLOSE RIGHT-ARM </s>
-0.3010 CLOSE RIGHT-GRIPPER </s>
-0.3010 CLOSE RIGHT-HAND </s>
-0.8808 CRIMSON BOX </s>
-1.2118 CRIMSON BOX LEFT-ARM
-1.2118 CRIMSON BOX LEFT-GRIPPER
-1.2118 CRIMSON BOX LEFT-HAND
-1.2118 CRIMSON BOX RIGHT-ARM
-1.2118 CRIMSON BOX RIGHT-GRIPPER
-1.2118 CRIMSON BOX RIGHT-HAND
-0.8808 CRIMSON CUBE </s>
-1.2118 CRIMSON CUBE LEFT-ARM
-1.2118 CRIMSON CUBE LEFT-GRIPPER
-1.2118 CRIMSON CUBE LEFT-HAND
-1.2118 CRIMSON CUBE RIGHT-ARM
-1.2118 CRIMSON CUBE RIGHT-GRIPPER
-1.2118 CRIMSON CUBE RIGHT-HAND
-0.3010 CUBE LEFT-ARM </s>
-0.3010 CUBE LEFT-GRIPPER </s>
-0.3010 CUBE LEFT-HAND </s>
-0.3010 CUBE RIGHT-ARM </s>
-0.3010 CUBE RIGHT-GRIPPER </s>
-0.3010 CUBE RIGHT-HAND </s>
-0.6021 GRAB CRIMSON BOX
-0.6021 GRAB CRIMSON CUBE
-0.6021 GRAB RED BOX
-0.6021 GRAB RED CUBE
-0.6021 LEFT-ARM ABOVE CRIMSON
-0.6021 LEFT-ARM ABOVE RED
-0.3010 LEFT-ARM DOWN </s>
-0.3010 LEFT-ARM HIGHER </s>
-0.3010 LEFT-ARM LEFT </s>
-0.3010 LEFT-ARM LOWER </s>
-0.6021 LEFT-ARM NEXT-TO CRIMSON
-0.6021 LEFT-ARM NEXT-TO RED
-0.3010 LEFT-ARM RAISE </s>
-0.3010 LEFT-ARM RIGHT </s>
-0.3010 LEFT-ARM TO-THE-LEFT </s>
-0.3010 LEFT-ARM TO-THE-RIGHT </s>
-0.3010 LEFT-ARM UP </s>
-0.6021 LEFT-GRIPPER ABOVE CRIMSON
-0.6021 LEFT-GRIPPER ABOVE RED
-0.3010 LEFT-GRIPPER DOWN </s>
-0.3010 LEFT-GRIPPER HIGHER </s>
-0.3010 LEFT-GRIPPER LEFT </s>
-0.3010 LEFT-GRIPPER LOWER </s>
-0.6021 LEFT-GRIPPER NEXT-TO CRIMSON
-0.6021 LEFT-GRIPPER NEXT-TO RED
-0.3010 LEFT-GRIPPER RAISE </s>
-0.3010 LEFT-GRIPPER RIGHT </s>
-0.3010 LEFT-GRIPPER TO-THE-LEFT </s>
-0.3010 LEFT-GRIPPER TO-THE-RIGHT </s>
-0.3010 LEFT-GRIPPER UP </s>
-0.6021 LEFT-HAND ABOVE CRIMSON
-0.6021 LEFT-HAND ABOVE RED
-0.3010 LEFT-HAND DOWN </s>
-0.3010 LEFT-HAND HIGHER </s>
-0.3010 LEFT-HAND LEFT </s>
-0.3010 LEFT-HAND LOWER </s>
-0.6021 LEFT-HAND NEXT-TO CRIMSON
-0.6021 LEFT-HAND NEXT-TO RED
-0.3010 LEFT-HAND RAISE </s>
-0.3010 LEFT-HAND RIGHT </s>
-0.3010 LEFT-HAND TO-THE-LEFT </s>
-0.3010 LEFT-HAND TO-THE-RIGHT </s>
-0.3010 LEFT-HAND UP </s>
-0.6021 LOOK CRIMSON BOX
-0.6021 LOOK CRIMSON CUBE
-0.6021 LOOK RED BOX
-0.6021 LOOK RED CUBE
-0.6021 LOOK-AT CRIMSON BOX
-0.6021 LOOK-AT CRIMSON CUBE
-0.6021 LOOK-AT RED BOX
-0.6021 LOOK-AT RED CUBE
-0.9294 MOVE LEFT-ARM ABOVE
-1.5315 MOVE LEFT-ARM DOWN
-1.5315 MOVE LEFT-ARM HIGHER
-1.5315 MOVE LEFT-ARM LEFT
-1.5315 MOVE LEFT-ARM LOWER
-0.9294 MOVE LEFT-ARM NEXT-TO
-1.5315 MOVE LEFT-ARM RAISE
-1.5315 MOVE LEFT-ARM RIGHT
-1.5315 MOVE LEFT-ARM TO-THE-LEFT
-1.5315 MOVE LEFT-ARM TO-THE-RIGHT
-1.5315 MOVE LEFT-ARM UP
-0.9294 MOVE LEFT-GRIPPER ABOVE
-1.5315 MOVE LEFT-GRIPPER DOWN
-1.5315 MOVE LEFT-GRIPPER HIGHER
-1.5315 MOVE LEFT-GRIPPER LEFT
-1.5315 MOVE LEFT-GRIPPER LOWER
-0.9294 MOVE LEFT-GRIPPER NEXT-TO
-1.5315 MOVE LEFT-GRIPPER RAISE
-1.5315 MOVE LEFT-GRIPPER RIGHT
-1.5315 MOVE LEFT-GRIPPER TO-THE-LEFT
-1.5315 MOVE LEFT-GRIPPER TO-THE-RIGHT
-1.5315 MOVE LEFT-GRIPPER UP
-0.9294 MOVE LEFT-HAND ABOVE
-1.5315 MOVE LEFT-HAND DOWN
-1.5315 MOVE LEFT-HAND HIGHER
-1.5315 MOVE LEFT-HAND LEFT
-1.5315 MOVE LEFT-HAND LOWER
-0.9294 MOVE LEFT-HAND NEXT-TO
-1.5315 MOVE LEFT-HAND RAISE
-1.5315 MOVE LEFT-HAND RIGHT
-1.5315 MOVE LEFT-HAND TO-THE-LEFT
-1.5315 MOVE LEFT-HAND TO-THE-RIGHT
-1.5315 MOVE LEFT-HAND UP
-0.9294 MOVE RIGHT-ARM ABOVE
-1.5315 MOVE RIGHT-ARM DOWN
-1.5315 MOVE RIGHT-ARM HIGHER
-1.5315 MOVE RIGHT-ARM LEFT
-1.5315 MOVE RIGHT-ARM LOWER
-0.9294 MOVE RIGHT-ARM NEXT-TO
-1.5315 MOVE RIGHT-ARM RAISE
-1.5315 MOVE RIGHT-ARM RIGHT
-1.5315 MOVE RIGHT-ARM TO-THE-LEFT
-1.5315 MOVE RIGHT-ARM TO-THE-RIGHT
-1.5315 MOVE RIGHT-ARM UP
-0.9294 MOVE RIGHT-GRIPPER ABOVE
-1.5315 MOVE RIGHT-GRIPPER DOWN
-1.5315 MOVE RIGHT-GRIPPER HIGHER
-1.5315 MOVE RIGHT-GRIPPER LEFT
-1.5315 MOVE RIGHT-GRIPPER LOWER
-0.9294 MOVE RIGHT-GRIPPER NEXT-TO
-1.5315 MOVE RIGHT-GRIPPER RAISE
-1.5315 MOVE RIGHT-GRIPPER RIGHT
-1.5315 MOVE RIGHT-GRIPPER TO-THE-LEFT
-1.5315 MOVE RIGHT-GRIPPER TO-THE-RIGHT
-1.5315 MOVE RIGHT-GRIPPER UP
-0.9294 MOVE RIGHT-HAND ABOVE
-1.5315 MOVE RIGHT-HAND DOWN
-1.5315 MOVE RIGHT-HAND HIGHER
-1.5315 MOVE RIGHT-HAND LEFT
-1.5315 MOVE RIGHT-HAND LOWER
-0.9294 MOVE RIGHT-HAND NEXT-TO
-1.5315 MOVE RIGHT-HAND RAISE
-1.5315 MOVE RIGHT-HAND RIGHT
-1.5315 MOVE RIGHT-HAND TO-THE-LEFT
-1.5315 MOVE RIGHT-HAND TO-THE-RIGHT
-1.5315 MOVE RIGHT-HAND UP
-0.6021 NEXT-TO CRIMSON BOX
-0.6021 NEXT-TO CRIMSON CUBE
-0.6021 NEXT-TO RED BOX
-0.6021 NEXT-TO RED CUBE
-0.3010 OPEN LEFT-ARM </s>
-0.3010 OPEN LEFT-GRIPPER </s>
-0.3010 OPEN LEFT-HAND </s>
-0.3010 OPEN RIGHT-ARM </s>
-0.3010 OPEN RIGHT-GRIPPER </s>
-0.3010 OPEN RIGHT-HAND </s>
-0.6021 PICK CRIMSON BOX
-0.6021 PICK CRIMSON CUBE
-0.6021 PICK RED BOX
-0.6021 PICK RED CUBE
-0.6021 PICK-UP CRIMSON BOX
-0.6021 PICK-UP CRIMSON CUBE
-0.6021 PICK-UP RED BOX
-0.6021 PICK-UP RED CUBE
-0.6021 PLACE ABOVE CRIMSON
-0.6021 PLACE ABOVE RED
-0.6021 PLACE NEXT-TO CRIMSON
-0.6021 PLACE NEXT-TO RED
-0.6021 PUT ABOVE CRIMSON
-0.6021 PUT ABOVE RED
-0.6021 PUT NEXT-TO CRIMSON
-0.6021 PUT NEXT-TO RED
-0.8808 RED BOX </s>
-1.2118 RED BOX LEFT-ARM
-1.2118 RED BOX LEFT-GRIPPER
-1.2118 RED BOX LEFT-HAND
-1.2118 RED BOX RIGHT-ARM
-1.2118 RED BOX RIGHT-GRIPPER
-1.2118 RED BOX RIGHT-HAND
-0.8808 RED CUBE </s>
-1.2118 RED CUBE LEFT-ARM
-1.2118 RED CUBE LEFT-GRIPPER
-1.2118 RED CUBE LEFT-HAND
-1.2118 RED CUBE RIGHT-ARM
-1.2118 RED CUBE RIGHT-GRIPPER
-1.2118 RED CUBE RIGHT-HAND
-0.3010 RELEASE LEFT-ARM </s>
-0.3010 RELEASE LEFT-GRIPPER </s>
-0.3010 RELEASE LEFT-HAND </s>
-0.3010 RELEASE RIGHT-ARM </s>
-0.3010 RELEASE RIGHT-GRIPPER </s>
-0.3010 RELEASE RIGHT-HAND </s>
-0.6021 RIGHT-ARM ABOVE CRIMSON
-0.6021 RIGHT-ARM ABOVE RED
-0.3010 RIGHT-ARM DOWN </s>
-0.3010 RIGHT-ARM HIGHER </s>
-0.3010 RIGHT-ARM LEFT </s>
-0.3010 RIGHT-ARM LOWER </s>
-0.6021 RIGHT-ARM NEXT-TO CRIMSON
-0.6021 RIGHT-ARM NEXT-TO RED
-0.3010 RIGHT-ARM RAISE </s>
-0.3010 RIGHT-ARM RIGHT </s>
-0.3010 RIGHT-ARM TO-THE-LEFT </s>
-0.3010 RIGHT-ARM TO-THE-RIGHT </s>
-0.3010 RIGHT-ARM UP </s>
-0.6021 RIGHT-GRIPPER ABOVE CRIMSON
-0.6021 RIGHT-GRIPPER ABOVE RED
-0.3010 RIGHT-GRIPPER DOWN </s>
-0.3010 RIGHT-GRIPPER HIGHER </s>
-0.3010 RIGHT-GRIPPER LEFT </s>
-0.3010 RIGHT-GRIPPER LOWER </s>
-0.6021 RIGHT-GRIPPER NEXT-TO CRIMSON
-0.6021 RIGHT-GRIPPER NEXT-TO RED
-0.3010 RIGHT-GRIPPER RAISE </s>
-0.3010 RIGHT-GRIPPER RIGHT </s>
-0.3010 RIGHT-GRIPPER TO-THE-LEFT </s>
-0.3010 RIGHT-GRIPPER TO-THE-RIGHT </s>
-0.3010 RIGHT-GRIPPER UP </s>
-0.6021 RIGHT-HAND ABOVE CRIMSON
-0.6021 RIGHT-HAND ABOVE RED
-0.3010 RIGHT-HAND DOWN </s>
-0.3010 RIGHT-HAND HIGHER </s>
-0.3010 RIGHT-HAND LEFT </s>
-0.3010 RIGHT-HAND LOWER </s>
-0.6021 RIGHT-HAND NEXT-TO CRIMSON
-0.6021 RIGHT-HAND NEXT-TO RED
-0.3010 RIGHT-HAND RAISE </s>
-0.3010 RIGHT-HAND RIGHT </s>
-0.3010 RIGHT-HAND TO-THE-LEFT </s>
-0.3010 RIGHT-HAND TO-THE-RIGHT </s>
-0.3010 RIGHT-HAND UP </s>
-0.6021 TURN-YOUR-HEAD CRIMSON BOX
-0.6021 TURN-YOUR-HEAD CRIMSON CUBE
-0.6021 TURN-YOUR-HEAD RED BOX
-0.6021 TURN-YOUR-HEAD RED CUBE

\end\
