Language model created by QuickLM on Wed May 28 18:25:05 EDT 2014
Copyright (c) 1996-2010 Carnegie Mellon University and Alexander I. Rudnicky

The model is in standard ARPA format, designed by Doug Paul while he was at MITRE.

The code that was used to produce this language model is available in Open Source.
Please visit http://www.speech.cs.cmu.edu/tools/ for more information

The (fixed) discount mass is 0.5. The backoffs are computed using the ratio method.
This model based on a corpus of 17 sentences and 19 words

\data\
ngram 1=19
ngram 2=34
ngram 3=17

\1-grams:
-0.7782 </s> -0.3010
-0.7782 <s> -0.2218
-2.0086 CLEAR-SKILL -0.2218
-2.0086 CLOSE-LEFT-HAND -0.2218
-2.0086 CLOSE-RIGHT-HAND -0.2218
-2.0086 CREATE-NEW-SKILL -0.2218
-2.0086 DELETE-LAST-STEP -0.2218
-2.0086 EXECUTE-SKILL -0.2218
-2.0086 HOLD-LEFT-ARM -0.2218
-2.0086 HOLD-RIGHT-ARM -0.2218
-2.0086 NEXT-SKILL -0.2218
-2.0086 OPEN-LEFT-HAND -0.2218
-2.0086 OPEN-RIGHT-HAND -0.2218
-2.0086 PREVIOUS-SKILL -0.2218
-2.0086 RELEASE-LEFT-ARM -0.2218
-2.0086 RELEASE-RIGHT-ARM -0.2218
-2.0086 SAVE-POSE -0.2218
-2.0086 TEST-MICROPHONE -0.2218
-2.0086 UNDO-LAST-COMMAND -0.2218

\2-grams:
-1.5315 <s> CLEAR-SKILL 0.0000
-1.5315 <s> CLOSE-LEFT-HAND 0.0000
-1.5315 <s> CLOSE-RIGHT-HAND 0.0000
-1.5315 <s> CREATE-NEW-SKILL 0.0000
-1.5315 <s> DELETE-LAST-STEP 0.0000
-1.5315 <s> EXECUTE-SKILL 0.0000
-1.5315 <s> HOLD-LEFT-ARM 0.0000
-1.5315 <s> HOLD-RIGHT-ARM 0.0000
-1.5315 <s> NEXT-SKILL 0.0000
-1.5315 <s> OPEN-LEFT-HAND 0.0000
-1.5315 <s> OPEN-RIGHT-HAND 0.0000
-1.5315 <s> PREVIOUS-SKILL 0.0000
-1.5315 <s> RELEASE-LEFT-ARM 0.0000
-1.5315 <s> RELEASE-RIGHT-ARM 0.0000
-1.5315 <s> SAVE-POSE 0.0000
-1.5315 <s> TEST-MICROPHONE 0.0000
-1.5315 <s> UNDO-LAST-COMMAND 0.0000
-0.3010 CLEAR-SKILL </s> -0.3010
-0.3010 CLOSE-LEFT-HAND </s> -0.3010
-0.3010 CLOSE-RIGHT-HAND </s> -0.3010
-0.3010 CREATE-NEW-SKILL </s> -0.3010
-0.3010 DELETE-LAST-STEP </s> -0.3010
-0.3010 EXECUTE-SKILL </s> -0.3010
-0.3010 HOLD-LEFT-ARM </s> -0.3010
-0.3010 HOLD-RIGHT-ARM </s> -0.3010
-0.3010 NEXT-SKILL </s> -0.3010
-0.3010 OPEN-LEFT-HAND </s> -0.3010
-0.3010 OPEN-RIGHT-HAND </s> -0.3010
-0.3010 PREVIOUS-SKILL </s> -0.3010
-0.3010 RELEASE-LEFT-ARM </s> -0.3010
-0.3010 RELEASE-RIGHT-ARM </s> -0.3010
-0.3010 SAVE-POSE </s> -0.3010
-0.3010 TEST-MICROPHONE </s> -0.3010
-0.3010 UNDO-LAST-COMMAND </s> -0.3010

\3-grams:
-0.3010 <s> CLEAR-SKILL </s>
-0.3010 <s> CLOSE-LEFT-HAND </s>
-0.3010 <s> CLOSE-RIGHT-HAND </s>
-0.3010 <s> CREATE-NEW-SKILL </s>
-0.3010 <s> DELETE-LAST-STEP </s>
-0.3010 <s> EXECUTE-SKILL </s>
-0.3010 <s> HOLD-LEFT-ARM </s>
-0.3010 <s> HOLD-RIGHT-ARM </s>
-0.3010 <s> NEXT-SKILL </s>
-0.3010 <s> OPEN-LEFT-HAND </s>
-0.3010 <s> OPEN-RIGHT-HAND </s>
-0.3010 <s> PREVIOUS-SKILL </s>
-0.3010 <s> RELEASE-LEFT-ARM </s>
-0.3010 <s> RELEASE-RIGHT-ARM </s>
-0.3010 <s> SAVE-POSE </s>
-0.3010 <s> TEST-MICROPHONE </s>
-0.3010 <s> UNDO-LAST-COMMAND </s>

\end\
